0.0197798883122470	-0.0120840889095070	0.0327290526650198	-0.0407792115736973	0.0912756230599454	0.118160304657121	0.0301813068626702	-0.0597613281847436	-0.0464236828774979	-0.0593379692840974	0.106987809381532	0.0133318976470325	0.0206246555557766	-0.00506293160657834	0.00843741521161073	-0.0529362338834398	-0.00657321643566033	0.0597542317037040	0.0207951348170091	-0.0112483949336903	0.0322525656971119	-0.0522141846398135	-0.0459069076818004	-0.00554401676536940	-0.0533226995665724	0.0265542516972454	-0.0570439107159178	0.0983842755495525	0.0269124907980588	-0.0622648425673227	-0.0555079096167480	0.0906795332264603	-0.0574844430907651	0.0548273240966932	-0.0933387663362802	-0.0397084642484642	0.0359115902563224	-0.0889444444344679	0.0669321599497979	-0.0714633382621411	0.110204956271604	-0.0556781876053023	-0.0850695826204798	-0.0836381942040432	0.0253117795065951	-0.0532165094465494	0.0374871986670798	-0.0254828222668362	0.0688638950966814	-0.0436020187471171	0.0445391786090638	-0.0244369939631696	-0.0840510966555889	-0.111267372710661	-0.0116672453885162	-0.0814715636986850	0.0560527634984407	-0.0362703633250071	-0.0480688333510431	0.00947349502205371	-0.0238416406892715	-0.0244318752559426	0.0637796568363291	-0.00880441223933753	0.0248736814036606	0.162982491266943	0.0903553397087115	0.0241492150619403	-0.0630283960856022	-0.0189338260226179	0.0139426502527488	0.0102906730024181	-0.00179042583216634	0.0241029597431019	0.0145423438178848	0.00149947574362095	0.0705948234129943	-0.0100312276623003	0.0213157467283852	-0.0318544286099270	0.00905040641318406	-0.0331520867538175	0.0141714744950876	-0.0758440668145481	0.0719000421404036	-0.0483304154234314	0.126550165859770	-0.0681710525829552	-0.0207982780117364	-0.00639783802355262	0.0519065787476442	-0.0252167389964820	0.0112121467979189	0.0596852274603908	-0.182039932052862	0.161354756519634	0.0199712113994909	0.0309601651360624	0.0318166937455763	-0.0209594121802750	0.0866303441332708	0.0374689656450799	-0.0281004123456733	-0.0209585006688208	0.0107300325618446	-0.0676209734620738	0.0595048792446478	-0.161959633998116	0.104917104426531	-0.0521105494513299	0.0416147468557770	0.0842561394911384	-0.0353697125515314	-0.0445971931287844	0.0464546848418995	0.0660004018729673	0.0653493447511375	-0.0538788633782741	0.111330903790498	-0.0182148702322347	-0.0161976611791231	-0.0225732378165618	0.0290605277122345	-0.0218269193684754	-0.0119978536620328	0.000878042096481256	0.0262561357970386	0.0100521234323696	-0.0227068536655428	0.122937975700120	-0.174258200891503	-0.0186926748639262	-0.114387785011716	0.104838700300794	0.00296831117480861	0.0655254662157650	-0.000646960322163421	0.0339281360998579	-0.0878211134256262	0.0518655855405269	-0.00844968633263489	-0.113662785791258	0.00408131698924390	0.0992606270670364	0.0150746266121541	-0.0392709062381391	-0.0617739825718942	-0.0368670251470372	0.0111988252939810	-0.124742822463029	0.00675414237923433	0.0345045413950534	-0.0820895932590807	0.0178858515787295	-0.0222849736385651	0.0397934746897410	0.0229258633178777	0.00793562574265050	-0.0500138873405325	0.123699457533121	-0.0149589734013497	0.0609037120304478	-0.0478101200972456	0.129015711380107	-0.0392252015730687	-0.0338434711808386	0.0203736316776478	0.0828503071067867	0.0642097708162546	-0.104344407282695	-0.0777041002727043	0.0538896232419397	-0.0808377169026547	0.0202078029498368	-0.111552192921619	0.0622433261085399	-0.0260583376875519	0.0922407654445247	-0.00352998176011704	0.0445233905379211	0.0126340572874502	0.0612871017597373	-0.0235351760385579	-0.0472762062524726	0.0359062353486111	0.0190617104652804	0.0406986325705107	-0.0447263950449085	0.100655968307737	-0.0742387570575804	-0.0479841001222060	0.0237533829102726	0.0365772024763283	-0.0539606526547005	-0.0892455370183523	-0.123892071734523	-0.0332662753653052	-0.0619004980121415	-0.00670290352576497	-0.0129332935968678	-0.0390349246083309	-0.113426809842120	-0.0399897654322098	0.0753673931057181	0.0766594220460873	-0.0641559891512418	0.00377137435955206	0.0344372240444796	0.00307733068388948	-0.0743864843625093	-0.0918788259276824	0.0874542624019560	0.0268526863300482	-0.00727810423653491	-0.100580988144641	-0.0644632519675982	-0.121094828809716	0.0451205667655089	-0.0121151878907478	0.0284622672416807	-0.00279112872195527	0.000258042462707807	-0.0289316990853110	-0.00486210806592302	0.0840610198419367	0.0137061977769782	0.0176903482407602	-0.00745300906841850	-0.0368071039786995	-0.118101451464466	0.0727464082577474	-0.0836984526085333	0.00744050365783719	0.0903889648784711	-0.104450678314779	0.0419309141580340	-0.0139564751772721	0.0910530344335224	0.0183713352428358	-0.0345664696134470	0.00502204707967559	-0.00851563265677772	0.0927895027295014	-0.161395592229644	-0.0510134344324999	-0.0295170632104899	-0.0622603541804794	0.0629628317341344	-0.0484166570738856	-0.0530618971644616	0.0649109496832984	-0.000748624748643603	0.00197267514331872	-0.0497368094951141	-0.0818806611434288	-0.0501782017637136
0.0428802941254329	0.00427488574862950	0.163710798527529	-0.0131962629597201	0.140247629641662	0.0504772213598913	0.0845967732123238	-0.0229990756220374	0.00964663780692160	-0.0179868132543060	0.0223516873584806	0.0535870875751665	-0.0366386101440889	0.000432079335428326	-0.0490601859403087	0.0447652321203422	-0.0804282264355664	0.0126210496425269	0.0307720153319925	0.143819011695904	-0.0802911217745883	0.0241425238537612	0.0748798760339484	0.0150736794117121	0.112950368579020	-0.0600897478894930	-0.157708022637737	-0.0399413861538002	0.0137594365683646	-0.104101269065705	0.0380041834159842	-0.117599958268999	-0.0467582228752246	-0.0817783142569430	0.0193329146435449	0.0569010742355986	0.0171067196321545	0.128541245478916	-0.00548143547442304	-0.0977658019938408	-0.0224510146296390	-0.00504763595262458	-0.0575126590103590	0.0519617955372729	0.0455808575184746	0.0171700571855707	0.00400143132600021	-0.0486226657245175	0.0109072441204783	-0.00429860340843395	-0.125620862803178	0.0216154743098243	0.108976352639049	0.0110222801764168	0.0239498266204289	-0.0214871076720703	-0.00111918019386716	0.143860657711447	0.0111512037008267	-0.0152861678993218	0.0360497888723560	-0.0234108442474418	0.0731163295800761	0.0977681942576246	0.00782197505658387	0.000516312946093711	-0.0788091556047405	-0.0209682099719970	-0.0297797532419079	0.0161092395760360	-0.109668619261636	-0.0716356909858643	0.0980814938891000	-0.126539545607009	-0.0418099242124531	0.0298737419352559	-0.0259941640251355	0.0346331747081416	-0.134284251152512	-0.0357303186509308	0.118260979738625	-0.0268949494939801	0.0282213366112107	-0.146790573479661	-0.0561092606545063	-0.0411341858312653	0.00271672993029240	-0.0189284957974505	0.00197494035708468	-0.0131464822900137	0.0106848452120111	0.0391134586649778	0.0165506578746723	0.0257218940709098	-0.0882991786724591	0.00121940715602062	0.0534217287009396	0.0311237765771928	-0.139681047885748	0.0345228107952172	0.0349132495469106	-0.0345678942092101	0.0388427812006584	0.0138727775431598	0.0805450853928281	-0.0954865828706927	0.0307917371687568	0.0704692934304086	-0.128837799952174	0.0144471053305742	0.0795143650159005	-0.0777656083701586	-0.00532269580840101	0.0564016638568964	-0.0399205521481881	-0.0178594150091270	-0.0967879893126970	-0.137560391964767	0.126951117274579	0.0350946890759733	0.0335483107448746	-0.00779275199294548	0.0520007636698796	0.175786100763193	0.0655310969528799	0.00157896434508494	0.0317146077586540	-0.0122416830396522	-0.0885108384938482	0.0455483959656628	0.0566745398820791	0.0293423261551633	-0.00680114242300338	0.0262498715094267	0.0101402944581325	0.0259832316495350	0.0284081934231315	0.135867776677023	-0.0187835425604235	0.0230274923719405	0.000850979878082332	0.00728200736838142	-0.0373313713009614	-0.0555454534582968	0.0250690359876536	-0.0391291394110584	0.0395223516919442	-0.0663884773515580	0.0930497458676174	0.0130941546833222	-0.0463298753612671	-0.0897004903253373	0.0213271827655575	-0.131435094919655	0.0689068802515047	-0.00413443610109792	-0.0486873799534914	0.0707207944267079	-0.0662665498265679	-0.0737064712816379	0.0116304688394129	-0.0110812690984743	0.00976875764876629	0.0691520139361790	0.0708452525091368	-0.00149617230339439	-0.125810884954367	-0.0115336518133874	-0.0225715319051631	0.0109374353960198	0.0368776272946291	0.0290578869978406	-0.00386599248959752	-0.0172390687335824	0.00153966903453186	0.142193687354140	-0.0163134640686922	-0.0558843621000264	-0.0232848245883391	0.00709034217210853	0.0340692811603919	-0.0286138733137566	-0.0599712696999549	0.00957578211961634	-0.0462177336559307	0.0130811036000448	0.0664906411805098	0.0670484386581494	0.0329347644516730	-0.161588660591246	-0.0405190551434118	-9.65033905672337e-05	0.00763845617576045	-0.0466969851566765	0.0318982128495126	0.0923759883740399	-0.0826819638894041	0.0302745696715060	-0.0821670743714891	0.0694813895859442	-0.0154884094685845	-0.0247362477244118	-0.0459679734838482	0.0546125959914603	0.0131173986509419	0.0151319439306261	-0.107711882700667	0.0760228477873936	0.0512254032901460	-0.0789925593208811	-0.101166146535703	-0.110765589077124	0.0475777580786510	0.0512321095273125	-0.0277876367098445	-0.0381350822692104	-0.0389276878234749	0.0760080932267111	0.0675111864904692	0.00286392362590844	-0.0580380157983134	0.0748097571604378	-0.0301743870591831	0.0280385218553333	0.0781424165395412	0.0471152631533048	0.0342135400386548	-0.0127683401173452	0.0194433184416916	0.00420889172820305	-0.0466672012593782	-0.0240605384974974	0.0350858676817288	-0.00681723843013554	-0.0333756671133063	0.0166524661872363	0.0207952426385536	-0.000817799089633903	-0.0561099392328298	0.0904780016846651	0.107793234161265	0.0396631968470164	-0.0536299443845462	-0.0495481299442596	0.102312811502811	-0.0463063459289565	-0.0592988725099834	-0.0273178327965732	0.0686590366574360	0.0194485794389526	-0.0761409058086804	0.0211649639385151	0.0145553167259911	0.00767794180131266	0.0724583776658395	0.0696797510265869
-0.0641557529264813	0.149829992254428	-0.000756423323320737	0.0169240254000177	0.149921288614858	-0.0570841838242626	0.0519879518883797	0.0579953479938166	0.0478917498044978	0.114397578498696	0.0714737860501679	0.0438614235280743	-0.127514564029862	-0.0171897026748420	0.0237421373926827	0.0757386326441931	-0.00105474129208938	0.0726842778661187	-0.0409952636436167	0.0230642395109532	0.0218365963595935	-0.0485801125805136	0.0175777997254876	0.0451311436791652	-0.0657471720744260	-0.164242406047951	0.0771777119888697	0.0180350834276164	0.0307129299578154	0.0555817465487830	-0.121454916365455	0.114908670431910	-0.0221430408247418	-0.0526092354875009	0.0408473703999534	0.0591547590621816	-0.0935560000552790	0.0137649140872582	-0.0123367360463022	0.0557339474596060	-0.0204748955942269	0.0834854700589164	-0.0119084716902263	-0.0180207757251881	-0.0977632023052319	0.0137813114904739	-0.0307838206942034	0.0621799087141694	0.00354610752612853	0.0818534657885034	0.0605822886515805	-0.0257384472416391	-0.0570121745177398	0.0930179020139942	0.0176633947236127	0.0693914946522348	-0.0733294836664232	0.101250452032717	0.0118580465603671	-0.0942955918588901	0.00207208539533667	-0.00150821316696285	-0.0731494106700690	-0.0615031534985445	0.0906918816256731	0.0259071144098131	-0.0186156481891336	-0.0167334157879619	-0.000631395303987563	0.00260243889499290	0.0462596172156224	0.0771808074473618	-0.119370601101755	-0.0833389579650433	0.00398938057496710	-0.0161492008311969	0.0151504045428113	0.0379200797848890	0.0891172661637598	0.0350560315157445	0.0224323540554149	0.0477922474439298	-0.0394892104536508	-0.00396786451970016	-0.0140632700572892	0.0853675304146846	-0.0528546114882158	0.0569983214274230	-0.0104454927474266	0.143864424362069	0.0454926823631070	-0.0599065940026931	-0.0913585382120698	-0.0555842359504060	-0.00666524225459269	0.114556167123808	0.0479702476709103	0.0487771365160267	-0.110161440749866	-0.00967660864660567	0.0558122742371582	-0.0554103991813972	0.00955409144335510	-0.103625002334134	-0.0541099795629689	0.0381401529374307	0.0924521517229386	0.00892484598663841	0.132330667611479	0.0789478107678668	-0.00696432182706492	-0.000942790132063365	-0.0576248421360103	0.0291701133856857	-0.0258164611427969	-0.0316038430072521	0.0440541952218475	-0.0157991613849547	-0.0511182475985129	0.110923837700789	-0.0449612441472408	-0.0619799651019776	-0.0115677341046603	-0.0376640705078524	-0.0207424323998540	-0.0571751751436712	0.0663796945512985	0.00435560811333126	-0.0633594237304873	0.0528104337465159	-0.0631249516593893	-0.00187160087451435	-0.0758884319397728	0.0577270386969571	0.00509453398571279	-0.0689418883800244	-0.00678085342790161	0.0586899911744586	0.0123295637132281	-0.0641353882991289	-0.110285636579815	-0.0194953418267761	0.0350022839014231	-0.0405013456547856	0.0595426368180510	0.0427982428998979	0.100817857142717	0.0354651870233238	-0.0656695122347579	-0.0438673047750528	-0.0632481629053579	0.192164140704345	-0.0324663256853661	0.0339370023789217	0.0688731080684257	-0.0356910559604340	0.0225390313245843	-0.0693917620885539	-0.0531818725773736	-0.0457071317963391	-0.0230923065008757	-0.0487566628749124	0.00207513981390734	-0.0178951464548000	0.0898730473353495	-0.00306435184550886	-0.00574442912612223	-0.00849999873538078	0.0350072035759259	0.00359473444652534	0.0309062144431863	0.0273490414706985	0.143367111569291	0.000981014394722094	-0.0246688771914472	0.0239887433596623	0.000430113390953020	0.0430361672953607	0.0299023727508870	-0.149929662567937	0.0331451581028110	0.0567326235491890	0.0145844974351591	0.0961043145335840	0.0175833974397726	-0.0355525191397841	0.0698035395407264	-0.0279337423017392	0.0350644015126210	-0.0577821746050391	-0.0566329328571122	0.0356122365684292	0.0526255342461520	-0.100786156078865	-0.0188767140751549	0.0121889508982984	-0.0600107522093023	0.0583389967326093	-0.0907066586345310	0.0149327126196154	-0.0213035075487222	-0.0202851517982524	-0.132883074459630	-0.0359681254250223	0.0740612046106721	0.00765823884661159	-0.134447323049717	-0.0673857038297454	-0.0105546291715483	0.0160215511940184	-0.0297328132432922	0.0510103402313312	0.0577168397071218	-0.0613006837550351	-0.0303390699446742	0.0507602411615524	0.0344614062301462	-0.0323286973675838	0.160046622435629	-0.0490214065623858	-0.0104128302016684	-0.0281623126317930	0.0103351759834312	-0.0569805144121233	0.0373116141525156	-0.0220196881326376	-0.0888607596221089	-0.0462198620139019	-0.0410820910137826	0.0674573695890274	0.0778884986105970	-0.0233364037069971	0.0464682173603607	0.0763573791846624	-0.00824545637117045	-0.0249374502106361	0.0485521498800626	0.0992752133435937	0.0104104123760563	0.0738430691288557	0.0158127707349393	-0.143214775922136	-0.0258005352061556	0.0759960490746351	0.00456257735592169	-0.0388857605654584	0.0296899393540656	-0.0567603398474488	0.0591609911584952	0.115941993876399	0.0538621963715537	0.00275539019821899	0.153832766606606	-0.0245628935897055	0.0716251743575743	0.00847964668809281
0.00255192057760503	-0.00387822625502302	0.0255890928383304	-0.0549387456549537	0.0943238767113213	-0.00882361366564015	-0.00750134755632440	-0.00106605531998999	-0.0227564137431943	0.00484426499644447	0.00464708772678929	-0.100475317239748	-0.0207522910281057	-0.0747024015021254	0.0425041083141847	0.0491986534061052	0.0514775932092630	0.123488201462193	0.0782300097428761	0.0457943851718962	0.0394475140314389	0.0796386233251383	0.112448836982510	-0.0446465023797106	0.0268280638778530	-0.0583688460232169	-0.00200778954989397	0.0483042418617797	-0.0238889326499130	-0.00315486582051223	-0.0754100545532086	0.0683786637281184	0.103418593585542	-0.0946947217935935	-0.00221865204752593	-0.0381855325462363	0.0440078233064683	-0.0634396389820709	0.0352454332339899	0.0851891771485693	0.0711473964950320	-0.0502072598305902	-0.0846464619595667	0.0474023061696188	0.0110964891263152	0.0912522860465679	0.00972118774692688	-0.0319577436663694	-0.0282229483901977	-0.0357941249873226	0.106844987283722	-0.0430448655957106	0.0294951562446765	-0.0172027392612125	-0.0658653142506729	0.00933351856565899	0.00444101921431997	0.0286700623023866	-0.0538256066390886	-0.0566676032086758	0.0320409308735362	0.00451725038212101	0.0881217177746339	-0.0165417759192561	0.0614320302061381	-0.0312939164748332	0.171178626980487	0.0993241074624381	0.0755416764208446	0.0258439952154648	-0.00849812374808620	-0.125524343394361	-0.105500425999180	-0.129877430874533	0.0729280388343161	0.0113736642329305	-0.0526305599098957	0.0111656230328794	0.0374527393873071	-0.0457912831369764	0.115495446256904	0.0382850785062432	0.119718304081683	0.0854096690089384	0.0592405524214314	0.0210073187238557	-0.0899819104011812	-0.00156475342984893	0.0531757528663282	-0.189896227992834	0.0240294344203111	-0.0258895459530835	0.0835892391718865	-0.0908972756223417	-0.0274390617563633	-0.0555407246544457	0.0363557729352719	-0.00367538560319369	-0.0329878636543434	-0.0354223258516885	0.0939979530892763	-0.0172930049054548	-0.00415549105676768	-0.00603122312375238	-0.00223243572037969	0.00704246575140769	-0.0677313971713984	-0.113930195655384	-0.0833384716493043	-0.0558037662882036	0.0840783164778576	0.100114589056090	0.0692922666053518	0.0228209294218200	0.0252998063805915	-0.0472048994339491	-0.0724959131569404	0.0394491388972611	-0.0793715780437922	0.00590360549936348	0.0324069437290340	0.114198604200091	0.0398607315142101	0.0982457228052936	-0.0802148694727547	-0.00319677327915119	-0.0194843654578565	-0.0903124868654965	0.0640797702640642	-0.0818914170194864	0.0257812403783080	0.00994930042153274	-0.0356332736037603	0.0327197789950306	-0.0730127472380854	0.0377972568049404	0.0182593385423414	0.0758272847513509	0.00299352263274534	-0.106742674753154	0.0687199299170415	0.00734895516629481	-0.0239591320038164	0.00587216302155356	0.0892183813150946	0.0131052969955522	-0.0115204490930444	-0.0513500452337228	0.0198167631882229	-0.0211253716410497	-0.0186733814824652	0.0157394308737120	-0.0784394516301523	-0.0708787168122648	0.0205307816908263	-0.0275372659237440	-0.0208517554122628	-0.0857796766335969	-0.0935519552535392	-0.0117437464111834	0.0639918872522074	0.0866208841596701	-0.147509330666402	-0.115559673754376	0.130662251633961	-0.0280682677389855	0.0831468966938160	0.00650274793480171	0.0180822971237038	0.0977707161044024	-0.0429494562543982	-0.0940756552399006	-0.0221428088086403	-0.0461601797283988	-0.0115429237010037	-0.0410513678348248	-0.0387581688247893	-0.0338477292500456	-0.130027200721961	0.0131854369854358	0.0977431463532340	0.0475716284578265	0.0113757482624548	-0.0576220902221357	0.0352478589175018	0.00712284691451190	-0.0223811676967367	-0.0326570498107120	-0.000287771971361554	0.0840405780773839	-0.0560662554732809	0.116675599261051	-0.0854380451944081	-0.0809131230233534	0.00860826135066999	-0.0300792455657462	-0.0438622605567627	-0.0395394945169502	-0.0297253413856773	0.0498459704519643	-0.0310751893808859	-0.0944625724402719	-0.0350616968946973	-0.0889912045390734	-0.0746225436202029	0.0388897630178207	0.0121793640826069	-0.0161792777339952	-0.00662426427885357	-0.0315821870948341	-0.0480549413379836	-0.0678528214369279	-0.0183650303652729	0.0807619397814401	0.0695898741279009	-0.0173012434375162	-0.000418912691688943	-0.0433229216288344	-0.0769896008590354	-0.0962713899064751	-0.00255551038804984	0.0319950990182932	0.0672282999897835	-0.0587984426375018	0.0270268936144718	-0.0503119775579803	0.0556853087734118	-0.0750441049148525	-0.0956128520059994	0.0293290466865038	-0.121194664637380	0.120891394558488	-0.0633817546059912	0.0431976812786014	-0.0189379525075604	-0.0314626087011023	0.00374438146475599	-0.00259676577110221	-0.0153568026672157	-0.0357979229471678	-0.00831724537725045	-0.0383845723688394	0.0605627709516451	0.0763245233006989	0.00872898637796962	0.0657794675209640	-0.0397595455054723	-0.0667240789838860	-0.0487146189426771	-0.126380424531249	0.0999987950139778	-0.0320178261653619	0.0511743291217378	0.126073409348513	-0.0374534503387552	-0.00416149890828286
-0.0457772795975414	-0.0118462937585202	0.0189458415312541	0.0703667762466165	0.0106481003641497	0.0335433370349222	-0.0322292563334760	-0.0437633182111113	-0.0640123107950080	0.0446707536861079	-0.00185724485032042	-0.0272500429731113	0.0433758011242756	0.0288249346234144	-0.00643292797436558	0.0924182313323974	-0.0272426363453969	0.0131121126279765	0.00776867594793593	0.0402818916265664	-0.0432250543402447	0.0204609460768124	-0.0249080784500743	0.00587434177960539	-0.0707804233549653	-0.00317321004567778	0.0387582545514002	-0.00252120930947788	0.0283699988961562	0.0489528711619905	-0.0789921783053389	0.0726595481986097	0.0803186808594519	0.00707606120438651	0.0225429461647062	-0.00984709826881368	0.0336296332334788	0.0898279574177248	0.0373177478908182	0.0630923788738544	0.0273317716269977	-0.00636774420837557	0.148992982314772	-0.0315076747799253	0.0230268847413064	0.0571947171384184	0.0392521979166234	-0.0255860463107569	0.0689171446419654	-0.00420157415368995	-0.0920362600472275	-0.0727325757379810	-0.0678910701359377	-0.0118639338534295	-0.0782580233678885	0.0748589407427155	-0.0238293974596033	0.00812911406209200	-0.0885258255719149	0.0206883005393827	-0.0497037064509201	-0.0377282701757638	0.0919697777164167	0.00324149497816926	-0.0319203862803936	-0.0360194506533858	0.0633321046718725	0.0108572156780492	-0.0328668191803890	-0.0573497828703443	-0.0772164068332372	-0.00696289648511269	-0.0654543991250736	-0.0330038136668586	-0.0148672313074283	0.000320703354949234	0.0629059660155479	-0.0389302861091890	-0.0267994591427550	-0.000721024240134417	0.0500461263004111	-0.0780734720185443	0.100813741273437	-0.00534645075469328	0.00650765556931352	-0.0810255321051583	-0.113952657566329	0.0336985412904433	-0.000568087689976272	-0.0515666879378204	0.0814343763221158	-0.0330101606642327	-0.0914795611204792	0.133949552161423	0.0728437999328692	0.000526890680525927	-0.104229300419872	0.112760677987567	-0.0172843921419804	-0.0720500491573528	-0.0906875335418621	0.0576496937357338	0.0405063053378573	0.104688062700781	0.00550717005189960	0.00451399211296498	-0.0766772845522546	0.00143615858903087	0.0441212218937012	-0.00128987395622950	-0.0969698255204684	-0.0170265143116997	0.0246103719830643	-0.103014669432423	-0.0138955841397515	0.0689570362169019	0.0155571445165281	-0.100900069027147	0.0524739948805411	0.160485921864893	-0.132249443425423	0.0338973321717371	-0.0117451347701640	-0.0144585691833344	-0.0379472005493416	0.166039729471647	0.0251370288022906	0.0757094603343140	0.0129387574287902	0.0396466565414953	0.0163652982775008	-0.0751897188602852	-0.0138677817472287	-0.000767831123164635	0.0812615871035610	-0.0535045363668386	0.0632709031277572	-0.0275696263805891	-0.0402628583050686	-0.0621233467551107	0.0354105846303534	0.0199764078649349	-0.110051477299501	0.0118095836942968	-0.0111134096510091	-0.0255031304172578	0.0503067839187968	0.133514686420297	-0.0750168434148132	-0.0500912594363962	0.0496449418314496	0.0517923887039746	0.00926339958819484	0.00836364938959235	0.0773765833829090	0.0622347618728329	-0.0348998218415490	0.0383819200482244	-0.117263691838811	-0.00389425321226148	-0.0629242320887850	0.142213154888689	-0.0519442900508733	0.0603745762343645	-0.0826187642553417	-0.0326843708716642	-0.0127465797971345	0.0170735050667009	-0.0856366875729794	0.0402886229250607	-0.0222281971538962	-0.0602050996149496	0.0672326185947953	-0.00104275936648435	0.0246525992871017	0.0549778608798532	0.0515900442878857	-0.0148987922360360	0.0515199496376720	-0.0551478242630405	-0.0806488990578179	-0.0301727054419262	-0.0350281295892866	0.0582806708915876	0.0254344492318596	-0.00510168165389430	-0.0176290831417203	-0.0641019935538895	0.0435227151857775	0.0463814060729267	-0.00769989447706497	0.0347413303046299	-0.0492424509397807	-0.0850239444572298	-0.137811530629208	-0.0237934502558289	0.0489007985385791	0.131682206311709	0.0182147704908632	0.0315047997418784	-0.0407550794155455	0.126475868132740	0.0530763159599488	-0.00122477334371383	0.0755979594134372	-0.0583418657375950	0.0306799888527210	0.0173634955088131	0.0842701652738522	-0.170076054860758	-0.0266365085987873	-0.0116199304334707	0.0351767143936804	0.0813090842718173	-0.0581939945597871	-0.0149569496292914	0.0562157302665802	0.161468059441842	-0.0131925582295593	0.0550840211373823	0.0632959159755029	0.0537971057291977	-0.0133846671488485	-0.0213749436163843	0.128038715986894	-0.125989372516422	-0.156506917012775	0.0649776085209650	-0.00890953806852017	0.111326993791541	0.0518671095275623	0.134660863351684	-0.00596235169108132	-0.0791811221277497	0.0940756556289860	-0.0426394160687595	0.0769387930232690	-0.0943954110611801	0.00111875400964817	-0.0832648834438608	-0.0435223944703174	0.0810545068163896	0.0125761838755817	-0.0149263196425011	0.129370691977902	0.0375591298808460	-0.108607298589381	-0.00853218288176406	0.0250017492732845	0.0259853878830374	-0.0189900431687442	-0.0120865525927906	-0.0564802995476291	0.0490262088488121	-0.0516089822098072	0.0142619163017988
-0.0552293318233633	0.0632747948998894	-0.0178783946853064	0.0628435486990520	0.0285463698685166	0.00218977305931370	-0.0235441460901552	-0.0313950322267373	0.00567087864592951	-0.0299524350359791	-0.0387107236454561	-0.0643448500520533	0.0325548880308022	-0.0212165244650536	-0.109432193832997	-0.0644846581137438	0.00607258865013537	0.0486932228071172	0.0643550038996378	0.00386041805967097	-0.0799733610941853	0.0156451562671091	0.0438108016728408	-0.0912617730639687	0.0752975597899685	0.0754413444040408	-0.0113641365081736	0.152711217262119	-0.0341000782907055	-0.0426306630442194	-0.0790703677226463	0.0170285147317030	0.0697050159856814	-0.0332847325070566	0.0137477816797691	0.00603284107327110	-0.0116026156602089	-0.0276528741261955	-0.0286386368602716	0.0547636196485535	0.0794847862192998	0.0829643866403121	0.00755262037110580	0.00578652698692109	-0.0610232811581916	-0.0162320387994120	-0.149220822613727	0.0837301044228725	0.0707000135907740	0.0547243088691297	-0.0720257224060763	-0.0284594009495979	-0.0210646839588088	-0.0219838362680422	-0.0895304219797321	0.0400027586205636	-0.0362238221811932	-0.0685147707713137	-0.0835406802104878	-0.0534743876369714	0.0747789997370419	-0.0314486621900419	0.0287984682374488	0.199270028355469	0.0130669018637875	0.168940271301345	0.0669338968612444	0.116318660655811	-0.0551501147312122	0.0253170701058992	-0.0976571364069797	0.0638964432173198	-0.0632715401336958	0.110261971600096	-0.0820151147522221	-0.0553061071956650	-0.0557293319963759	0.0772634710776662	-0.0430912513886099	-0.0907902127138730	0.0642861355617874	-0.0272101154764977	-0.00892873395172288	0.0598757574772035	0.00411599338534690	-0.0384169377707060	-0.0616096726583225	-0.0519901146875424	-0.00471958583462748	0.0310056556030775	-0.0379831153517606	-0.00925474510487480	-0.0442496235121259	-0.0680701061666562	0.0122894622725495	0.0384748798353131	0.0503320866683271	0.0164796326390718	0.0294354263755221	0.0198442525873349	-0.0807237783678212	-0.0260205489799902	0.0536996196098688	-0.0385296150139774	0.0141879776275576	0.193169538780285	-0.0326966457400646	0.0225684913579823	0.0410492876849113	-0.0609015685864103	-0.0693636207094710	0.0198538104884459	-0.0360527844690660	0.0532857023610025	0.0116836509316403	-0.107510501357128	-0.0412236159517853	0.0543926607405636	-0.0139979252415911	-0.129977211014997	0.0291512428696398	-0.0484372748304552	-0.0166998820616652	-0.0331563909281473	0.0741589510587188	0.0181814607561993	0.100708902738135	0.0352989197659278	0.0703127794393408	-0.0397473131999470	0.0513972807505520	-0.0216514406929236	-0.00434266644355264	-0.00847462595571862	-0.00618432551475805	0.0724057319381391	0.0251674625295538	-0.0912482868338725	0.0260859567526526	0.00959209528044264	-0.128291235125726	-0.110898488804324	-0.0803084406584421	-0.0508877798013101	-0.0292920924245644	0.0444843785180578	-0.0845791579931014	-0.0208017170796357	0.0464991805221170	0.0488488156053270	-0.0687480124828201	-0.123502036691782	-0.128137497789493	0.0521392339433290	0.0207772675680540	-0.0548658699090156	0.0229834572353162	0.133510538843038	-0.0853735901178553	-0.0210225658153418	0.0139300321145209	0.00605221733005535	0.0299723082984369	-0.0388270664296110	0.0346028555797086	0.0441992244328338	-0.0358964303712239	0.151059003744636	0.0326614807535546	0.0322012804650215	-0.164368323584057	0.0411285326652944	0.0203558678611600	0.0295045166298287	-0.0594807100297324	-0.0239552448305774	0.00502042113476038	0.0318082634423491	-0.0656149024573399	0.00702416603931441	-0.0574999980693132	0.0735167049581044	-0.0254366877636609	0.0350135610148674	-0.0834064956711847	-0.120706862362623	-0.0273937573324025	-0.0519917846503708	-0.112601221625130	0.0149752707368869	0.0655705427641857	0.0309558152639732	0.0513055481098111	0.0328538786537675	-0.0383666563846681	-0.0350137596789760	-0.00619839642316999	0.00596279382032017	-0.0133730261850437	-0.0303872905811151	0.0710233775370170	0.0316308007111004	-0.131561999006204	0.0458815499039605	-0.133821088272798	-0.0431190796699076	-0.139252264531362	-0.00251207034384770	-0.0341386191023021	-0.00773317280286484	0.00549089916230654	0.0113535393115077	0.00769156844384502	0.0252734279373517	-0.0488923281772177	0.0458880485846827	-0.0493982453581610	0.0271323869989586	0.115760389723000	-0.0486734206862559	0.0538462895159961	0.0179926939110492	0.0899555604469752	0.00357210837897195	0.0615980670467206	0.114357520590006	0.0168357873846365	0.0826523753958609	0.159837644583008	0.0536303509750784	-0.0531554554293347	0.0413574468664083	0.000202653970466143	-0.0452101418910834	0.103343868204631	0.0617763007578694	0.00852402587204616	-0.00110794377803427	-0.00279234161837147	0.0289364699228107	0.0477444581107314	0.0278699465415478	0.00733518652819337	-0.0362818302724385	0.0716559644147244	-0.0894606584038192	0.0475327876283800	0.0200325176761668	-0.0380279536457384	0.0632769628697423	-0.0365794698741616	0.0269068175942773	-0.0100393449197380	0.0303391302418247	-0.0680394216443793	-0.00508275957286422
-0.0693196564953548	0.100647944642947	-0.0146158886249191	-0.0661809094713478	0.00690813264240014	-0.0323566859469051	0.164447444139538	-0.0194289006760261	0.0438042215962321	0.0443313163759468	0.0109539335808122	-0.0360484739189785	0.0580807966367005	-0.0550679488876121	0.0318320358162900	0.0382261156457487	0.0910418023572437	-0.0284705267855910	-0.0541893057615591	0.0629287234404369	-0.00327050285434843	0.0518520253516664	0.0633383966669325	-0.0826669077269167	-0.0737381330784117	-0.0171139456900577	0.0166612910034996	0.0238705024462528	0.0195892153084698	0.0116580659899969	-0.00231205457635866	-0.0341286809989960	-0.0413905681595498	0.0701695501473204	-0.0527941098235931	0.109723355049006	0.0193840072380313	-0.00599576302006897	0.00944624734983986	-0.105609600600475	-0.0662666822005527	-0.118102024509844	0.0521283724901568	-0.128188636642199	-0.0611515446198375	0.00431213271404700	0.174666670365987	-0.0185440652918509	0.0818424369709059	0.0159238402992431	0.0158062858783112	0.0425676011887617	-0.0185032010790136	-0.0340333221112773	-0.112301947967151	0.0677134117458048	0.0566331770791593	-0.0378210244227441	-0.0138852659282942	-0.0683623699080511	-0.00368225693101308	0.0270325714361899	-0.188385644469243	0.119776294070099	0.0170852830461610	0.107507748269188	-0.107909947255727	-0.0140158164186704	-0.0328036315232960	0.0130945742544395	0.0645382223556887	0.0287213478859411	-0.00406921912657455	-0.0524529846988697	0.00376558125105178	-0.0208903874254809	0.00886546847859382	-0.0738654790947634	0.103640015867794	-0.0932846276007309	0.0915586733814116	-0.0257975411496094	0.00477334314852509	-0.116100617633149	-0.0477389926221635	0.0279814905507385	0.00720940585085828	0.0165754393710993	0.0818119213823718	0.00776504084798261	0.0166550932096255	-0.0667733490196479	-0.00897629315847421	-0.0402350968515321	0.0573625908885292	-0.0425504117072140	-0.0380142214722143	0.0243854147837407	-0.00634950775747060	-0.176482461365846	0.0210695340996643	-0.00992366635707612	0.0113367173903308	0.0278709395217269	0.0648549861243108	0.00982866635122244	-0.0136726552412249	-0.0117234894991553	-0.0861891502596725	-0.0137855531981019	0.117383043449028	-0.00157107321850559	0.0177327447582109	0.0183184873809495	0.0493700402466556	0.0762435514998603	-0.0826451381631900	0.0318747420181729	0.0446474360754670	-0.117424777537021	0.0686359118849773	-0.00208653614643984	0.0124185467657496	-0.0656215962722740	0.0322937363812502	-0.00284365756024152	-0.0423248100907766	0.0185989643021155	-0.115470363355201	-0.0469884040567044	0.0263757593943384	-0.0426964713592792	0.109606259375656	-0.0506230628321613	-0.00727829556346574	0.0120165712744868	0.133809237754344	0.0568561149374525	-0.0645233280643294	0.0818897916319986	0.0302688733027028	-0.0317273169617597	0.0250323525587677	-0.0738638042346194	-0.00310233062507456	-0.0361061686499785	0.0659596578061998	-0.00251366534423844	0.120712192197820	-0.0387601324941588	-0.0580842448892531	-0.108894583349088	-0.0228779221141237	0.0621246975253353	0.100931234584393	0.0224616837339004	-0.0285932034791287	-0.0591428229627933	-0.0727995978486484	0.0264689593534575	-0.0431425835474736	-0.0713399617572578	-0.0577887973283292	-0.0184272549555951	-0.00275700301994351	0.0783359830200325	0.0711316498332087	0.109035065800717	0.0755167075280423	-0.112838902444528	0.0653228211428682	-0.102923691338667	-0.0129324811763997	-0.125072748951783	-0.102237176129948	0.0405927921634919	0.0189101655568828	0.128574238869362	0.000931429351673700	-0.00880844460523225	-0.0245850525133841	-0.00591918777291461	-0.00950566569577696	0.0334756564560160	0.0551940468240843	0.0699726100137732	-0.0624156826827744	0.0748004623205892	0.00917595043655333	0.161841942806012	-0.0524800985817167	0.0542503694361438	0.0702716076983945	0.0919230738246108	0.00757456617813567	-0.0352520522109526	0.0127450700265219	-0.00736964747854992	0.0941290111196707	-0.0169676799892568	-0.00464223216141740	0.0365607311351071	-0.0643963624989313	-0.0110820758144184	0.0468515948251893	0.00141936626646190	0.108294798641680	-0.0132271693214333	0.0552033726330054	-0.0136161591107742	0.0334471381005580	0.00671828799939670	0.0375566150532682	0.00944891797598860	0.0713626141183631	0.00638456868580771	0.120490132259949	0.00887479032886370	0.0144074464336408	-0.0263164513552565	-0.0875871635031486	-0.0403324281291368	-0.0432388825977766	-0.0380124923770248	-0.0993429211886385	-0.0108617150973184	-0.0233929480765504	0.104984991998493	0.0618358608156936	-0.0392939397836956	0.0446452209618382	0.0942139038398456	0.00243903110536686	0.0529012133611854	-0.0172903934809210	-0.0187153616072486	-0.0303895183617066	0.00469070376287961	-0.0971343343946616	-0.0754312471061114	-0.0675447902456090	-0.0734006799720369	-0.0104664100108908	-0.0367312590043473	0.121718621430591	-0.0823751076981154	0.0228194987630439	-0.0617643867634912	0.0357713665978525	0.0639183083585887	-0.00455858024431743	0.0919064761533163	0.00716901536584810	0.0898475845819626	-0.0234682146153814	0.0234151678784250
-0.0497571655526022	0.105145925547342	0.0396794096754973	-0.00931657952519182	-0.104560197848303	0.0375041817267921	0.0209248631667058	-0.0420255044779701	-0.00411031373265074	-0.0187994224385571	0.102386545427231	0.0207551765748757	-0.0402965910948524	-0.0914453768492880	0.0595889198416818	-0.0214620141156198	-0.0121650594215214	0.144661852172144	0.106024823693514	-0.00475389268256495	0.0137776510520402	0.113320760631985	0.00595295965546439	0.0448415308907355	-0.00393175316359060	0.0430024453177935	0.0718212471349707	-0.145731873606896	-0.0665645736378955	-0.0100867398203016	-0.00950335036859526	-0.0313436727848976	0.0405670121942757	0.120370760288233	0.0247804176114353	0.0134039351254903	0.0342662869080500	0.0474883244161083	0.0112651494942375	-0.105978235584793	0.0302682264556885	-0.0304557965250641	-0.0200158679898802	-0.00927388110274890	0.0899336792255217	0.00893528025446536	-0.0900026249514812	0.0436296113965825	0.0417530614246594	0.0564305061600795	0.0210479441083182	0.0429047215411564	-0.00818573668010913	-0.0161803905051802	0.0708266286804039	0.0334645132290278	-0.0141123696087059	-0.0645975315600774	-0.0372647753872418	-0.0415263941988257	-0.0324309049073233	-0.0463257448143356	-0.0996560250686795	-0.0220839150001190	0.0816889709714097	-0.0976528897199319	0.0552324671924636	-0.0558397988649615	0.109708510510522	0.0293087937221811	-0.0657378512311016	0.0468713925241701	0.0121894067586435	-0.0436199286404764	-0.0307719926258303	-0.171086663006822	-0.0347116825283323	-0.0669072614901363	-0.0200455021414983	0.0654701512839193	0.179171988470424	-0.0918512078223981	0.0161802467596459	0.0537656940952626	-0.0974501979833528	-0.0487249235472197	0.0187988266424511	-0.0246728350016028	0.0759461576384473	0.0293037879060127	-0.0258853728751038	-0.106149111072188	0.0300536546744289	-0.107672652487414	0.0358595203797111	0.0629448082645280	0.00831241765586065	0.0937086347708376	0.0991203695678452	0.0340836551478442	0.104378363255684	0.0563308970988297	0.0461129604568061	0.0354388955066657	0.0233804483890653	-0.0164654003472535	-0.0181951347098478	-0.0149159812060675	0.0300394196565532	-0.00114923657767355	-0.00537968090780558	0.0333170820606832	-0.0269479325040463	0.0164750761752458	0.0777858814944773	0.0212830109467840	0.0934636483561795	-0.0678237570576402	0.0128226612447970	-0.0579763969175378	0.00462016768774859	0.00440717253909936	-0.0222416245006549	-0.00270254221015104	0.0885966899995521	-0.0385518155967010	0.110799567316943	-0.0785132167824447	0.0414348420729900	0.0755626520443591	0.0621796189670748	0.0698566402042064	0.0465692373586644	-0.0673940779798286	-0.139956838543264	0.135657203775518	0.0235314576834832	0.00431181012022091	-0.0561848540042686	0.0158641508035391	0.00805826115590056	-0.00115192340761330	-0.0953055640216929	-0.00693146304489323	0.0720957784944890	-0.0965924524269761	0.110081729069298	0.0849390538436059	0.111297885835601	0.0474650996112492	0.0196968725559232	0.158144518871499	-0.0402374196266267	-0.0882519977085896	0.0537354931621607	0.0109016052674571	0.106933497383995	-0.0482826977592722	0.0170097067463416	0.00596639412048149	-0.0461653531224210	0.0341040130988833	0.0538760406177980	0.0157478891366919	0.0704969351356298	-0.0292002469804739	0.0339289936582204	0.0365998312867001	-0.0406790008984321	0.0615978370625184	0.0736073313818315	-0.0315327142121479	0.0333161006832731	0.0969237730290563	-0.0459698326837416	0.0153771724499982	0.0591189050308911	-0.0253822508030554	-0.0442055696771156	0.0429541503098278	-0.0292764018646974	0.0150125858933179	0.0126669497173134	-0.0310878838339503	-0.0174720288300521	0.00761795941103318	-0.0336177310249973	0.00535117814603736	-0.103795572517302	-0.0235171614043309	0.0547900383217362	0.00627436905902144	0.0149046532093909	-0.000634949583021079	-0.0835436492385687	0.0819029295259998	0.0450876706406128	-0.0640831615156258	-0.0310524695002169	-0.0709066278212814	0.0738083211813575	-0.0135375686741089	0.0395235171316148	-0.000386100822690777	0.0646432631267817	-0.0179712739536057	0.0691193227715943	-0.00653400277204311	0.0940910654366767	0.0434790010488751	0.129553527705260	0.0136100328919391	-0.0161994130464210	-0.0170198567360291	-0.100549665869832	-0.122630917322253	0.0349378230979842	0.0710173556169184	0.00431797972104397	0.0817104079673073	0.0524361507992306	-0.166218773662185	0.00287208774308799	0.0738820166039458	-0.00986337061479098	0.0328608774447495	-0.0346405352576400	-0.159415646726971	-0.00925275343680175	0.0584776159375329	-0.0846622968060383	-0.140131817686850	-0.104777923849129	0.0254701952611996	0.0190070370018157	0.136948116967694	0.0183810001344890	-0.0817020831110710	-0.00839525408594133	-0.0358570804198534	0.0605867987992051	-3.59267072525919e-05	0.00127638106536698	-0.0216088695479153	-0.0208340931342098	0.0722133586824122	-0.0260111281742121	-0.0241417460372099	-0.00970340191902447	0.0864302903575027	-0.0250200466996041	0.0307628703783213	-0.00327213929329375	-0.0337894076122269	-0.0192786513684461	0.0489266780638272
0.0383595272356132	-0.0396274608180874	-0.0459988834997892	0.130306256874769	0.0383051334287642	0.0658854668595282	-0.0469030277682107	0.0300087878089452	0.107263654965833	-0.0325940592679250	-0.0191113251880639	0.123138642288744	-0.0136870850029277	0.0508827413416508	-0.0489589262850282	-0.0784494175626935	-0.00596681495238745	-0.0424309813117115	-0.00868065948743369	0.0105583954052707	-0.0325373806920805	-0.0143074864450366	-0.0197600825932214	-0.0777941093140491	-0.0135806907091906	-0.0438155291688490	-0.00325912068027059	0.0575809382600537	-0.0363044732065652	0.0129912541017703	-0.0370812608640483	0.123019667158873	0.00643980883902404	0.0218223130289990	-0.0163817666330387	-0.0205556189319235	-0.142098495156462	0.0603191771973943	0.00642441530330336	-0.0283448309967329	-0.0984843700523167	-0.00628402040696170	-0.0613692142469935	0.000181129444643219	-0.00168476352562434	0.0874047668680471	-0.0612712098492483	-0.0888591168355822	0.0501232035882864	0.0115287571642904	0.000984115573179151	0.0572798803278728	0.0802695570720723	0.0264267657485165	0.0130166613411095	0.00127244572845932	-0.0228121131972128	0.0299408663354862	-0.0904336564477723	0.0758554258254605	0.0313366911305766	0.0218882726701937	-0.0214149376931573	-0.0232407075601501	0.146817621943189	0.0138773734368181	0.0440273679661759	-0.0763164615455135	0.00525619643288511	0.0211767045107942	0.0938713942529446	0.0661772490847342	-0.0510979054511453	-0.0486238133848483	0.0177120185109375	-0.0553422190280944	-0.0438341578604093	-0.0910074376280128	-0.0936224752336484	0.0402009011137585	-0.0759501098629850	0.0377702616471543	0.0887852309653922	-0.0450221538979042	-0.106097501950952	-0.0667529025442528	-0.0904626751883823	-0.0601074387507302	-0.0283920533336753	0.0935785818784966	0.0308783746932278	-0.0264299065904177	-0.0155126171864143	0.0214269521983269	0.0150105989410444	0.0710820500005476	0.0247579397547828	-0.0381575521088283	0.0537519754812742	-0.0106065505537001	0.0535402587390903	0.0158756131114624	0.00561568427521171	0.116574856792147	0.0855370629165990	-0.0711824040980430	0.0261869687276952	0.0487806779543277	0.0475735941586006	0.116224577296099	-0.0260019613308930	-0.00938132947651361	0.00779492463718899	0.00965192249913418	-0.0257659158347047	-0.0978468663831852	-0.0521726418927810	0.0125345500838874	0.0667523021916577	0.0310937966236937	0.149472847782755	0.000515620732703767	0.110070197740230	0.000156657677477913	-0.0382417718753233	0.0346068525295498	0.0823400766795884	0.00101370183778743	-0.0654329325658611	0.0266812735330292	0.0547255508463061	-0.0485695243392598	0.0466466013153885	-0.0258965820302767	-0.0439844875274520	-0.0330047873609846	0.0452964446088087	-0.0524806396677198	-0.0371446172535316	-0.107261218630714	0.0753560812600646	0.0969505248119260	0.172170470769684	-0.0640222383140140	0.0519767378232036	0.0873519795101975	-0.0396929605100614	-0.0949429804368875	0.00585594602764785	0.0378203634291224	0.0275953524127414	0.105193305093854	-0.0407834558064569	-0.113445840593351	0.00403885197960857	-0.0611496049365213	-0.0328775331034471	0.0340023582427402	-0.0389223246994047	0.110472809306016	0.0214041129719171	-0.0157898178182228	-0.107442146433065	0.0554655973950311	-0.0317717236432341	0.0581027411849149	0.0286101180507890	0.00501977816016109	-0.0469359639514669	0.0431561690507299	-0.0141243882036003	0.00878969461453620	0.0415126219391453	-0.000993468110824389	-0.0857716143723144	0.0855911507365772	-0.0488470715521779	0.0618977139936637	-0.0589074129974388	-0.0666239908219113	0.114883086461387	-0.0188070811645508	-0.137978167236675	0.0809826332700950	-0.0861401877642075	-0.0158983968645679	0.0358838561002547	0.0593664930472676	0.0526716525566486	-0.0331544810182981	-0.0674153649387452	0.0558397304959601	0.0259476516779718	0.123337781654608	0.0501916222172849	-0.0706043689590489	0.0110636592557984	-0.0890380885409244	0.0974461699135506	-0.0876435427293069	-0.0345961568213729	0.0276465452305564	0.0442035280882286	0.00710970088907999	0.0296178075677373	-0.0432320631158404	0.0172463318864343	0.0121637787249334	0.00943937239349115	-0.0442963044378047	0.124845366143098	0.0115868343794382	-0.0127706966244801	0.0331480871800295	-0.0578309700935582	0.158806424878499	-0.0327355773051377	0.0280214736482595	-0.0505322276874756	0.0909327464149053	0.0743136438139602	0.00826591357916567	0.0559153472438410	-0.0289823171758615	-0.000767451080252211	0.0130822603160693	0.0146850173143815	-0.0455987567306050	0.0808601408968136	0.0203564021530420	-0.108208498300474	0.0253355957890143	-0.0518063974975685	-0.144327359476401	0.0153907559255506	-0.0829035404924346	-0.180031995832040	0.0338412210455665	0.0613542368334058	-0.123550066666597	-0.0877430369855647	0.0202301285578147	0.0723929534586991	-0.0116197091956789	-0.0947976647625319	-0.0260432679125507	0.0346401978758565	0.0260039572482839	-0.130810915202947	-0.0337645724933535	-0.0245826750108651	0.0105884618779363	0.0247832976278539	0.0711779938765782	-0.0104608441297400	0.0785966746494256
0.0100614964565809	0.00488931191769410	0.0508645218536531	-0.00717031809743338	0.113844505071532	-0.0466068320654679	-0.0998092649027198	0.0823510341872809	-0.0147704289640890	0.00901617653246410	-0.0708375917247626	0.0275026805530990	-0.0241147724700440	0.0773893617228120	-0.0256613836681990	0.0868315687141549	0.0874729373580405	-0.0295532064866798	0.0312964441537928	-0.0677904725878802	-0.0518784033792400	-0.0490467456071550	-0.0146259352957643	0.0694143485180777	-0.0658343354886216	-0.000841084710000214	0.0470054243918102	-0.0453936811562215	-0.000593690135937158	-0.0514613042070723	-0.0103562189240810	-0.0620197976976033	-0.0663940618170169	0.0160223656901773	0.0734656149534074	0.0420654598371430	0.0365206572656764	-0.0326321940669239	-0.0234243245774151	-0.0730898441852059	0.0236262086185009	-0.0143512522039359	0.0488849430895229	-0.0279911438852981	0.0661402510836353	0.0509883499915602	0.0573308101680339	-0.0284277883723614	-0.0264830791011250	-0.0138441101315707	0.0652367198257862	0.0394469272616506	0.0540185667824296	-0.0576779155668308	-0.00909545124463949	0.0559858143679802	0.0250489875629397	-0.0328635336221574	0.133209389910799	0.0643085332977931	0.0690301328588824	-0.0150120550818657	0.0617653949554301	0.106102805470305	0.0510067453720884	0.123239989342959	-0.0730308679232304	-0.0165510385791949	0.0282880652745467	-0.0823051252542648	-0.0521001048564383	0.0332017494646560	-0.0980679725358305	-0.0866568052909700	0.0649695364765544	-0.0151857557393841	0.0316696301762510	-0.0322504478911335	-0.0448479348495448	-0.0830240162135010	-0.0302417301660746	0.130753421702758	0.0517282160921532	0.00953510064531766	0.0327013323383234	0.0342055994888775	-0.0622231792588253	0.0580954885585129	0.0248140619870979	-0.0146704992825783	-0.122917081402783	0.0968925496086240	0.0753477103367079	-0.139940175984157	-0.0324762414763031	-0.0665400121242575	-0.0679887881661368	-0.0611609196736218	0.0794212349010929	-0.0626702007997291	0.0759566043771169	-0.0429360375188486	0.0241912618707990	0.0237812949861467	-0.0923723399881336	0.0820159748793953	0.0539559746235696	0.0136580844705217	-0.0994373062231035	0.0211093466712289	0.0705251915200427	0.0785742496259332	-0.0342492223064882	-0.0336033656301437	-0.0626542342905937	0.0798178443022190	-0.0340969490819259	-0.0429688976059247	0.0897518457806451	0.137254808840047	-0.0263892705866600	0.0779191748134075	-0.0258846580778417	0.0354396029638076	0.00530868213971876	-0.0675306941885904	-0.0166936204202865	0.0846192016060416	0.0803981368079023	0.0100323282058327	-0.0891819454496946	-0.0306661135269702	-0.0165499376276803	0.00369613659199186	-0.0820141542620848	0.0362393098466306	-0.0418992368608069	0.0805005678149077	-0.0430154639122623	0.0419017427750621	-0.0899346951741416	0.0471895310056289	-0.0547808998128343	0.0751949012009816	0.0445965343940240	-0.0922236464062188	0.0428898043479941	-0.0717378178948086	-0.109606994687159	0.00811506821256731	-0.151401231795306	0.0902716664607880	-0.0702599822251923	-0.0127058470813826	0.0323058575289576	0.00479299022208425	-0.0272178535332379	0.117870477791554	0.158497901768503	-0.0196744078033438	-0.0319214701246982	0.0567183940936964	0.0750193453139989	-0.0144339205123227	0.0758955704502633	0.0296151375731584	-0.0727508288226602	0.0701362198369200	0.100838354394251	0.0544675813133558	0.00752235190366123	-0.0142461629785017	-0.00734540155201451	0.0575209827668873	0.0860216822301079	0.0910632150238544	-0.0345560714519818	-0.0526469112722745	0.0492662150989405	0.142318488580219	0.0171296350052119	-0.0202851695744198	-0.0670519527540307	-0.0599500556469711	0.0598251049574267	-0.0139753617162598	0.0763163570440917	0.0169252078586541	-0.0972027062538884	0.00603233468397967	0.0266267046112832	0.0534078886203626	0.0275856870139807	-0.0383725408237099	-0.0334126179304303	0.0192988602657281	-0.00862176121872714	0.00663634927487054	0.0498030225749264	-0.0820285134271960	0.0618343109634856	0.0910588602524241	0.0291869378845838	0.0708980464244980	-0.0505491424407663	-0.0589389388779699	0.0721298885785095	-0.0321221293137870	-0.0567444128529956	0.00642552910229824	0.0415408946759615	0.0193233661011323	0.0582439143969472	-0.0148429174380988	-0.0940243043273593	0.0357437304907913	0.0403099185495845	0.00647998744554470	-0.0302541359095345	0.0276463610931679	0.0451990999624107	-0.0431992168752159	-0.0109961893268526	-0.133610503238062	-0.0548378661945755	-0.0698672331904687	-0.0405608752073292	-0.0305778552589902	0.0109469158243941	0.0858839307453342	0.0805955927984423	0.0582263460753176	0.0127345790356770	-0.143729078641737	0.0545273938064513	0.00335537872985271	0.0515776436483872	0.0231548699069883	0.0335699291632675	0.0192935798738316	-0.0513060991784743	-0.0218021843521041	0.111494704886909	-0.0551988517905030	-0.0268291384431713	-0.0875175336640381	0.0755965559413494	0.0514092555451470	-0.133321971005522	-0.0527701629359820	-0.0102556524871478	0.180386869980470	0.0544389439018395	-0.0828609283397972	-0.0530856258720553	0.0403907032901306
-0.0692216666948353	0.0530930864946197	2.16533588546369e-05	0.0115159060486114	-0.0989520628394773	-0.0438338548311107	0.0444290210948176	0.0115561908896267	0.00573973654357662	-0.0617958331918226	0.0649559187790519	0.0401339640197480	0.00513228452166248	-0.0479685901501200	-0.0513922792385428	0.00900262607923377	0.0247393981217599	-0.0218605535235918	0.0371942616544281	-0.0809293241722130	-0.0171078974498863	-0.0886308468019236	0.00520659215026156	0.0485296115019243	0.154533059661459	-0.00727797002646166	0.0336260088870668	0.0555879118100904	-0.104878630241257	0.0541322106322702	-0.0177557594013536	0.0174726209137973	-0.129635711145579	-0.109121626623952	0.0281405034716751	-0.0181049196415082	0.150350778270447	0.0579149111441934	-0.0841126264182264	-0.0145176045714870	0.00547091628498014	0.0227379929165072	-0.0318220582233584	-0.0266005551043721	0.0259245249078351	0.108855169102668	-0.0131360458531416	-0.0583381693623016	0.120246920160427	0.0757489466951136	0.116308048920582	0.0615955120347006	-0.000564269177430653	-0.0243652851567877	-0.0332582460132283	0.0553907179292662	-0.00158846669808450	-0.0442669177648580	-0.0649073519598372	0.00213578994234033	0.0599395641668966	0.0438043441923277	-0.0387806031471214	-0.0132317352904283	-0.0814990709127129	0.00864560815019394	-0.00782506618985501	0.0843083957793608	0.00896703719061267	-0.0663361281595872	-0.0826597856142237	-0.00504641875912586	0.0854350568782385	-0.0464361979921293	-0.00708391517566037	0.0152654806456875	0.0933711168075747	-0.107398550220423	-0.0811324660426640	0.0204255163162505	-0.0742668390358596	-0.0132539488905357	-0.0263897129296396	0.108810381593068	-0.0616770124298070	-0.00762202871419195	-0.0179615017976723	-0.129809850605513	0.0698683909441380	0.0805772212558854	0.0172426948221684	0.00514500344274282	0.0306450862901393	-0.00497023312113214	0.0968311640005025	0.0163689090237757	-0.0235935213997344	-0.0919272627533075	-0.120879022491530	-0.140832100850015	0.127390812628559	-0.0121388599997798	0.0402874450695955	0.0240455108980092	-0.0997637584212465	-0.00286144915518935	-0.0144413397419507	-0.0187689324956494	0.0561926583005707	-0.0402587019778615	0.0855335634060296	-0.0375094829473498	-0.0395757237850520	-0.0138712987427698	-0.0319615097676182	-0.108249263060074	0.000493925217217920	-0.0814117076545180	0.0241753806315834	0.101384217347778	0.156275725448774	0.00281053262110591	0.00488263359232583	-0.0103617508911619	-0.135701243198376	0.0690353216066409	-0.0381622045410562	0.0203023749373680	-0.00203479764481579	0.0178094214012557	-0.0957515110296277	0.0590601984938541	0.0686599103437357	0.00821245424613462	0.102089017996418	0.0938700576879668	-0.0487389668812701	-0.0234164367727552	0.0137907589094753	0.0427638144631681	-0.00781795849650704	-0.0709298904107903	-0.0858409677940537	-0.0200539188963880	-0.0215077212560181	0.0280637281231831	0.00471467009022277	-0.0853310391898855	-0.0363662472086125	-0.0491134788397536	-0.0285045543124419	0.0528021105134824	-0.0567423095842605	-0.0435579614114254	-0.0617009647508401	0.121088857433203	-0.0690820714660658	-0.0989821492818707	-0.0434823453175610	0.0467567452460060	0.0905683406426822	0.111969808812461	0.0455354574843170	-0.0114564533541080	-0.0440346631351577	0.0519287783568084	-0.0751865617876188	-0.0453561822456166	0.0176992471553201	-0.0109264831121983	0.0905625375554321	0.0216325300498980	-0.0643060524305538	-0.0498471150110779	-0.0714646829642318	-0.0185539241038481	0.0628534708275078	0.0384056065197112	0.0705206361012915	0.0420564101037378	-0.0352699659122074	-0.0464918801576832	-0.0712923803591370	0.0790995405058160	0.00717745238518582	-0.106003230488897	0.0266259023107403	0.0568443128647778	-0.0524217985905278	0.00660763409376174	-0.0304612268602912	-0.0107513261425720	0.122404535618754	-0.0279310157578791	-0.0412100059392872	-0.0609637782043615	0.0740160155931667	0.117495904189735	-0.0549425174407025	-0.00717249671216813	0.00318361156986870	-0.0351386910180561	0.0261680558584715	0.0742128165477874	-0.123462299361352	-0.0424638515019258	-0.0749526066540295	-0.0772062016907591	0.129087978413009	0.0907739439571216	-0.00684082846908235	-0.0357934397242091	-0.0366819522093446	0.0198343029814425	0.0706847310420885	-0.0718244035847698	0.0233148958902710	-0.0635456588653788	0.0276879989246384	8.20810679938704e-05	-0.0712744224619166	0.00415379631647466	-0.0711555810959809	0.0874643541871730	-0.0308225842576292	0.0249635968218449	-0.0800376437269626	-0.0596888792794142	-0.0168671618524377	-0.0356477017385754	-0.0376004740750630	0.0557068799695659	0.0436390204245274	0.00194015834253168	0.0335160381043891	-0.0617538240573108	-0.0571844106562406	-0.0924103117599807	-0.0135364042141095	-0.0166879914854945	0.0868984738925150	0.0310737105757450	0.0411552893825288	0.124185561098175	-0.0944371214471635	-0.0280562970097694	-0.0804597940180577	0.0637856408898308	-0.00530849037356579	0.00532228907421900	0.0392828378640307	-0.0471353940277237	-0.0471328157980979	0.0625305043167815	0.0502357661765358	-0.146912812512952
0.0389221961934122	-0.0601579508421062	-0.00467386668650997	0.00786777215612117	0.00682429088511038	0.0251133698196630	0.0287091978113840	0.0383344244068883	0.0104263739085119	-0.0515679066785794	-0.0224555458440995	-0.102066867869603	0.0283796644714374	-0.0328361741012123	-0.0211358595050732	0.00720318506077556	0.00871306916791159	0.0723762928400465	-0.0784353198846118	-0.0430290814884730	-0.0889000587330140	0.0318119890236969	-0.00792593180860055	0.0898486839138461	0.00481591228058437	0.0372520959247867	-0.0213124585302153	0.0660710177584750	0.0685303201912489	0.0580641083152290	0.0347487173446383	-0.00796402207171768	0.0853394391997880	0.0256829095261129	0.0449818392734863	-0.154262906687491	0.0794017811473151	0.00368100499513313	0.0567705867658482	0.0516185011679096	0.00630768971005109	-0.0189187770216827	-0.0210017657447330	-0.00606226957096635	-0.0621719427393027	-0.0653276376895544	0.0354606479218241	-0.0318394311791148	0.140982699872368	-0.0819642963625364	-0.0560730270726627	0.139661242721565	-0.0910756402910463	0.00582107404584360	0.0568957753360069	-0.0527269126033615	0.00984327487873133	-0.00121055622045099	-0.0159932059738325	-0.0943558717659358	-0.0609574935297609	-0.0526434748198942	0.0368020282845358	0.0350056347017535	0.0161285942222329	0.0655841301644326	-0.0813873909448277	-0.126565942651597	0.0176755977859546	-0.101608802543727	-0.0939035314350264	-0.0227351439516227	-0.0540497052392607	-0.0814154548737801	-0.0314493485811188	0.0172835743807574	-0.138849027933980	-0.0740299289234886	0.102223346004047	0.00372715498578481	0.0394272418399901	-0.00809672640830539	-0.130744293993143	-0.0430586377726496	-0.0499394030632355	-0.0340948968884686	-0.0625026197462444	0.00336672162271366	0.0319830763492926	-0.0133335351319398	0.0333148023342386	0.0484737504303706	-0.100307615254403	0.0650242697785867	-0.0934328192576055	-0.0493148937891815	-0.0520180928073919	-0.0658086950283045	-0.0422208574016828	-0.0860783940089155	0.0643378371715111	-0.0670094323546650	0.0342947340530295	-0.117330025478631	-0.0446166535639528	-0.0646572004207797	-0.0407551100403357	0.0330049140198247	0.0663465396130333	-0.0267541147347111	0.0518123314911468	-0.140452528430644	-0.00117974194987604	-0.00807754473815342	0.134019656463788	0.0594220249164527	0.0879494718344700	0.0809577308074174	-0.0332882303275194	0.00209829602578982	-0.0113533329117150	0.0353912819753785	0.0242913138058891	0.0216989150101957	0.000233364569686784	0.0463295501722915	0.0853582645407985	-0.0368017735268671	0.0195635467686140	0.00625552807958768	0.0498709632549021	-0.0389630258177636	-0.0322795948558389	0.0338996775275197	0.0837318035226529	-0.0418639801304300	-0.00444698986923785	-0.0173790629921632	0.0634465906451161	0.0168556556575340	-0.0643895319938058	-0.0532497427952568	0.00686142906598132	0.0431099401897393	0.0476538381766169	0.0147818212522609	-0.0205959844462269	0.129629727244208	-0.0843620288834663	0.100860515767855	-0.0592244630444138	0.0225128367304647	-0.0684257078844652	-0.0210186284011155	0.0143049630412955	0.0279260936683967	-0.0555530933777988	-0.0580297355129286	0.0384755413175767	0.0643541181633550	0.101797835749002	-0.00829102495318407	0.129045492246158	0.0301877170173713	-0.00559153604976122	0.0862493596873739	-0.0880543613823336	0.0250347407626520	0.0188871276528758	-0.0945028862468697	-0.00155361106712434	-0.0108980868616646	-0.0418426942786397	0.00727260568305713	0.0825991224027038	-0.0145581776067419	0.0737205051809000	-0.0345955355014025	-0.0402283601711561	-0.00387095465773507	0.142906599739394	-0.0412462222157694	-0.0352656501563570	0.0473609191666354	-0.0470554981405901	-0.0108899771348356	-0.0373965078378729	0.0694456942201862	-0.0164712425170118	-0.00651846779617176	0.112107375691125	0.0487938290315067	0.0267231553289880	0.00290885198284190	0.130127677209348	-0.0168639736854353	-0.0455576847586748	0.0121113491701921	0.00584404968094851	-0.0502663703590004	-0.0504368823197908	-0.107903372218116	-0.157332542351924	-0.101246192444865	0.0245872324666102	0.0905655768672043	0.0824798347711669	-0.0785694212463829	-0.0538580146217253	-0.128369403358522	0.0579021983836019	-0.0179222516635950	0.0108128913849721	-0.0820399961995570	-0.0683682069896810	-0.0382200352308882	-0.0631899202982182	0.0168261650427852	-0.0367128315885393	0.0483395942034579	-0.0291745753503745	-0.0266844868044901	-0.0691952028235458	-0.0163011859197606	-0.0531942602305577	-0.0698410198790121	-0.0137197410625198	0.00290021206546996	0.0298470822213046	0.100184988516362	-0.145590459569378	-0.0769151746042001	0.0653465144710235	-0.143922979594162	0.0494801927002751	0.0104512042097341	0.0637602294929699	-0.0348301919054811	0.0152577310371161	-0.0913887069064217	0.0757904035203212	-0.0824015752323186	-0.0876245616072170	-0.0465272832851875	-0.0621764299913352	0.0139539877835732	0.0373899872117490	0.00433910183648157	-0.0307846541606445	-0.0992922490657228	0.114876586940794	-0.0239637574918465	-0.0656787577699573	0.106833446984206	0.0395598896839515	0.0585913715023360
-0.0489643170763060	-0.0449638401645727	0.0351944293287323	-0.0296479603267773	0.00631111725530693	-0.113260035267121	-0.0841535750180042	-0.155755910038883	0.0578131788686833	-0.0867680858344497	-0.0477215261101500	0.0136051349847763	-0.0153196932020387	-0.0650461819441439	-0.00654302898704129	-0.0826367222917628	0.0641063067283993	0.0101925371973483	0.0147455150674681	-0.0969143121367814	0.112822412595297	0.0844158058865822	0.0131260333020008	0.0755355089082428	0.116889055212348	-0.0324200471087011	-0.0353366753369627	-0.0794791194977605	0.0330554950388800	0.0816475599773945	-0.0766925791244996	0.0973259032544370	-0.105866480500518	-0.0957152721953523	0.0421383040976769	0.0490224486411086	0.00819666683007789	0.0221122281133544	-0.121897706987019	0.0944882312219632	0.0226971078984656	-0.0175954383047155	0.0760717903538145	-0.0846393648778279	0.0350023376321104	0.0725192253086718	0.0743414152791831	0.0482957757246211	0.00274680029859158	-0.0269733719314500	0.0259817740315750	0.185223133451511	-0.0650557279005706	-0.0232857643622365	-0.0257117617508950	0.107744034959715	-0.0255482566137603	0.0164531685473444	-0.0496117697731776	0.0134210003668089	-0.0203638604065505	-0.0418697587735758	0.00157689138074490	0.112373019075980	-0.112614817519129	-0.0949384056550049	-0.170256305467515	0.0698413867246355	-0.0620577016401763	-0.0266450025799643	0.00986567474040168	-0.0793982171399137	-0.0218277409914988	0.0221165292658973	0.0940135837351244	0.0321330941425502	-0.0560839789233411	-0.0918794000412996	0.0850877231938684	0.101712283169611	-0.0269579824247999	-0.0622305744889083	-0.0653773129249886	0.0248055656170407	-0.0990626440355372	-0.137624523228993	-0.00610734545676277	-0.0186602208131228	0.0158595396924823	-0.0374450958145038	-0.0398708239517258	-0.0890234918350236	0.00155094823829090	-0.00337292135371516	-0.0269793468088648	0.0258395615248492	0.0509531561230690	-0.0313913510722599	0.0453692782399403	0.106550253424962	0.00886781034417836	0.0453782995495876	0.0275375034724466	0.0126806562388721	-0.0255804148972856	0.0471265823155639	0.0296658946964907	-0.0546456572672270	-0.0474406047377160	0.0303977781958119	-0.0896268436362335	-0.0416946980177285	0.0180495222968741	0.114777034206636	0.0519207174442337	0.0131063313417841	-0.0290518288378023	0.0165075510793205	-0.0423211875809535	-0.0691006681560741	0.0530115799373725	-0.0514866011885803	0.0352809119997160	-0.0268790699187323	-0.0383291877284323	-0.0514332835573860	-0.0567794831743763	0.108242822447415	-0.128255682247603	0.00203506835320980	0.00812831957366635	-0.0535334487393300	-0.113789368824882	-0.0385965112043449	-0.0151526208034324	-0.0313035676249027	-0.0957211782264669	0.0932030849806266	0.0187254398354151	0.0241888696922108	0.0426536258402238	0.0577183640051259	-0.0915698073897245	0.0896699999660785	-0.0343356389861390	-0.0300982598262296	0.00991139657360975	-0.0166539842084952	0.0672331938925820	-0.0377437193996092	-0.0150598073949496	0.00779219961844749	-0.0142193626916686	0.0207739374984857	-0.00795719777807754	-0.0974402409168714	0.00367610444210899	-0.0525017950159580	0.0152466748161966	-0.117819840687888	-0.00714884780996964	-0.0556151913815691	0.0194581766769195	0.0757631711172129	-0.104841826320184	0.0177469546695729	0.00934528223831492	0.0202875781136601	-0.0975446134972950	-0.0547527123571823	-0.0828251163476467	0.0289648289955167	0.00255608864645792	-0.0179042221270005	-0.0246809647615758	0.0836244084386051	-0.0438495496652890	-0.0513441744784791	-0.0896290547191433	0.0404868455497237	-0.0326383531626666	0.00922425355420059	-0.00594957107163235	-0.0569322062814299	-0.0561823737085784	-0.0332018584639383	0.0516215415076235	-0.0749479600897477	-0.0138358407432301	-0.0555289818032125	-0.0218013654489913	-0.0115507942882379	-0.00542402845294330	-0.0387660379696046	0.0241788556234907	-0.0227871016177415	0.0550824628686714	-0.0371880112940610	-0.0167943144342007	0.122250489460796	0.0258769609678086	-0.00553430087986196	-0.00280144623577971	0.00894206101980876	0.0224184155071167	0.192886856051035	-0.0524323803003495	0.0406401797200744	0.0625341377349667	-0.0838191530319565	0.0860729267569926	0.139787814018248	0.0153260856406811	0.0126861223554252	-0.107308990341487	0.0275775842434048	-0.0291611774224454	0.0507756481158611	0.0494726484567299	0.0499989991720125	-0.135027739521635	0.0594069705697657	0.168330552210111	-0.0871394997259383	-0.0350153131064435	-0.0428102034550336	0.0368789334707164	0.0246780752485594	-0.0598373996294485	0.0284863901469031	0.0619271551552648	0.0441183329585819	0.00898880687856749	-0.00960383929768129	0.0268535973905505	0.0268926484990407	-0.0422584326571748	-0.0148328210905901	-0.0200028436505568	-0.0612153447930017	-0.00553971890331211	-0.0115471007063836	0.127368420307248	-0.00598808806096113	-0.00661946834744080	0.0578064856760586	-0.0298918439586135	-0.0388927103488426	-0.0705166948380789	-0.0182546047591957	0.0818656251918614	0.0467658086880437	0.0326938355081392	-0.0238091760800432	0.0351070804751975	0.0631322423935318
0.0267294255387644	0.0221610762585874	0.0266112111964495	-0.0586449305680971	0.0840712022400056	0.0702966097360753	-0.0795951610327426	-0.0285199079055562	-0.00599851042068255	-0.0413255562155476	0.0565545644175713	0.0273752706692562	0.0240930475124278	0.0374592458762376	0.00479045286686687	-0.0414269282952007	0.0379114727278861	0.0167088838879062	-0.0569538492434794	-0.0476572000324102	0.177849145274604	-0.0461108640842819	-0.0868222830258903	-0.0745707103173734	0.0158323555578944	0.0183598996887280	0.102467971934345	-0.0299122404838509	0.0275088996800366	-0.0496769436716768	0.118130095898129	-0.0616911237934731	0.0453981854012044	-0.00757908797080374	-0.0806209262414811	0.0502314835270055	0.0594499689296794	-0.0391242310430199	-0.177802749053803	0.0599966687632903	-0.111709542966946	-0.0662623814581562	-0.0760156669998364	0.00262274670841488	0.0584440231058122	-0.110739206201967	0.00856814208820739	-0.0105070394229704	0.0938642858277812	-0.0671406030259519	-0.0839422312829456	0.0619610625886429	-0.0126192097982033	0.0505623207453317	0.0465956899649950	0.0532492007830290	-5.11440702430088e-05	-0.0166871205795528	-0.0292449229799493	0.0364171035518710	-0.0458612291121608	-0.0328476490415531	0.0159514151243910	-0.0748395716398110	-0.174638531407370	0.0221117564955718	0.0324309376441553	0.0173408135274914	-0.00156667380677834	-0.0479439668861510	0.0569196785444096	-0.0109985010451751	-0.0373774706113994	0.00465624990374849	-0.0637548852621880	0.0373015080610765	-0.0284379814669799	0.0139847922949839	-0.00953598187867642	0.00528137859577365	0.0514623029263148	0.0681920919112649	0.0375050862633526	0.106989381532913	-0.0520248277088141	0.0818297992748517	-0.0949102523767857	-0.0408208288208572	0.0611471645616923	0.00240409023409467	0.00519374546856279	0.00559305107229062	-0.0436500832947809	-0.0129096592536594	-0.0211427011930638	-0.0202469566317288	-0.0487995630134989	0.0796728779836134	-0.0347271766235563	0.0735077857908744	-0.00466653090077872	0.0481309050778826	-0.0570583891348731	-0.0339458554937025	0.0408300210443091	0.0553723171352874	-0.00969484510243083	-0.160671519210343	-0.0439202330006086	0.0238034406511397	-0.0664128390301490	0.0591920131359192	0.0292496057482879	0.121572221986067	-0.0364796425833521	0.0204691713755185	0.0745518724352322	-0.0177988439292923	0.0471742481004200	0.128257908066327	0.100070579894741	0.0969497818037248	0.139372219445620	-0.00441015647577097	-0.0158700131506253	-0.137965477677355	0.0229255904203510	0.0629574863071724	0.0613675533676331	0.0348490373838692	0.0582479162483727	-0.0270702687339997	0.121842176449804	0.0300521601305548	0.0620047284464010	0.0329780137830653	-0.0840418821625018	-0.0360197954713330	-0.0639830718229018	0.00271774354198796	0.0413663550990010	-0.0414390646952984	0.0101580376848047	-0.0400107066749764	-0.0956637619136933	-0.0630528176097630	0.0360635119678277	-0.0568993828776794	-0.00887419522404052	0.0857029440681477	0.0189894712369383	0.0129568224774212	-0.0442507292469316	0.0599017974084801	0.00826416547524548	0.0163783354304420	-0.0646596397403047	0.0525778927025072	-0.00792852625948150	0.0373273082115597	0.0641337902809624	0.0476025405977346	-0.0462633375459611	-0.103170032070331	0.0895428939703614	0.111326721974459	-0.0711494053887786	0.0376067770053106	-0.145810120829878	-0.0770935942809803	0.0395952099879042	-0.0897934554124419	0.0144866709995686	0.0556594768108771	0.0803226563583606	-0.0396823178550340	0.0294336427545426	0.0949741778326223	0.0627020547251941	-0.0159011058982233	0.0514787968608397	0.00733402523308109	0.000569144499944291	0.0670424504286205	-0.0685064331095953	-0.0165042878275130	-0.0905048605777472	0.0977758655332766	0.0414418657108366	0.0207758555934309	0.0196395089222647	-0.0180665235975307	0.0133054587849193	0.123819344998899	-0.0687489567121146	0.0809989579883144	-0.0152073475586141	0.0236554380235282	-0.0329434693240672	-0.0955623207320993	-0.0809461957698904	0.0348109200990291	0.0143683958685073	-0.00394619958280560	-0.0256436572579348	0.0988974195132127	-0.0333191550077101	0.0555354890883164	0.0311314336806443	-0.0839669915333155	0.104225317996431	0.0142111737770364	0.0296831992620235	-0.140947165150993	0.00166246486646680	-0.0608415888155796	-0.0440679284476070	0.0221987235951663	0.0402297617776210	-0.0339908924067742	0.0929032840288815	0.0411407797430010	-0.0564022570760757	-0.0459509739773870	0.126747591193989	0.0945128540290608	0.00670880354174828	0.0102913822964153	-0.0473934007385884	-0.0709303655430462	0.0386422334250561	-0.00775736872454876	-0.00207454601620377	0.0200780528884742	-0.0162374030143283	-0.0786112693674411	0.0366787997998595	0.0806691878679804	-0.105743028596747	0.0897780432486890	0.0214665231463633	-0.0392798017124109	0.0228950010351205	-0.00245925479959566	0.131712083334304	0.0606380629455119	-0.0449759158714919	0.0169698643142137	-0.0355754112662962	0.0266539100704437	0.0745879293883235	0.0154306936036461	0.142228686033275	-0.00278027485438553	-0.0906998337644274	0.0426945304509459
0.0432558906211790	0.0952264869671875	-0.0309107542476192	-0.0286340716483711	0.0153491537260782	0.111276030937765	-0.0199713260215316	-0.100525283347458	0.0607732398610187	0.115780214043428	-0.0902872330463601	-0.0216122204926547	-0.00198381764429170	0.0134018036230456	0.0472156801711814	0.0463840127315665	0.00348040430326027	0.0114470504793705	0.0754509732536088	-0.171303785553682	-0.0202051991680675	0.0541230834649483	0.0520868092133732	0.0570021324520163	-0.0191169505768963	0.0502327062895129	0.0204835181642008	0.0200621594998742	-0.129779544072512	-0.0285346022936962	-0.0329742011062169	-0.0245921776737042	-0.129483367007738	0.138792590943594	0.0461871327896438	-0.0236255607679668	-0.00896550969453956	-0.0150655724976056	0.0590464862549789	0.0337911163706365	-0.0635920849752861	-0.0647122382464704	-0.0244928126524657	0.00617235108204441	0.0121731884981029	-0.0404752857093716	-0.0471113102881428	0.0260572182727364	0.0506190116605313	-0.0423002059362610	-0.0746142609874604	0.0221095275107170	-0.00600776250075612	-0.0534495710959651	0.0136484440248006	0.00304812812692884	-0.0262970446173862	0.00955366183324768	-0.0392494371221510	-0.0424608146527744	-0.00601281370755121	0.0457410927115117	0.107678952971592	-0.0817859586124322	0.0154315985629715	0.0200871654769128	-0.0175940146904352	0.101905420677510	0.0142761578721278	0.0260049847973419	-0.0614968425132295	-0.0415604842045958	0.00773091153177173	-0.0998421154558234	0.126255885161552	-0.0631187633314343	0.00431498189702727	0.0234479778343633	0.00325473431837845	-0.0528311858681716	-0.138665325712838	-0.0706928251525348	-0.0981878864208888	-0.00813373431318640	0.0924537770513765	0.0355363233787915	-0.0641835154449420	0.0384425131591865	0.0536519326277489	-0.0696466127962841	-0.116529887804806	-0.0149868512809232	0.0250003214360657	-0.0605967296508968	0.0905965216606040	-0.0488598353577837	-0.0188455329733369	-0.0341211579482206	-0.0295930130016013	0.0309057856995015	0.0281588878921258	-0.173166708797699	0.00866677176892987	0.00391429594637289	-0.0133561047694524	-0.0299742436170211	0.0698272988543176	-0.110619102861077	0.0858905193982754	-0.0332214973831128	-0.0932054165882066	-0.0765581908871611	-0.00893321604884531	0.0524175793820698	-0.0392643732482609	0.0212380852112007	0.0484487304657022	-0.0970632613961646	-0.0117422244021225	0.00985320367476780	0.0313483260668725	-0.0435069595543145	-0.00118967889999742	-0.0284990505277836	-0.0108560129004542	0.0191560864249863	-0.000319927259811259	0.143771321413277	-0.0289670640102436	0.00752447799187178	-0.0810056669210286	-0.0686789118032951	0.0484996573547244	0.127710817257432	0.00557991458741501	0.0665553729504621	0.136376473260357	0.00674897043612033	0.0589059808503984	0.0528472355141173	-0.0767381259125542	0.110106910675544	-0.0652502134514269	-0.0461721905082862	0.114109806152292	0.0361819411022221	0.0600464884872308	0.00505294105683422	0.0818511353532040	0.0705986577123482	-0.00118823648806931	-0.0404911611156897	-0.00138824249876049	-0.0349771029664781	0.0995402243785959	-0.0110927451593344	-0.00187170213926435	0.0194001286017380	0.118561744809471	0.0775252328261294	-0.0256364058783016	0.0447708791523531	-0.113506351588345	-0.000399454331700666	0.0102721569270079	-0.0486916891804621	0.0495966995250890	0.0177160901867529	-0.0513749564798950	0.0198010336890107	-0.0752790157777878	-0.0636198972623212	-0.0437516218797418	-0.0389035519945428	-0.00890852917308535	-0.0514456559392042	0.0421934168467744	0.0859080600863512	-0.0191724150791854	-0.114925209320277	0.0186151285577924	-0.0762280836575620	0.0851282116807827	0.0691304882983223	-0.0667100311853288	0.0417146870600824	-0.0569115223563383	0.0236618151950805	0.0407018667020714	-0.0613217304464697	0.0548056988707178	-0.0683492538206517	0.0146205050886020	0.0700672570571803	0.00254256916900506	-0.0119518131224580	0.0335867615445333	0.0933192706031302	-0.00396972098057995	0.0867614001760859	-0.0496490167722148	0.0260579101492960	0.0263853688444040	0.0824013642174134	0.0146397761159291	-0.00508828227437003	-0.0754090922332072	0.0341855434130066	-0.0105373407666405	-0.0513349395351312	-0.000493114686346815	0.0126834844545942	0.105821352589766	0.0687430161229398	0.0139387431591067	0.0792134221948205	0.0184358871916406	-0.152268960880711	-0.0931270918364500	-0.00668118225000178	0.0573779376143848	0.0637989929638689	0.109266397059976	0.0186429607836190	-0.109027093068260	-0.144204861810204	0.0504513436264999	-0.0204434640342973	0.00711275862950865	-0.0744445516335300	-0.139002519287263	-0.0454775701563320	0.0725479965702535	0.0119446136653971	-0.123223364372230	0.0365249463153457	0.0602063037196431	0.000824125955911668	-0.0575517301814589	-0.00639973447073822	0.0426349178817341	0.0424239572867604	0.00162426310828247	-0.00600538624543200	-0.0269604057267674	-0.0213368751002988	0.00317719052865458	0.0800327099907807	0.0821018314995981	0.111192017967690	-0.0168827323400523	-0.0388628165430134	-0.00311330144005137	-0.0574464402672636	-0.0582137858747858	0.133907400568573
0.0284362202799591		0.00530762263256345	-0.0563871766131670	-0.0918735516048261	-0.0929072513872717	-0.195945470525640	0.00429628047260650	0.0135704480443669	-0.0325012086246621	-0.0682619653621487	-0.0711521969588012	-0.0358896796772147	0.0896202229722487	0.0555671635582212	-0.0135326441187649	0.0552388451490988	0.0495088049238637	0.0234227848102531	0.0256696807838233	0.0362599912726100	-0.0461572898908063	-0.145044457194163	0.102869227139664	-0.0376077339743628	0.0505116432992741	0.0152622514760625	0.0576958010072228	0.0119082305066144	-0.0621180365660696	-0.0507286618475026	0.0538141079744368	-0.00301957421554728	0.0140755377208329	0.0180391855607958	0.00244926698580979	0.0205935852165348	0.0230295319606450	-0.0727389597844729	-0.0379137489756772	0.0173835284901929	-0.0208786006590558	0.0903443285377110	-0.111466654444562	-0.0922151321858340	-0.0698068074102116	-0.000275299529259469	0.0321923649302266	-0.0226012374852064	0.00879959612571284	-0.0948053583296315	-0.167267460212315	0.0162823559657038	0.0495087974787724	0.00571846488564808	0.00391843647571248	-0.0549300430781908	-0.0146842625205936	0.0596874442502456	-0.125995311691953	-0.0925399688063560	-0.0339770780456497	0.0152226130315469	0.0353285572021480	0.0136415234931153	-0.00137119760074644	-0.00581541895102713	0.0201255943808974	-0.104741517504413	-0.0251986222121362	-0.0500194242700964	-0.0145323695273198	0.0795916900954701	-0.0515356141064782	0.00382352517809278	-0.0467829592358239	-0.0702031227889692	-0.101085764759979	-0.0523433645328582	0.0138581440428212	0.0794310374629419	0.00338870148298673	0.117585105870519	-0.0493138050922870	-0.0801767498887595	0.181082001408022	0.0240373704162200	0.151325732454681	0.0306401586442935	0.0468378965815532	-0.0356959740567562	0.0326939207552712	0.0501781571739192	0.0265439074947803	-0.113989836955715	0.0570513817257771	-0.00798175778054642	0.00175092416073826	-0.113172112904974	-0.0626134175330106	-0.0255698150093193	0.00200639140643838	0.0692169679094159	-0.00381884511575776	0.0865652116788366	-0.0276515478345759	0.0645660111821248	-0.0213749698243250	0.0598654336106177	-0.0525757801089008	0.00823506035138232	-0.0160396321106008	-0.0869872517731299	-0.0380663557510239	-0.0396512986604144	0.0220709271739137	-0.0198482009912756	0.0583629827395089	-0.105305203785526	0.0855694638976458	0.0985902245490273	-0.0648016650534414	-0.0227595783795387	-0.0483059991940925	-0.00127726050591599	-0.0180957949191715	-0.0912511975897221	0.0537687119790370	-0.0506044091294120	-0.0560211756664292	0.0730390430630095	0.0157572234656863	-0.0611766061126189	-0.0284487059559688	-0.0534261678384730	0.0385849874498960	0.0780327692811510	0.0243870530449537	0.0314911134647434	-0.0946296624769420	-0.0277753279323291	-0.0405854798399425	-0.0344913440130985	0.107336668643772	0.00769365710786817	-0.0172010414981855	0.0845041346627656	-0.0276655845211408	-0.00113275531498381	0.0179530344615358	0.145874005323670	-0.113222199559253	0.0424650557860834	-0.0476380426426328	-0.0118894312451524	0.0322569137103420	-0.119391928959753	0.0643360813596379	-0.151755866324692	0.0679656669750644	0.0256978240737636	0.00655190293317623	0.0310568310901899	-0.0528868687252215	0.0288439902110071	-0.101971934917111	0.0160384123703046	0.0588200974611246	0.0944062689861314	-0.0932961961741625	0.0239937953336411	0.0547470259431487	-0.0839764414264674	0.113386350099597	-0.00672740097311861	-0.0890007355000355	0.0213077314234380	-0.0306257724627969	-0.0512723291576977	-0.0390726707759673	-0.0527323456735592	0.00126622048985228	0.00976666985181836	-0.0423107231376298	-0.0917804319179907	-0.0356413059632789	0.00975855723105343	-0.0343447222019070	-0.158534559548731	-0.105520814467571	-0.0526037575328989	-0.00679891377949538	-0.118427600042761	-0.0754375733273515	0.102799660831078	-0.0619786525971118	-0.153428480100026	0.0856175742592957	-0.112166802548273	-0.0546902459233879	0.0279438656423918	-0.0434360287680460	-0.0434371598968398	0.0346755374871984	0.0340746955238547	0.0104991657025482	-0.000289986494879699	-0.0154810801512402	-0.0234985711180546	0.00919477717067606	-0.0684071137188089	-0.0187014283494538	-0.118949302854915	-0.105250000914585	0.00934072225481822	0.0259984305327116	-0.0506077556889785	0.0554695144014659	0.0457752330569964	-0.0814780060390639	-0.00123709556251519	-0.0683958910200404	0.0345354623520291	0.0605481480780799	-0.00271245539626001	0.0900395648878732	0.0164151762861254	-0.0413471978151214	-0.0265834121946222	0.00571344544532730	0.0203973271286137	0.0805810061360755	0.0467630646806134	0.0416145340411907	-0.00798628673095291	-0.0805439827445938	-0.0742203598324298	0.0529204394514636	-0.0135525954088558	-0.00165739080150734	0.112693245604484	0.0110990851712559	-0.0245796143595401	0.0298730795789589	0.0127309849604880	-0.000615328014368467	0.0422870201080588	-0.00700125469941518	0.0111040682495448	0.0358067759678698	0.0415202966355675	0.0161302406206756	0.0361760787998792	-0.0196182342125576	-0.0493220943823205	-0.0162345517203043	-0.0574211071907295
0.0260027077314682	0.110177982750213	0.0255393512502047	0.0487409823277315	-0.0262063725872267	0.0114712422689825	0.0291254259857555	-0.0341222469048289	-0.107993567687606	0.0239503752916969	0.0535620132736372	-0.0762703474318550	-0.0336892466004450	-0.0233923444954988	-0.0611595545108373	0.0844636924668213	-0.0649119164300917	0.0123845061664391	-0.0862060318974833	-0.0340669072585202	-0.0321232375839411	0.000920308790394647	-0.0455840055625532	0.0517480454990127	0.0321282160471628	-0.00221612659898604	-0.159731381693247	0.0770791098401629	-0.000816766437756578	-0.0153750954985875	-0.120969921228185	-0.112786629971548	-0.0249878438383810	0.103161748368779	0.0400059279471411	0.0531810091800165	0.0657469227263295	-0.0573211786463916	0.0753794961330729	0.0618492458567064	-0.140320496751612	-0.0301580350566086	0.0101069040158482	-0.0595173047300685	0.0973932054826173	-0.0240592487166921	0.0250176143974310	0.0845489427312086	-0.0502096135676914	0.0197388913535848	-0.0391550031559585	-0.0922142310992431	-0.117975570772305	-0.0162653131131570	0.0433913382880060	0.0164940725739611	0.152053229400964	0.0648710591524632	0.0267176754341294	0.0667593941376061	0.0863018271907532	0.0157921787220622	-0.0993070019328333	0.0271352146150460	-0.0417083528005222	-0.0313591379400145	0.0573229916671713	0.0269111824551248	-0.0657338705874091	0.0955808084112829	0.0472505723319930	-0.000115022933739474	0.00951486898182702	-0.0657729156530754	0.0548287340337849	-0.0229772106737269	0.0260939339312817	0.0391590581546248	0.0328835170286167	0.0953272301914474	0.0158920567028669	0.0347635366587517	-0.0103361154453250	-0.0592393459695979	0.0244103574506432	-0.0455136880755747	-0.105435585708151	0.0145284570188012	0.0267294813239926	-0.0486243394169346	0.0228401717927379	0.0348124934910603	-0.0145510617491292	-0.127279518540813	-0.0206809000136312	0.0935824059381917	0.0219795682535879	0.00191713834127165	-0.0170968492374119	0.0237786553132298	-0.0258318374391546	-0.0543631095078556	0.102350879671505	-0.00279452251311521	0.147604791705136	0.0451636998830616	-0.0286487876620268	0.0125085104268604	0.0133940229859148	0.0572010992228964	0.0386720128385734	0.0202251605818188	0.103114599406550	0.0747310374290510	0.114541864873258	-0.00419023774017749	0.00608650214284383	0.000275495198420045	-0.0223253675455705	0.0484544243348599	0.0358200158620492	-0.0380245860881367	-0.0979740965989475	0.114600278019539	-0.0273564901148037	0.0210307763898202	-0.0818187954126811	0.0636898281118496	0.00527271559020967	0.0720683216233276	-0.0906733793619549	0.0274185909910903	0.0700674436981392	0.0135309249560375	0.0306421561547380	-0.0295119394316975	0.0473517343153972	-0.0829268819523832	0.0359866434749822	0.0877541242940296	0.0664507700962233	0.0874134655778547	0.0472461758622806	-0.0187083131880701	-0.118676925965818	0.0291909700688018	-0.152175040842762	0.0171131063905178	-0.0355171366738477	0.0273089757240322	-0.00606343616818273	0.0460130762744192	-0.00831988091262287	-0.0185147534138255	-0.0552950912597063	-0.124408022783216	-0.0927940572208512	-0.00676390443736423	0.0538680204332136	-0.0148727198717953	-0.0121292780037355	0.00888037787840879	-0.0286684801699343	0.0716036649424716	-0.0372481955797750	0.0616033476128571	-0.0197471975222642	0.0331185430043639	0.0196381859162212	0.0147397917434946	0.0404493853372780	-0.0211833553264815	-0.0559278102020277	0.0225876643082214	-0.00793741519405437	0.0230713981092826	-0.0254898049436786	0.0704323692793315	0.0652704547487217	0.0392647394831192	0.0385099809697723	0.0185829930472099	0.00156268255452380	-0.00100214997924651	-0.0643819704470341	-0.0452826797064519	-0.0489139112362205	-0.116291336102844	0.0326806472646473	-0.0314344030438908	-0.125478225051190	-0.0122021332054476	-0.0117782981556512	-0.0263240969575589	0.0245731361328791	0.0518599982708271	0.000369573186923572	-0.0570377183408369	-0.149775594731551	-0.166636138370401	0.0170482663502466	-0.0391927701892853	0.00121191002065052	-0.0677395401929024	0.0342024680977132	-3.45733907656833e-05	0.00729674649343941	-0.0451772271906770	0.0998550587826371	0.133502552567202	0.0612277030846206	-0.00979799233386066	-0.0332066349547392	-0.0166985346047753	-0.00390799721112143	-0.0772650876947330	-0.00855165252325636	0.129510161586398	0.0835138878758506	-0.0906324294148345	-0.0425637587473230	0.00304149585744669	0.0291970819444056	0.0581034508061162	-0.0694104519153286	-0.0500732087069755	-0.0661887664187165	0.0971399003431526	-0.0294395456062569	0.0154172149556614	-0.140564691983255	0.0171096303145005	0.0568086424848620	-0.0867990740538367	-0.00165384607276707	-0.0308715515349060	0.133787469500287	-0.0192121853578377	0.0962331137772218	0.0389775815830266	-0.0639296771420165	0.000288169271629737	0.128170766228491	0.0213924685472340	0.00763708911439151	0.109459227983490	0.114726122364323	-0.0308915510310397	-0.0430207131794336	-0.0613080861441281	-0.0817513141015267	-0.0763053269240458	0.0199587557369995	-0.0217739222160844	-0.109995450032229	-0.0269887776592945
-0.0308155894925075	-0.0173124090468150	-0.195069159850003	0.00262838066980960	-0.0456971323697965	-0.102222079342600	-0.0674549028272356	-0.193016704609137	-0.0487888730455931	-0.00859246891621478	-0.00166811013788378	0.0406484014926287	-4.15179642851010e-05	-0.106893655539684	0.0431507989606844	0.0546793306882427	-0.0734473238477148	-0.0256733460439271	0.0541345289439861	0.0564745516678400	0.0271969196310341	-0.0367451888301681	-0.0731515651174285	0.0642267892216757	0.0890099698853886	0.0144176482235326	0.0719686850980839	0.0870122313025790	0.154783191670962	-0.0625479493723479	0.0887331583094346	-0.0329599907040109	-0.0958661077794365	0.0588939410283440	-0.130140350726140	0.126220820033785	0.0432932405474597	-0.0573674945460069	-0.0183263844440864	0.0341200201294400	-0.0558663106302067	0.0563775767693680	-0.0718784397132162	0.0289841372073130	0.00982631478736057	0.0452963989365930	0.0211377512154507	0.0520860855767852	0.0612037943032425	0.0159780288808584	-0.0935570626149067	0.00290396993953912	0.0506225597937908	-0.0149351703031232	-0.114899267283978	-0.0288283946433944	-0.0640541423633329	-0.00959849779687778	0.0203695799632858	0.0260035240392584	0.114350490511167	0.0689094647880050	-0.0457601173959486	0.0883887306300134	0.0116997247303795	-0.0364594293615167	0.0904353564860003	0.111311075848538	-0.00361839607205304	0.0334776415728424	0.0902143027780426	-0.0491850754491674	-0.154390918699980	-0.0702968042639388	0.0378822205078491	-0.0412127767280128	0.00368842748655189	-0.0870499110874635	-0.0149502551007359	-0.0988933394425365	0.0699558382232842	-0.0328053273277415	-0.0164432234526519	0.00102815928529193	0.0789090902034670	0.142127268868964	0.0570394020549603	-0.0977973227260312	0.00136043707204514	0.0852058857931762	-0.0123328223237597	-0.0348116380286968	0.115001966161582	0.0113880698364208	0.0206771900941446	-0.0242446892555771	-0.121490064869137	-0.00684453683117964	-0.115847072173952	-0.0191596349269625	0.00587720364016481	0.0190541148668586	0.0390268205032944	-0.0678228097762204	0.0391601278425630	0.0477724162723722	0.0758188795161826	0.0149924615028817	-0.0883031240579079	-0.0342634898785079	-0.102474828615037	0.0294487165510639	-0.0632170282485627	-0.0822705931130782	-0.0951882554519168	0.0273304290305072	0.00474441864007487	-0.0672348596672312	-0.0869729023862842	-0.0607204581776451	0.0136490194665929	0.0258188355311077	0.0151378666603747	0.180598787571146	0.0117410062308972	-0.00279440086714108	-0.0258229408245954	-0.0765375641251490	-0.0261189019155541	-0.0126892718240901	-0.0396983726639299	0.00741291868406825	-0.109270059921301	-0.0167123506045957	0.0274299993629936	-0.0523748496786193	0.0118548253674344	-0.0368549617959880	0.141984222228876	0.0255252433672456	0.0227894812010454	-0.0930230318957766	-0.00404114626054007	0.0550046523456876	0.0100623877449258	-0.0767769760385281	-0.0334508698426353	0.00497886781543876	0.0396323444545759	0.0166523299640416	0.0966714081886102	-0.00974301131123155	-0.0143506785073432	0.0860441780576718	0.0191132049233607	0.0498381071831687	0.00658951391919811	0.0205641801444576	0.0123868457146702	0.0420751500313184	-0.0266337788645053	-0.0881080596110529	-0.0113042665426542	0.149720056741477	-0.0787519156384210	0.0368194710770300	-0.0579183372879421	-0.0510273669089228	-0.0709940568319991	0.0848468186631868	-0.0693486962718996	-0.00594763845081545	0.0136376092705934	-0.0368301889607061	0.103697297498939	0.0729238574114916	-0.0169244235697270	-0.0259585967090731	0.0548488397882388	-0.00621762964422235	0.113298000109824	-0.0557425756835426	-0.00350500304004189	0.0792513259919045	0.0362511407760325	-0.0646764875844137	0.0172421148556776	0.0222305368706105	0.0203518232646785	-0.0448921038069482	0.0526916644912859	-0.0326451713409303	-0.0774258682865831	-0.00845421092439724	0.0133517962397638	-0.0587224932940656	-0.0406060169444734	0.00299614667763029	-0.000888809090891154	-0.0702561114125477	0.00586009446143776	-0.0646324127948840	-0.0102982268416152	-0.00232039705246419	0.0829682789722094	-0.111198198640165	0.103346960095835	-0.0263317827119873	-0.00524933809134363	-0.0384638152737780	0.0268324575003416	0.0977424592716792	0.0142554446979810	-0.00915717628338324	-0.0110688111790972	0.00104156586403955	0.0190148609568554	0.0413958664822518	0.0894645730315009	0.0693582530772263	0.0561644881372766	-0.0832227454754408	0.0108910691689168	-0.0878893437599563	-0.0459069996899356	-0.0211597746490204	0.0322245200519662	-0.0381119635650089	-0.0175614957531006	0.00621117652693201	-0.0811709175834039	0.0226397157211954	-0.107564156276864	-0.0189403268545894	-0.0298512912864303	0.0116188877628621	0.0167958610307512	-0.0706328265222416	0.0285737757140881	0.0303858020386522	-0.0132654421863675	-0.0476375411611637	-0.136929653991223	0.0657959825699144	-0.0668678022947015	-0.0296224822685753	-0.0698253900076518	-0.00725144959725764	-0.0236061856339445	0.00848672310911098	-0.0409524432604556	-0.00131347956836117	0.0625942250755414	0.0557558049182813	0.0301914448886418	0.0405186445306279
0.000938757623932973	-0.0474234433219847	0.0167255162611603	0.0845656579763339	0.0347500251170082	-0.0169640504332429	-0.0108943938185491	0.0146148732773508	0.000661187127394741	0.0545782014747364	-0.0442768227737382	-0.0636048904892058	0.0250806360654985	0.0585534120573842	0.0818508391914587	-0.0913514996899597	-0.101822251723227	-0.0316920082658172	0.00147603204248568	-0.0680889691403271	-0.0971199249052674	-0.0590564460846125	-0.0344068741616813	0.0319257528268014	-0.0122318004481833	0.0409651063324533	0.0584526844391127	-0.0154353681388316	-0.0285726187863288	-0.129870770568812	0.145930079004823	-0.0212123551461481	0.0222609555565010	-0.128437742219500	-0.0194903159274991	-0.0486286975980506	-0.00498944809499093	0.00447059072624701	-0.0190697434031165	0.0353097945731806	-0.0530166883964683	-0.00538587898343231	0.0598565747710558	0.0744558371866344	0.0427390468730969	-0.0924931521784611	-0.0455876267294917	-0.0859138888426219	0.0878628394214725	-0.00670073263224158	-0.0208684930523201	0.0123207833462762	-0.123244283934242	-0.0548504574832241	-0.0577191857104596	-0.112888212342227	-0.122677854614584	0.0129515194910389	0.0526213013642141	0.140138769418499	0.0490406025431842	-0.0199163430049067	0.0315237164725850	0.0768943084927641	-0.0286871884987386	0.0206203348942844	-0.0866947105861229	0.0623832137869423	-0.0742011428199928	0.00381425573167075	0.113306418235579	-0.0164444784525794	-0.00910945817399291	-0.0471730760464973	-0.0558949805850863	-0.0517180776750517	0.0947307381317167	-0.0317731286634556	-0.0298535350379405	0.0212089686778568	0.0440373623062840	-0.0342892766852119	0.157771442264104	0.0629606280413554	-0.133854357677384	0.105873220387755	-0.0336557507897772	0.0489596539026823	0.0573738614274576	-0.112312991104787	0.0296009673319286	0.000845143003021572	-0.0954555284836540	-0.0305951741699238	-0.0289686874859178	-0.0127423683515715	0.0177580150750653	0.0262534422621987	0.00272155182529766	-0.106035333601442	0.0893627262906014	-0.0824927855989942	0.0290458198851280	0.000556862625179091	-0.0530793441169783	0.0498762363308033	0.000831968615005806	-0.00623730612268315	-0.0192495451809177	0.0576605188203667	0.0817616537220113	-0.0268424026682096	-0.0196150043937660	-0.00172419339664066	0.0348105570009512	0.0275466615644554	0.140234381980737	0.0523693542737495	0.00271001391940909	-0.0438493492179821	-0.00151869968270024	-0.0302151905769921	0.00859613489837396	-0.0305913197946217	-0.0227141916533125	-0.0219610953487168	-0.130932699180327	0.0435936375503061	-0.0843216804536154	0.0503729578913512	0.0420780485660322	-0.0157306755947571	-0.0348420197333598	0.0832665850952319	0.0223702513341817	0.126373276507218	0.00771739693304867	0.0227389104204447	-0.00271925749458691	0.0475983781929432	0.0473491939572867	-0.0363120811631318	0.0260092118342851	-0.0210310824978912	0.0211866045817153	0.0575240282529685	0.0532405812590389	0.0120895225783523	0.114662512307244	0.00277978925472094	0.0296684478622261	0.0668640288814680	0.00356784964460601	-0.00351876695142300	0.0291062313658185	-0.0820702266534998	0.0738712171633950	0.0440500302353150	-0.0402066288565845	0.00391503364872644	-0.0906221150359284	-0.0214782825878234	0.0733002198522243	-0.0491658391022117	0.144605071904203	-0.0679657475853992	-0.0218997054605060	0.0362801116549409	0.0199236263739895	0.0287169920782292	-0.0162971548068833	0.0922608248474154	0.0808433816351560	0.0722071504930493	-0.0111424773605301	-0.0832831222720764	0.0765440123967888	-0.111033436379076	-0.0185604172726582	-0.105591297442030	0.0817775046344624	-0.0939187248348863	-0.0584993130377903	0.00332764253274997	-0.0207118879906436	-0.0983465395131722	-0.0736271803677012	-0.0547143043064441	0.0514109578216592	-0.0698118460322366	-0.0682833200928514	-0.0902828931844752	-0.0854841603333484	-0.0500718135803989	0.00360908331901941	-0.125357487121867	0.0119404168333577	-0.169237733231186	0.116874430787392	0.0364517670928368	-0.0827138451368728	-0.0186866000615420	-0.0231243556255104	0.00193891997133000	-0.0261420023509541	-0.0878423970832516	0.0509333924990558	0.0778446923441542	0.0782125774949183	0.116461245134520	-0.0945640278416985	0.0802994965097475	0.0543340695555015	-0.0694145084836565	-0.0180037976080684	-0.0300831173129742	0.0154237140820372	0.0846490562995081	-0.000931964647646735	-0.0279044361303021	-0.0471204643010789	-0.00209964102823659	0.0504162514315447	0.0286683576527436	-0.0618213745872477	-0.0150667498078651	0.0811899236479389	-0.0556704763291229	0.0536312691122266	0.0498659766824202	0.0401091705634311	0.0438605233403599	0.0942631743721888	0.0702309090006538	0.0573344364934776	-0.0579904773472272	-0.00879963144163681	-0.0980736341503437	-0.0275357248752608	-0.101584450000552	-0.0628461228485518	-0.0187101737912186	0.0286611036693564	0.0638155604246174	0.0342756674878227	0.0741382904277888	0.0754317083627063	0.0125856174640260	0.118898671378441	-0.0321955718511098	-0.0234000730939471	-0.00178976785410640	0.0112360982917752	-0.0134561874368237	0.00450785150352812	-0.0753878299384869
-0.100855283394469	0.0264188704552719	-0.0833564005698706	0.161354204637740	-0.0524254094827678	0.0476684919669124	-0.0129338299085656	0.0674036463664264	0.0557034749282268	0.0797912076724086	-0.0635138500947097	-0.0466433153603005	0.0254592689273970	-0.00914382514272697	-0.0884718951009226	-0.00342850724601693	0.0179374235608160	0.0470974756807602	-0.00899088443191902	0.0140002766726447	0.00660458711595182	-0.0406651796858255	-0.0422626328560322	0.0474850059869791	-0.0340734616645288	0.00576637946083262	0.0334976305951446	-0.0459304354607085	-0.120938000248895	0.0493487517882768	0.0194898919424481	-0.0506414123791236	0.0447267744004676	-0.0564769617330008	0.0323870526587819	-0.0688504507082283	-0.0419564482387767	-0.0995758467145772	-0.0931519941004655	-0.0291929064311259	-0.105972012035704	0.0422348673453248	0.0221868197635025	0.115931073396626	0.0277360190691337	0.0629602489670212	0.151146395627849	0.0546212947998250	-0.0335403980264143	-0.0215948285871617	-0.0851763545612582	0.0425400590882138	0.128667939155492	0.0109172557679011	0.0494249515259355	-0.00433265956596977	0.0152264844482035	-0.0683151072118784	-0.0838718268314849	0.0442639575925152	0.0484248173299000	0.00167061804714960	-0.0561458140898811	-0.0724227921324781	0.0135794687662281	0.106482130232213	-0.0560306032228375	0.0692945084269413	0.0515729533310807	-0.0653155074316165	-0.0264189089811487	0.0263509495857246	0.0400767768305737	0.0439324131056303	-0.0382970507083494	0.0517353857558925	0.0549075692343069	0.0445225780538244	-0.00574921516270519	-0.00138897514810729	0.0288934219396518	-0.175784751491164	-0.0118372872052434	0.0364038207079747	0.0326521614274494	0.0268040354042404	-0.0578083313183754	0.0946409366499443	-0.00326180141113244	-0.0163528686803879	-0.0876484135056735	0.0587300226908260	0.0830230729720078	0.0673153179882386	-0.0811538868771291	-0.00288606520276921	0.0297165487719346	0.0120671705621348	-0.0916425076487882	-0.0877640309922008	-0.0517580934594984	0.0630029980146437	0.0179751516986218	-0.0278994632080261	0.0754187898632407	0.0759083037997898	-0.0423754662304363	0.00176008350252018	-0.0249503939281401	0.0999933065230187	0.0295313147122494	-0.0750411370111172	0.0191811413919551	0.0587486178824330	0.0590298466130047	0.0578762218983645	0.0213489860970539	-0.00906842040305106	0.0211851219045239	-0.0368663253379644	-0.0210437874632908	-0.106649985288201	-0.0711303386988909	0.0287247255095965	0.0442916594273667	-0.0645425717658978	0.0395986512431386	0.0466606161097700	-0.0327000143815590	-0.00510364310364610	-0.128696646766239	-0.0385173547158954	-0.0895032042664648	-0.140347229769476	-0.0198057660908678	-0.0890165832505444	0.0718908616169071	0.0559468686011726	-0.0401740102372565	0.00407534685471308	-0.0514665434335078	-0.0282599261238964	-0.121582622321456	-0.0784238655712436	0.0663478296631950	-0.103438653790584	0.0568031780242950	0.0145212189530027	0.0165039372915715	-0.0672129436555978	0.0116915503487616	-0.0550630422518665	0.117817947019052	0.0214515711527195	0.0252931668106522	-0.0317467073291458	0.0665467989281457	-0.0521842848887411	-0.0404099165132142	-0.0458540151878838	-0.0113843355080395	0.0696896909979431	-0.123229778586629	-0.0581055721033554	0.0259261561874305	0.0322320435253371	-0.0134438856257549	-0.0710716375395664	-0.0554529936586884	-0.0508032526488399	-0.0426191042864624	-0.0289243201422804	0.0613311288314632	-0.0205622859319835	-0.0787213877097797	-0.0477234627093803	-0.0551364301913408	0.0441835385852722	-0.0934655424471410	0.0545769616454357	0.0792405522333546	0.00100609427071497	-0.0910475567737540	-0.0667456129079231	0.0848265107514829	-0.0986982602871293	-0.0663817823251148	-0.00980785627613096	0.139159087639229	-0.0393144791126879	-0.0694455718404140	-0.0303537817294529	0.0103506991032167	-0.0720174983318537	0.00328610410548509	-0.0112292740863322	0.0424970754219540	-0.000347038924827930	-0.0542107392075024	-0.134335867922314	0.00794288008259883	-0.0721520009243808	0.00380309928963643	0.0118694003846858	-0.125786191939483	-0.0231106562319212	-0.0218530126068026	0.0771250632633943	-0.160559251240075	-0.0315619100487038	0.0368286401036110	0.0379651538791534	-0.118362764667020	-0.0527951297240285	-0.0410367488776718	0.00589592390988217	0.0390226519244329	0.0454189210596335	-0.0578534774124851	0.0793111374622200	0.0425440538345373	0.0369786422505541	-0.0951559377471037	-0.110393181247928	0.0427223980573555	0.0810414349275182	-0.117124416272155	-0.0794535652015455	-0.0169869953522915	-0.0715642339266902	-0.0489214568454047	-0.0708672931561348	0.0789825458567017	0.0350725247994542	-0.0353292126763348	0.0439618965640319	0.0474098323830907	-0.0623185600842638	-0.0403236722777073	0.0157193655575015	-0.0511592256331874	0.0117216825489492	0.0762601186585685	-0.00897582181503261	-0.141590972783599	0.00339252612628801	0.0128360246375242	-0.0369646284895144	-0.0254946151068125	-0.0498252776054649	-0.0161662489620933	-0.0582279757752032	-0.00511274538303369	0.0987798612226777	0.0477752711212058	0.0523158745573602
