0.113821610219689	-0.0412903411383671	0.0628899122239315	-0.0368380537196103	-0.0212643450039136	-0.160954111219414	-0.0288803603821507	-0.0482016516660531	-0.0883023994601326	0.0314103832197799	-0.0773402094794604	-0.0180373243549696	0.101587126376557	0.102401100405139	-0.0136356511921924	0.0396624097079987	-0.0166711438795687	0.0328177671991064	0.0727057231321718	-0.0105800426691106	0.0741043185882114	-0.0606997640043168	-0.0184792300486905	0.0454161831545581	-0.0691378824064692	-0.0103608711488066	0.0203989372882692	0.0313249359011587	-0.0550478007982006	0.0796350660039807	0.0274724825690929	0.0599935897795819	0.0113007170830513	-0.0966149495418995	0.0281642769225088	-0.0478331719277790	-0.0127411648190236	0.00520360284350744	-0.0218681915640059	-0.0374915997353162	-0.0321209878076598	-0.000264237590740650	0.0296938378501857	-0.0811779396949461	-0.0535246481400428	-0.0866766227474418	0.0395292911395105	0.0525679060506628	-0.0374244058974301	0.0194692493822968	-0.0635148235709421	-0.104126618588606	0.0234401303560095	-0.0134910158320650	0.0461066706937786	0.0177297350145171	-0.0173046709335084	0.0552500041489369	-0.111452673912825	-0.0338650078788042	-0.107147575119878	-0.0191366101452420	0.00444387600091807	0.0355292358173355	-0.0218645771043471	-0.0416004817629316	0.0525286319401029	0.0115177553886632	-0.0792720093077284	0.0783211789898303	0.0277232361981843	0.0608443283169364	0.0189313649519828	-0.0392151580085152	0.107372443922970	0.109048059229394	0.124402570701265	-0.00199894623505207	0.0302313366585030	-0.00644804746243695	0.00978777523466473	0.146354255846603	-0.00154887057860274	0.00475622016167469	-0.0151156762106250	-0.0211092112908276	-0.0797811493837244	-0.0569681188207510	-0.0345189510208929	-0.00848428080858920	-0.0282723541935318	0.0686008994356646	-0.0754560513062841	0.0374017483036876	0.00606078233833481	0.00844023193726563	-0.0903253755860043	-0.141898710322065	0.0136850949413044	-0.0110121824450416	-0.0417679941314225	-0.0901541363729186	-0.0700364273160782	0.00711251514105466	-0.0738930987871789	-0.0364776760439800	0.0462623134118955	-0.117562871514999	-0.0184590696672468	0.100152775415712	-0.0593085025053677	0.0314676299712574	0.0323915391288850	0.100563807268706	-0.0209819694754180	-0.0203195239925750	-0.129694780017546	-0.0359618130798980	-0.00321172342378332	-0.0287559701611968	-0.0512153845547381	0.0260128388638783	-0.000309833627293446	-0.0135533782675062	0.142271339394245	0.147212933338558	0.102161172782664	0.0151175496976742	-0.0271459037554212	0.149706600649702	-0.0389851339381461	0.0160012813913081	-0.0123371965110358	-0.00163042788561860	0.0448198824945849	0.0976594055663599	-0.115206744823630	-0.0924068324518483	0.0240922195341898	0.0489409168193090	-0.146259376005590	0.0225845172670599	0.000449875274408370	0.0252776560105859	0.0205603262426595	-0.0209146087851962	-0.105729684624211	0.104581585341030	-0.0180152735157400	0.0488518852689849	0.0878316962731486	0.0258007546788222	0.0114085634284569	-0.00825821809600941	0.0886132974909161	-0.0180238307211905	0.134248783792579	0.00739654667655412	-0.0392825715444388	-0.00926686189321231	-0.0801163990247834	0.0144649687875108	-0.144165062358551	-0.0901207123506965	-0.0459350202036169	0.0553219650515235	-0.0109068370562538	0.0178269885746835	0.0726804626483832	-0.0719577872564019	0.0808819219341141	0.0175827368531933	0.0717340507988354	-0.0370196840022993	0.0209634262739544	0.00560036821382766	0.0139841941033708	0.0643041198964878	-0.0733043698089248	-0.0791156795917491	-0.0426072844853622	0.0439234966515342	-0.00774355956558230	-0.00179618178790298	-0.0231690807364047	0.0195912247558655	-0.101989847107102	-0.0975218397311690	-0.0551552809376845	0.0238339864353517	0.0320196366412877	0.0402649063403300	0.0242716543030279	0.0482282617289894	0.0289325589167642	-0.00839360997948213	-0.00874817331633093	-0.0284857823189028	0.0267562691176624	-0.0721366949041866	-0.0270818721475047	0.0725934619202110	-0.0509437754291750	-0.0242809520668582	0.0553165794925079	-0.100791003782098	-0.0795983756320618	0.0272326460320229	-0.117556607940715	-0.0434530971262482	0.0443844953164582	-0.0156814404236728	0.0431545663442010	0.150472012048732	0.0476787465742390	0.101251670418918	-0.0890919016790824	0.0202004034959539	-0.0122910615235177	-0.0581515767026493	0.0108634845621683	0.00471741772260264	-0.0288221063666402	0.0247048556539563	0.0731428849662768	-0.0482835543263916	0.0851660422793614	0.00108255804913978	-0.0748897975749187	0.0657019030215113	0.0720287462122623	-0.0337739477406174	0.0623317170815612	0.0266177409132514	0.0190902023740516	0.0941028679630363	0.109094040855216	0.0375030788796542	0.0739393763709485	-0.121788655646290	0.0297574873911784	-0.0516683574732857	0.0804717061627250	0.167309634194725	-0.0383109254314230	0.0901735429271949	-0.0330942294650514	0.0114753512459430	0.00563875634671960	0.0177926383032968	0.0801703245804946	0.0469641023158006	-0.0409848251661541	-0.000250186569850339	-0.0118738761598362	-0.0631922156219237
-0.0407275219902683	0.131343989727704	-0.0790125207394632	0.0372423545003370	-0.0424838630615353	-0.000641202763398928	0.0933688374685323	0.0325054051331815	0.00802572906538905	0.0341934353302761	-0.0813926717950819	0.0332486602866563	0.0391991007721291	-0.00228225319418621	0.0314051725479987	0.0337698792885757	0.0853763072655013	0.0727178754546625	-0.0408572727454502	-0.0158529426651765	-0.0652510449727857	-0.0179434178419325	0.0466965054597030	0.0307163030736938	0.161553109775509	-0.00862375190674722	0.0209858933156647	0.0247365795546802	-0.100740764036972	0.0752121405597416	0.0325219315061717	0.0337852676610818	-0.0520270924459031	-0.0219778491221518	0.119950859320624	0.111789684506224	0.0192506080473349	-0.0306810189136200	0.0227742572954244	-0.0371373549126484	0.0222533086699432	-0.00450319743201921	0.0834161265218035	0.0661921253580095	-0.0825934264503459	-0.0808170639250457	-0.138962120190256	0.0422638351755298	-0.0288651530430667	0.0545797213825305	0.0769711355384452	-0.00284161136105396	0.0528915296971076	0.0652947242092472	0.0834553549700274	-0.0313475282067821	-0.0479595977658530	-0.119743587868087	0.00907192014387829	-0.00406514276836724	-0.0710832900538569	0.00365971383498295	-0.101779727682339	-0.0431936399133749	0.0377949323004310	-0.00644510715146647	0.0177565712473853	-0.00327030880357257	0.0961985703378568	-0.0205444854470493	0.0832447478439761	0.0320563398368092	-0.0201783826348804	-0.0421428075751399	-0.0542400404898478	0.0161752103581581	0.0785830661005658	0.110003081263691	0.00862634575988643	-0.0349220403262174	-0.0130239328476422	0.0317356860471079	0.0348873701936075	-0.0464007497836464	-0.0214937027093372	0.0258087568930146	0.0306417935086311	0.0315166690817026	0.0112207568116089	-0.136248249803915	-0.144608301902369	-0.0384297756518627	0.0262519108685053	0.153161401082062	-0.0340865504742212	0.0538558759255892	-0.0443928007550519	-0.0240011976460356	-0.0992165826978801	-0.108878110287595	0.0492083484675523	0.00423560068629974	0.0242523238642351	0.0975144705116992	0.0157243503100075	0.0509103298937498	-0.0355592075645824	-0.0289490911153293	0.0750144996603966	0.0756333242050458	-0.0227474594917011	-0.00613054287686804	0.0191466853705056	0.0424232394925179	0.0362067155144471	-0.0626892999743369	-0.0518738207873182	-0.0227983671432754	-0.140772706828747	-0.0950383032055504	-0.0520938640650461	0.00618729931177973	0.143673211977213	-0.0122497886469863	-0.0688273752894219	0.0101265885129069	-0.0191446629145339	0.0375185445997657	0.222360355240933	-0.134369379141678	-0.0349343858152177	0.0794317413965736	-0.0656420809275014	-0.00480306706398958	0.0404642631963063	0.0191457600453785	-0.0653655164268883	-0.0275864104465464	0.00216295423051507	0.000379465053922696	0.0333929940035219	-0.0985980607170847	-0.0478869109204927	-0.0592544020727197	-0.00164598119750923	-0.00319516232849238	0.0240072833361367	0.0319077075325000	0.0103813259476215	0.0901118673614713	-0.0688956203979477	-0.00183684681319647	-0.118199973265782	-0.0344964362100110	0.0416022059883168	0.0621232143754086	-0.0162822977074473	-0.0302163438281143	-0.0330738307284994	0.0741866883038777	-0.0434646541374432	0.0962514509950922	0.0326880126787639	0.0473263641367240	-0.0518256861542446	-0.0394133501089814	0.0107414334484854	0.0595226443020933	-0.0744278632030005	0.0335816222716796	0.00507098132761502	-0.0648048979696590	-0.0434942556304982	-0.00445118299108382	-0.00488836114298064	-0.0177059284343770	-0.000182656269064496	-0.0569144076534610	-0.0196953416607723	0.0326337671258489	-0.0560509924321421	-0.0209794674096507	-0.0594606460919050	-0.0198431391183978	-0.0470852546969122	-0.0487938811528875	-0.0348757200274484	-0.0315186153814402	0.0475816295631264	-0.0999357731474270	-0.0933551323596938	-0.0336765046042313	-0.0698964255974702	-0.0285436466257238	0.00886569604442027	-0.0666406226399883	0.0860193243348257	-0.181676483780366	-0.0659101057958987	-0.0994245787311816	-0.0205587201957498	-0.00484871151126891	0.0361705826114890	-0.106745850580801	0.0293799871973492	-0.00824806486996188	0.140861151242476	-0.00903489737963307	0.0324996079334462	-0.00467583494820033	-0.159851405396440	-0.0862297548724132	-0.103031488349594	-0.00587317196416378	-0.0478281123092522	-0.0235072275280886	-0.0530516845674425	0.0373013213418668	-0.0667471364055007	-0.00148377902695729	0.0537553943331593	0.0509222146811383	0.0817123853951308	0.0778049801331218	0.0195326050158185	-0.0403734586258459	-0.0496292263636848	-0.0115788233435768	-0.144639181694348	0.0409023531193702	0.0935677813645133	0.0738272211717194	-0.0762502823933918	0.00340796775073924	0.0543291601775361	0.0974385684275629	0.0281116272522298	-0.0101378047548366	0.0298488785951102	-0.00713931414542490	-0.0751814159779873	-0.00563413366207618	-0.00657552579081306	0.0626404152740678	-0.00948446183247863	-0.0605747806928738	-0.0126595616341478	-0.0565819415481251	0.0340773268483589	0.00844898505477702	-0.0668062059108257	-0.0900070379072951	-0.0422089719245198	0.0246050122308102	0.0195547577227244	-0.0894378583594950
-0.0255069548440203	-0.0724565559084106	0.0574582614354625	0.0542083202313631	0.0358244352732406	0.129241708130699	0.0898822530456077	-0.0198404697510835	-0.0874343105169988	-0.0745354562682615	0.0437302800492338	-0.0443096300623264	0.0303871939188602	-0.0250923243267942	0.116274704505239	-0.000416864685392761	-0.0276321088033638	-0.0609391511530658	-0.0254658263929828	-0.133981054623561	0.0153187410522490	0.0682675997326657	0.00168158023647739	-0.0653471999621461	0.0421164607708524	-0.0541260017240127	-0.0154408581276405	0.0231002274554770	-0.0416445617180452	0.0758267180837209	0.000489441570963163	-0.0892710606967861	0.113130981843145	0.0431729168640442	0.159957388635083	-0.0205507129675231	0.0525921425206520	0.132002459962548	0.0357294918387092	0.0354244050848049	0.0381593190942568	-0.00657300472272759	0.00382315743308382	-0.0372504795741009	0.00913074406970569	-0.0320118893034386	0.0514105666246323	0.0289483827267601	0.0156173844410383	-0.0646494214563408	0.0789884537000994	0.0637841194935927	0.0438840480004535	0.00740641857530916	-0.0236242220385093	-0.0534682070927307	0.104796573110319	-0.112033911878915	-0.0156453741095919	-0.0162401399573869	0.0218436810527160	-0.0110423056676144	0.0284004465128635	-0.120128773190649	-0.185418885332582	-0.00837890351846552	0.0138528160164913	0.122820211615504	0.0405160792323967	-0.173644579893395	0.0433141416397530	-0.0296655064953587	-0.0819351632463989	0.0110888524235687	-0.130395008096588	0.0514139520414655	-0.0397397336580661	0.00249348192262148	0.0859675573632697	0.0223428205776533	0.00339429153798496	0.0167816795117690	-0.151471722853560	0.0121198869822859	-0.0423159440712722	0.0105554244454814	0.00216322462227802	0.0211072962363703	-0.0226357899988602	0.0221589149252381	0.0469894130515696	-0.0748237482887035	0.0147705342682165	-0.0348270052120911	0.00125455724643389	0.0426573671072418	0.0474930187542535	0.0849636987025510	0.0386273088771557	0.0330146835002885	-0.0276617971435054	0.0978004554705697	-0.0481174101837576	-0.0422015637288202	0.0852591667005472	0.0717806697355278	0.0706473443148909	0.0185796725854983	-0.00413952680391665	-0.0504773857663155	0.0667175891826954	0.111548984795061	-0.0581118335548957	0.0514484458916534	0.00985140993332521	-0.0693465074866439	-0.192758233519513	-0.0240891066963514	-0.00522327617541797	-0.112323389247738	-0.0967507335301371	0.00296319651650215	-0.0619043415877789	0.0550723212927388	0.0523804205162332	0.0395706734249011	0.00250922925763699	0.0429681904906552	0.0184824750658611	0.0984907332316444	0.0506543682512155	0.0989412028710120	-0.0508155028793487	-0.0262961263124778	-0.0347559674643095	0.00565465928768478	0.0273326925775732	-0.0214614499335151	-0.0816408169853561	-0.0519415765363404	0.0715590116210063	0.114906889024094	0.0885287974978221	-0.0876918007749820	0.0452205923059947	-0.0210852639211687	0.0125917983878203	-0.0230413217330000	0.109192843758979	-0.119108171200033	-0.00791852559155613	-0.0247899524381004	0.0300213566917670	-0.0149685125959194	-0.0107612144433704	0.0381440286093768	-0.0167547257366952	0.0889080866918514	0.102343881643302	0.0194792642583652	-0.0251381147976565	0.0481379296081907	0.0259358225861937	-0.0115919727700797	0.0482828883012318	0.0639361799701987	0.0153997691048878	0.0320836965190873	-0.0289745529036655	-0.0363220033453413	0.0861372404583798	-0.0263181905103814	-0.0228754209315864	-0.0309203117567990	0.00792970897437332	0.0590247674123660	-0.0220320057391434	0.148793607121855	-0.00300546392458199	-0.0892127628083698	-0.0336116472221189	-0.0300216552887891	-0.0181541768339366	-0.0991927609114966	0.0338385187672848	-0.0323915093608556	0.0481783410373214	-0.0294936410779166	0.00411078772038937	0.0823710200815589	0.0892281032391923	0.0775378783543141	-0.00299477037105219	-0.0810185684230267	0.0307620316834168	-0.114494353764792	-0.0919040504982235	-0.0536295225479582	-0.0464810716392633	-0.0621886351997317	-0.0211217984821558	-0.00708322120444365	-0.0886814510643187	-0.0388359434542004	0.0292857146189997	0.0527046516237979	-0.0143326880827752	0.0270252957537279	-0.00517863395294036	-0.0678247406999550	0.00438635773869768	-0.147744682320941	0.0556228669973190	0.0536522544050263	-0.0868601091694389	0.00459863284596989	0.104341064639586	-0.0210781797541149	-0.00579948102570315	-0.0420889037225652	0.0482334471539663	-0.0434094420868423	-0.0971600214005659	0.101497844939995	0.0339099507864648	-0.108942219276617	0.0410591243628927	0.0302683343899094	-0.0390633761796249	-0.0335206574763631	-0.0467069645006629	-0.0435698803705708	-0.0778575634368682	0.0549740379137078	0.0579501754963459	0.0753745410921633	-0.0214860917838299	0.0334899805683371	-0.0440495859624683	-0.00564642151684051	-0.00970674808225140	-0.106187708649214	0.110481661279815	-0.0274076786133264	-0.0989648589177153	0.0402176820563245	-0.0218477110788237	0.00622253320851238	0.00673012978899914	0.0193909964899013	-0.0291015989580527	0.0320906309352783	0.0566847941736199	0.0224600964063919	-0.0637715062212253	-0.0336397318023333
-0.0538894221512293	-0.0611699443296101	-0.212427202708963	0.0439250505656364	-0.00535254810814927	0.0476044832111473	-0.0118415354481221	-0.133589716162416	0.0515098854672641	0.0259541071967922	0.00655706072445006	0.00780423619314547	0.0232710359494199	-0.0294700217923771	-0.0301001821811990	-0.0689071835543402	-0.0529933474827238	0.215113404166242	0.104014798151207	0.0235612238078551	0.0504858425360110	0.0170382138346214	-0.0766510416240614	-0.0694393800324603	0.100661718038752	0.0273865590035051	0.0256533662399138	-0.0302619582691828	0.0196845579934066	-0.0660681193181684	0.0303929829328125	0.0351594659956360	-0.0487716309102240	-0.0368263259730528	-0.0241322055770875	-0.0376242124904884	-0.0271100157287207	-0.0236503434352517	-0.00160028747081747	-0.155576426637947	-0.0165879161037025	-0.0309366446962366	-0.0244591627312432	-0.0592513761844449	-3.66710145566175e-05	-0.0419202718502772	-0.00425084921228382	0.0689919982125072	-0.0576498514032224	-0.0102676280275842	-0.000719378154228773	0.0577351168989396	-0.0311119918748987	-0.0117102451504682	-0.0267303696544005	0.00216063308488676	-0.0711597695345898	-0.0119030345613071	-0.0743902558185503	0.122294940330663	-0.0275546227990538	-0.0575347260872601	0.0312312728875411	0.0375852258882336	0.0288146371946802	0.0438982938080148	-0.0217755463493058	-0.00455766180873770	-0.0417838506207215	0.118463699442493	-0.0855320384728446	-0.0638195794928316	0.0255958157526026	-0.0105538337535748	-0.0204625394176491	0.0407221493513389	-0.0442804607524307	-0.0437573636670090	6.52522784758488e-05	0.0351753484856600	-0.0472032607842099	-0.0432785326758908	-0.0221000641525608	0.0726264411203253	0.0675044805998794	0.0363076014967426	0.103662694967426	-0.103944571649419	-0.0511248253786629	-0.0667578088141613	0.0401685993432447	-0.0243050221485794	0.0334089912047768	-0.00769960202739247	0.0423571288819887	-0.0103190717943373	-0.0107660828616944	-0.0182625388609196	-0.0333552954211861	-0.0535170851092814	-0.0402760674955388	0.0301336709288215	-0.0364345660482832	0.0519168431757619	-0.0281296236995409	-0.0601237238079521	-0.0176148361578114	-0.0117008331401797	-0.0984777594631784	-0.0116923794174110	-0.0793402589499348	-0.0108849607290620	0.0204747440318432	-0.0211948993878848	0.0129424295959555	-0.0492239752436992	0.0647928893243953	-0.0848535795743253	-0.0520163602189378	-0.114249926262919	0.0429921178662600	0.144427686480890	0.0247993030094526	-0.0796881167363801	-0.111105715095792	-0.0122243244861522	0.0628493051007171	-0.0292682367136391	-0.0846373544103024	-0.0399599401504511	0.0270458629762810	-0.00754921368786641	-0.0208870256496664	-0.139793495907119	0.0306911033875398	0.101253417017329	0.00528359948336355	-0.0407985089540947	-0.0423939250850098	-0.0724365374863439	-0.0420385306643120	-0.0213103691452943	0.0235982068102405	0.0958174380183581	-0.0345814862967093	0.0104534796907658	-0.0758949322974862	-0.0104827493780240	0.0227144754919655	0.0461034571729744	0.0138557136931845	-0.127481847793071	0.0499454709814637	-0.0858656238867686	-0.0587746896963084	0.0472815178738022	0.0269945174059994	0.106005494646176	-0.0127990487756013	-0.0194216449943111	0.00753412727363209	0.0905518010764496	-0.0608468147786187	-0.0524986051123877	0.190598759906814	0.0699946192740995	-0.0516309869955746	-0.0291581796000558	0.0329730786699888	-0.00896665757736470	-0.0198804032520145	-0.0345384070143021	-0.0399948871093191	0.0496837888161659	0.0237224468664343	0.0249101634448262	-0.0439279935753797	0.0999774320611546	-0.0421108764073163	0.0571106515702210	0.0734093839348887	0.00235233384591665	-0.0864702329985843	-0.0619425723198512	-0.0807942877540802	-0.000117928881332072	0.0115921906518246	-0.0424361697565328	0.00501801572109209	0.108954448365649	-0.00409655267949924	-0.0490400323850660	0.0214285785069131	-0.0972417561056006	0.0550940662506369	0.0340062833316560	-0.112242124609619	-0.0327712990331137	-0.000787594162061900	-0.0348352136544638	-0.0188585666362199	-0.0665584528809558	0.0782226596741120	-0.0848818921083292	0.0381465917982581	-0.0292389057712586	0.130533660016021	-0.0642082264759309	0.0110004266704494	-0.0563185479137844	0.167245406172950	0.0172221787941082	-0.105668515049465	0.0661442978689458	-0.0921103820261763	-0.0660290101948697	0.0586533777657824	0.0691380621975379	0.0638755722741117	-0.0289810174935728	0.00340437853837022	-0.0468763825072815	-0.0303823444518793	0.0110567240219706	-0.0871975128809443	-0.0871048662494365	0.0712420346095406	-0.0334717066013649	-0.00955207563731422	0.0181951602870008	0.0588987852394731	-0.0647851431948432	-0.00628384337631806	0.0235648926570649	0.0236334424911578	-0.0352544591253029	-0.0219126337995180	-0.130024175403909	-0.154418696904976	0.0807755601202460	-0.00730078138610446	-0.0543752332156336	-0.0932294962708545	0.0256738586486462	-0.131693834406093	0.0276457102118248	0.0727605098946285	0.113828058844443	0.0300886402947432	-0.0711285305669576	-0.0491828435861515	-0.0597889080880414	0.00127550742211473	0.0824917106627414	-0.0653419224322232	-0.0516945447703001
0.0428179706650871	-0.0185578213432966	-0.0392710609740637	-0.0697051656130404	0.0540432796642730	0.00837581061063960	-0.0955719177059481	-0.00792176659206605	-0.0430771927793457	-0.0131861282618892	-0.101191908260939	0.0403503678711539	-0.00780788037422914	-0.0388567864686364	-0.0559484263757322	-0.0891096932953120	-0.0149650703634622	0.0783176778363142	-0.00427419931825370	-0.0690345538119027	0.0786503528965079	0.0100389441915505	0.0938290079651130	0.0205730333956509	-0.0319754075095961	-0.0898873574404756	0.0211495375823407	-0.116886809262466	0.0244166962633640	-0.0336570738414894	-0.0918234633304044	-0.0296313691653661	-0.0806096747464124	0.0176246313247580	0.132137655225628	0.0389200819237730	0.0259765927681553	-0.0476665052731487	-0.000775302953232221	0.0227203348871898	-0.0617478847735261	0.0392682132796999	0.00158833734530938	-0.0528336735433841	0.0277098308589927	0.0631253382782210	0.136984341292307	-0.0408719055476691	-0.0582672120321099	-0.0115848021131793	-0.0293199505502261	0.0748975453843004	0.112409048385718	0.0398484454850642	0.0493894694963670	-0.110222187951454	-0.0171459033268028	0.199077654689875	0.0481575364419936	0.0295992183939738	-0.0237167406597485	-0.0168312051332037	-0.0299550554328214	0.0491056570850070	0.0913586267367089	-0.0740724123136292	0.131041133679945	-0.0255179025845465	0.0598941930819617	0.0284585438292955	0.105388869835091	-0.0104612308189800	-0.215392442382548	0.0210919056996790	-0.0688252111139457	-0.0858163230725810	0.00418247139352220	-0.0582584942920465	0.0297119566081081	0.0565401044534890	0.0362679175160006	-0.0508693050979891	-0.0245091748579012	0.0210164132263278	-0.0165137468856499	-0.0957906104712102	-0.0926696026936446	0.00590783335704306	0.00199188938242344	0.0979138524138410	0.0215694927913629	-0.0124611870659576	-0.104631204832308	-0.0499122036671396	0.0903539625614308	0.0147085521447036	-0.0367695302763841	-0.0446791972313251	-0.0417498358643649	0.0704601548369611	-0.0109856127587809	0.0186462405138324	0.00200945199470754	-0.0364568094968259	-0.100107131275417	-0.0535678567762905	-0.0350010843693697	-0.0812927817605254	-0.0491930660512437	0.0329273696099959	0.0112759404182463	0.0109234504124305	0.0415948173550927	0.0309227862671168	0.0370530735072018	-0.0326362470134471	0.00984184462684668	-0.00320103128518105	-0.0105724697981758	-0.0187195944882645	-0.0544579966081424	0.00803293688295969	0.0358813614885406	0.0100674585671326	-0.145179182034930	-0.0131636412336297	0.0317505634418002	0.109701531531541	0.103845343843348	0.0938152377379573	0.150613225287062	-0.0299367467996811	0.0191624671649677	-0.0690345844406160	0.00530524434585386	0.00840706891370245	0.0817119476523718	0.0586217693652318	-0.0437160145987770	-0.0389106893569214	-0.109139810611976	-0.0421167784941980	-0.0284505276330098	-0.0431806760192331	0.0588698361549628	0.0209614637918350	-0.00593839383840056	0.0671165229141607	0.0127811447636020	0.0751258734647640	-0.0342253948521587	-0.0956775586163613	-0.0277876305185614	0.0226928472891234	-0.0477930107027316	-0.0647390740038013	-0.0534149553846722	0.0892280996809067	0.00505666235798073	0.0778538152328607	-0.0362393443852940	0.0779443544753223	-0.0463832744330149	-0.0280508315935882	0.118904978969806	0.0661696855930361	-0.0418468621185148	0.0369569833276719	-0.139022236999334	0.0262164641642115	0.146100551557504	-0.00328638003219216	0.107920262178062	-0.0289010702257215	0.0568764291860976	0.0133026027602956	0.116164985044370	0.0132341898065406	0.0259984537515838	-0.103917419188693	-0.124750285869466	0.00173529748953243	-0.0148969834673555	0.00602654969049028	0.00777856328951906	-0.0531300358945299	-0.0109168377822178	0.0473610777044611	0.0240220655517270	-0.0184270943348361	0.0136744691423105	-0.0211999181184323	-0.0340237857763323	-0.0101195485699805	-0.0356317096916709	-0.00751835081993423	-0.0294203554590836	0.0293953266201620	-0.00830961197404230	-0.0121979713547649	-0.0744934444484658	-0.00498104325895159	-0.00930167200156205	-0.0910493960937436	-0.00513646674329401	0.0966326758958012	-0.0346020940532218	-0.0252914956047228	0.0124424019764450	0.0940246081774368	-0.100933750887164	0.0119614185249607	-0.0421713116110276	-0.0797201629839193	0.0781059381687577	0.0617174403018859	-0.0172416049852811	0.0468153770122127	0.0833412301711385	0.122240292786109	0.0465086904025824	0.00435501647806721	0.0640982598851991	0.0396950643018810	0.0797895698840748	0.0247837996240283	0.0247334162498366	-0.00226703863122647	0.0550512366758137	-0.00844216566991644	-0.0112943981684477	0.0464560879930683	0.0558339736991800	-0.0685596869523633	0.0204675473873487	-0.0563882045289990	0.00883460139298706	0.104405997308436	-0.0751874235145116	0.0704744352422934	-0.0139254919611600	0.0274441282584830	-0.00956358876728954	0.0715103005427879	0.0361407207517111	-0.118568868819740	0.00527151131828507	0.0215643159336353	-0.125595473390225	-0.100733267285525	-0.148788838200311	0.0995606046022823	-0.00420250434692973	-0.0277944822489755	0.0200032991693124	0.0513097011261838
0.0528892178933601	-0.115310015839727	0.108293401232989	0.00108010422058466	0.0960956775346667	0.0260739290202982	0.00748732498410676	-0.0375186293040170	-0.155109130572347	-0.122355471482284	0.0488127110584878	0.00467826067115446	0.0274402653438944	0.0277785393782051	-0.0260302993141881	-0.0487085820578051	0.00883878672796348	0.0217053686293825	-0.0913203918758543	0.0170060741637166	-0.0365232574564131	0.0404687637627705	-0.0950057166543035	0.0311031329758494	0.148455288473302	0.0376258844687659	-0.0924144740021296	0.0142824219550135	-0.0677464622559832	0.0388287432519382	-0.00110833567385969	0.0571602121851408	0.0213446633030366	0.0213185073427509	0.0848957672322144	-0.0567391752912538	-0.0809704270353988	0.0431222021371042	-0.110622041344539	0.0327462553594621	-0.0283093163282135	0.000372834195982206	-0.123778997433235	0.0159352710404304	0.0623059175278635	-0.126337562893220	-0.0611727948043249	0.0312993342871543	-0.0304775855167881	0.0312290015689398	-0.00777065193711639	0.0385507807889974	0.0128811647989045	0.0260456818749232	0.0127998672874423	-0.0282784343422677	-0.0934654306450740	-0.00712131130161828	-0.0954262655045651	0.00439050263971609	0.00379545168910984	-0.140832896601514	-0.0648040415252351	0.0689056225412136	-0.0448418303572897	0.0182780397514873	-0.0219816662021747	-0.114505743615791	0.0740630021013310	-0.0139657487789651	-0.101493789645764	-0.0509218193545987	-0.0534292197194053	-0.0780717922075602	0.0707820799306245	0.0683872833309261	-0.0113748497231117	0.0475138723524417	-0.0455092889355793	-0.0396859379682117	0.0431523219433593	-0.0470090011410394	-0.0266148532486098	0.0752050601257194	-0.0353761177320040	-0.0927556658259617	0.0728260355077079	0.116660687679836	0.0398285167797217	0.0324384858761122	0.0183466605007622	0.0282629830826717	0.143349296682280	-0.105179655190728	0.0428026230398361	0.0771726331973798	-0.0379800729850333	-0.0268623685262759	0.0804717712759299	0.0151303881704940	0.0644047865870236	0.0224733723924774	-0.0133445765078472	0.0622057112580902	0.0492900878129734	0.0234534179188985	-0.114575928169225	-0.0539511626156089	0.0379664981782459	-0.0161303345586889	0.0106337203388470	-0.0661309751243419	-0.0384286032574759	0.0576619423805245	-0.0223146836529001	0.0305161865005369	0.0525685753240014	0.0123095828218213	0.00930308322915899	0.0361729281829352	-0.0583259603707501	-0.0254787956233051	-0.125341462980015	0.191867695415464	0.0232752535362437	-0.0783204796209437	-0.00982542088440059	-0.0418092092457080	-0.0951721055059120	0.0114678907312512	-0.0196429123615484	-0.0204224557928465	-0.0655560806653728	-0.0110290654562125	0.00436924221099787	0.0630038488253450	0.130612358855634	0.0401444361301078	0.0370638464129727	-0.00317097909276993	-0.0799687773480411	-0.0840040393173852	0.0410426102461476	0.0658651816028406	-0.0654581665881771	0.0202568268620635	0.0911978962727011	0.0336829100386161	0.0398208146665065	0.0863014138522186	0.0401996876544985	-0.0415482218432311	0.0562709410940555	0.0289073809648759	0.00968947294966903	0.0274448998981371	-0.0155233676637463	-0.0214055403495817	0.0199168700315763	0.0165260591936981	-0.0127598702640631	-0.0398553058517035	0.0750932446366146	-0.0495645854172297	-0.0845748125723167	-0.0450320531929929	-0.0265900116037946	0.0447690110366583	0.0643358521645027	0.0794443056250341	0.0151606558925596	0.0125124856091922	0.144816189908689	0.0143016992012042	0.0393227031637101	-0.0909820750678938	0.0116925751929561	-0.0757403294280673	-0.132770728733257	-0.00847039515353843	0.00418480236974094	0.0677817506680915	0.0720098526694620	-0.0701369515660240	0.00802125192512415	0.0389862470993767	-0.0701650197663248	0.0634266885774901	-0.0501607631233968	-0.00429488274347818	-0.110593673619482	-0.0423658553769257	-0.115666047163208	-0.0130688184558854	0.0571264814694634	-0.0702833731647516	0.00237771047263968	-0.0986651746107802	0.106167337095349	-0.0382686733879696	-0.0996939775350049	-0.0534033737118852	-0.0428762240545049	-0.0725171240003119	-0.0133918078716916	0.162927310601520	-0.000968012005147144	-0.0141950489896380	0.00690567203353308	-0.00626309592833209	0.0723327953891899	0.0473074589893150	-0.109138775621895	-0.0499504538627349	-0.0635510553883215	-0.0618374855101275	0.0902485750856949	-0.0566783291221199	-0.0333636791866090	0.000301215382758538	-0.0633240748943389	0.0263555732280171	-0.0930735154775741	-0.0356602143204536	0.0362810380969553	-0.0661890578161874	0.0272589938931306	-0.0654513583216298	0.00281243784640053	0.0175860016295303	0.0207260969001299	0.0305323375738148	0.0209381074060110	-0.0336607319826733	0.0153436624211379	-0.0129092053572772	-0.0179845193521448	0.0529122164815481	0.0533716025619044	-0.0248205111583905	0.00164207576866910	-0.0295683656390612	-0.0781904993067951	0.0610418740641163	0.0832605464856103	-0.0329799169969192	-0.0475951420776937	-0.0258051662100355	-0.00517046893837787	-0.00600421067415544	-0.00178092068958666	0.0405270483212998	-0.168739113051302	-0.106859688329378	-0.0610791161783216	-0.0978283835298362
-0.0626870157952036	-0.0470501086734641	0.0420590835263797	-0.0124636397992355	0.00457746799966663	-0.0231028228670604	0.101470604579856	0.000225564561963896	0.0299418407942739	0.0530101752114655	-0.114051314280903	-0.00236270103752334	-0.0371841990800880	0.00472498691475370	0.117029144185241	0.0785188002422075	-0.128331966402107	0.0341896792792559	-0.0357057650694465	-0.0291205795013607	0.0257548351634381	-0.0295025469924727	0.0254576770711806	0.103547976840256	0.0198330463409016	0.00463836314269405	-0.0104081260548371	-0.0883479257230653	-0.0469128283916976	0.00727347077976431	-0.0634158222210409	-0.0159804665192257	-0.125801078886264	0.0319700040280771	-0.0912342212945665	-0.0353445768947773	-0.0611531476335356	-0.00951237846853641	-0.0387236636702528	-0.0456299800913764	0.107171419568443	-0.00517287849819528	-0.0120409806865132	0.00601789705834226	0.0299550240944983	-0.0697037900482953	0.122009231493233	0.0512900815755366	0.0749083655452531	0.0383524260493840	0.0305248927405605	0.0237793605119520	-0.181509404674765	-0.119514546750093	-0.0340008405553291	0.113425073341299	0.0978176087984718	0.130199659083964	0.0694139948629028	0.0283782835516859	0.000501268628294833	-0.107305892604095	0.0369864905001892	0.0363218275701780	0.0163095239394067	-0.0406458934414297	0.0708258339576741	-0.0738873449017470	0.0431208570643698	-0.0897574927722966	-0.0389949456932621	0.121290350448094	-0.0461785375656990	-0.131638181826838	-0.0527487997191122	0.0352155585004110	-0.0863827764150692	0.0674028163253455	0.0988323084047784	-0.00366478832209024	-0.0633342906811683	0.0497491007693366	0.109742358568203	0.117551248102013	-0.0406053282892286	-0.0258520039540014	0.0265168248249234	-0.0619655594447236	-0.00253809991132763	-0.0577727266972174	0.00100192997726945	0.0125371232074407	0.0743869816368124	0.0196536528217440	0.0426394741439488	0.0948792038395327	0.0989776113476199	-0.0492758091519500	-0.0669718635718111	0.0277801572528221	0.152826315447065	0.00589303160399893	-0.0471628869575459	0.0566129518343297	0.0403207994194440	-0.118833934474855	-0.0179928106390475	0.0128653837552988	0.0306640766083804	-0.0966013861325223	-0.0168555540828247	-0.0336318288496359	-0.0153205256633759	0.00110864583344238	0.0895596922611546	0.0153406684955800	-0.0133508079274156	0.149117248928163	0.0296617879325158	-0.00410668965211527	-0.0317316207324114	-0.00620368361883779	0.0501364496361638	-0.0177349921528699	-0.00828826518443199	-0.0262779201279693	0.0238875313945652	-0.0663629419280813	0.0228454217045734	0.00612097679148405	-0.0958063750397613	0.0844211639323628	-0.0200173004229914	0.00321363051431002	-0.0495357455915175	0.0779464747726857	0.0739354096709947	0.0257007909522332	-0.0569521502797333	-0.0484813163070512	0.0261441940906650	0.0208453319807027	0.0193710958203228	-0.0640612748878272	0.0526077736037406	-0.0649260381871767	0.0774380414974087	-0.00799286122848346	0.113830316207077	0.118647539462177	-0.0257842702450411	-0.0285918537027313	-0.00403777105345897	-0.0693287231645768	0.0669173888542587	-0.109309694887329	0.105269805793143	0.0490167534604957	0.00933799312024062	-0.0620810664823762	0.0396172019400807	0.0310471293663986	0.0160598452354221	0.0644555222688651	0.00209091687617467	-0.00187899994718170	-0.0494008026269774	-0.0246162508329416	0.0247275463067766	-0.107624364177180	-0.0355743822122456	-0.0598535938979993	-0.103448826308408	0.00935503398547768	-0.0385282195787056	-0.0491918860735751	-0.0903960998829530	0.0310889238936991	-0.0318907470655524	0.0222261378108724	-0.127142314054318	-0.0392463193976557	-0.0730142019933029	0.00134550269663704	0.0644302261721726	0.0138946189164095	-0.0602199397303645	-0.161527568779541	0.0203886147335435	-0.136308213763857	-0.00915531199813353	-0.0869762932656268	0.0791990706476356	0.0282409756810663	0.0498528343343952	0.0430307589214331	-0.0674865911491644	0.0747270813310147	0.0120010483923737	-0.00641877052031676	0.0526347876559607	-0.0498503058760720	0.0394942219655650	-0.102769261847128	0.0308612951421422	0.0471956831322497	-0.0468549833392818	-0.0391193467823300	-0.0215792178954662	-0.0418276700507325	-0.0140131483066278	-0.0708073250597303	-0.0228011051090935	-0.0425284207023820	0.0977321531959546	0.00770313678959683	0.0333993914137867	-0.120599989158282	-0.00118269802724239	-0.0310695079069033	-0.00906427861952316	0.0120611221762601	0.0520841795757799	4.30754381991326e-05	0.0719189962784451	-0.0373815546796889	0.0302238189541149	0.0825964920389798	0.102098453546749	-0.0111035315625653	-0.00223637539700863	0.00854479887170954	0.0845668470291302	-0.00256057133123927	-0.0262573695101611	-0.00898113592200083	-0.0206891392078453	-0.0279210682641092	0.0486240587139378	0.0414103340002356	0.00128711896602025	0.0558922918183795	0.0539365078501014	-0.00276612483855961	0.0348108479624669	0.0163616911974497	-0.182475266213005	0.00802354644092090	0.118644949916525	-0.0408456245388409	0.00804292250758070	0.0833915202116257	0.0372378511244698	0.0384130770881041	-0.0307264290012685	0.0408090815063734
0.0653059256282369	-0.0249238495775794	-0.0337157852488646	-0.0449209333123947	-0.0233955909158033	-0.0319017239285202	-0.00931987335099729	0.0265881137680689	-0.189958466369342	-0.0642693152880116	0.00814038276864277	-0.210621931571576	-0.0503887589034741	-0.0235330904294727	0.0297057795989337	0.0126372430666291	-0.0161128887182413	-0.0561185342487117	-0.0421998569406228	0.0880601001838313	0.0245199623409909	-0.0112590880007302	0.0330553033879130	-0.181225856168089	0.0209948439148085	-0.0123179262680898	-0.00113777260644806	-0.0290275461307910	-0.0703583308874738	-0.00358917853285167	-0.0464709355129868	0.0349084469161434	0.110149756596601	-0.0171994173685512	0.0378397079171524	-0.140846887650892	-0.124676147310287	-0.0705814471213857	0.00809393865578907	0.0149400426225167	0.0220685999305927	0.0876527413417060	0.0756002671238912	0.0255510984987254	0.144386576230391	-0.0738566966763005	0.0356421232134011	-0.0237131610245090	-0.0946989074577486	-0.0125504405290303	0.0444046586066545	-0.0222860814433925	0.0320499904547869	0.0117112327693113	-0.00935671362523729	0.0278676453761645	-0.0261839419675547	0.0572521069570158	0.0532812962966465	0.00691612124543055	0.0653416807956669	-0.0165545208535935	-0.0438503477879983	-0.103102542997935	-0.112374617201040	-0.0605903814886257	0.0949448814301146	-0.0399508131537433	-0.0154548947209800	-0.0298255220333687	-0.0593903868027523	-0.0156294319358955	-0.00245452847932522	-0.133875710048393	0.0713710899153361	0.0319330923874452	0.0533550962154293	-0.0302116667545663	-0.0534685379510565	0.0118849506109108	-0.0674380844155545	-0.0300261591496287	0.140529723169600	0.0281776164822749	0.105940455567108	0.0128333243930739	-0.0354461748334206	0.0420884399223744	0.0982652917873642	0.0604527434807611	-0.0191829986011887	-0.00236021986928352	-0.0429635963163526	-0.0461336976917909	0.0492554418891376	0.0255261602354926	0.00205938724595567	0.0730616443708723	-0.00998154088855745	0.0999816022313671	-0.0870406940521977	0.0284305558379761	-0.00466546000976877	0.0663555361300523	-0.0729115963228156	0.0116437742720853	-0.0382226848881874	0.0270016488314390	-0.106297760395775	0.0501414640841910	-0.0849435745814952	-0.00828711828167924	-0.115139179734808	0.0934300805455168	0.120052725214255	-0.103042295576360	0.0371717468079093	0.113950098394844	0.0329835701131954	0.0519229312400318	-0.0303501993779569	-0.00921858571189819	0.0715917080338499	-0.0972041839684716	-0.000742255592297819	-0.0236170843840269	-0.0189708897420556	-0.0264486505796277	-0.0372886261071982	0.0315854126287302	-0.0715860838536712	0.000840423087131278	0.0439471823580455	0.0221337091265764	0.0174355648891369	-0.0364281621168942	-0.0426629495254636	0.0187512302323672	-0.0363961578110280	0.0172402447713797	-0.0816943660771021	0.0455919933122287	0.0263791000836108	0.0248002562576506	0.0215279056832544	0.0333249881220905	-0.0236168825937924	0.0141088528137596	0.0561661200955172	-0.0193033289023459	-0.0319387413718072	-0.0960618628522186	-0.0275988309224017	0.0354450522562827	-0.0830206263986873	0.0489695657167164	0.102095309331381	-0.0606565142218320	0.0714907855322361	0.0838073800628151	-0.0148864088651989	0.0792078667471057	0.0896700739350882	-0.0407761341993640	-0.00976181573377901	0.00720861742964807	-0.0362206512265653	0.0167518859198103	-0.0277002344571885	0.00669537251721288	0.0696622298642019	0.0802164284894809	-0.0345136641832899	0.0104813556515755	-0.0550219342706015	0.0196548119411046	-0.0537435373309361	-0.111466200389352	0.115233643968375	0.125856501400077	0.102604690275585	-0.00641433722316391	-0.00116697371496103	0.00450085705010608	-0.0238090811049167	0.00309213601198668	0.137523201583398	-0.0439881705956065	0.125675906253494	-0.127006842025629	0.00358000659905454	-0.0451527207063651	0.0721939944979831	0.0408165100154385	-0.0450214582346550	0.0184200903892537	-0.131522704045563	-0.0636863208322153	0.0187520787242717	-0.00428758851492005	-0.0520263381457512	0.0297116985313059	0.0665712543991608	-0.0184892596318974	0.0203507624906663	-0.0946974330541083	0.0488361359175677	-0.0263372422225847	-0.00160214441110095	0.0364800065673554	-0.0766548355908448	-0.0369134201707253	0.00689626280083346	-0.0267974001347734	-0.0309388412851040	-0.0608704145532076	-0.110389474728983	0.0557383298118310	-0.0703833231295389	0.0294548820160492	0.0576116123571669	-0.0977426628409183	-0.0539573005829821	-0.00508828675490938	-0.0849075084780800	-0.00284376628685005	0.0816150417428274	-0.0793760689615539	0.0136605953116101	0.0415244292365082	0.0135506727817383	0.0888682689294820	-0.0294684678284391	0.128277432335903	0.0571502268596709	0.0175959092636700	-0.00660215031946603	0.0245059913561141	0.00573341858133543	0.0133155978255245	0.0408744783041274	-0.0216658592926105	-0.0192494162301900	-0.0254698937524762	0.00274612289238034	0.0838614238135628	-0.0401537432306439	-0.139736825355386	-0.0918609827363241	-0.0477283727217372	0.0648349492813418	-0.0856067142568791	0.0249341380662787	0.0838174667586652	0.0603646018015917	0.0424952348412067
0.0186342151327669	0.0914561637886568	-0.0302658329008803	-0.0238050960092686	-0.0870773581711411	0.00168583023088832	0.00404416324662127	-0.0243694901100917	-0.0620632159297606	-0.0221415213722696	0.0353586575783908	-0.0766769780475653	0.0660235519245662	0.0843726821346906	-0.0627747868293505	-0.0571425091496930	-0.00619490853081555	0.0677718258836808	-0.115924450925236	-0.102012413118105	0.00292416276764826	-0.126780613658374	-0.0292422851981142	-0.0553980378350884	-0.0934735942132537	-0.0376876989665186	0.0409217250034864	-0.0305506787714432	-0.0441545902285711	-0.0601371241874783	0.115174875306052	0.0662191369470602	-0.0568960211352365	-0.00899130214893187	0.0753163183289098	0.0109907556161950	-0.0897969616398767	-0.0412519447367711	0.00254919429912236	0.00942139891008771	-0.0721134720478087	0.000213765746127681	0.152485078652250	-0.0632273705263785	0.139705791073033	0.119799612991630	-0.0718382469116293	0.0515978549951803	-0.112929451750413	0.0580692660782715	0.0276310054233566	-0.0290575931988038	0.0797589156329844	0.0224046597364539	-0.00521892119619390	0.0249562756271734	0.0371099594989120	-0.0888840631397581	-0.00672155046747147	0.0189816489215243	-0.0818348485863634	0.112708309167587	0.0365299944866024	0.128058716370873	-0.00860513305843420	0.0592022160967255	0.0168622667106131	0.0726091945169087	-0.0247514857546585	-0.00339856195332721	-0.0924752085830733	-0.0916382037020531	0.106325767786400	-0.0436542195941439	0.0353360537887841	-0.0704311732592914	-0.0340597223855210	-0.0107204061447436	0.00419264516058448	-0.0542024227215660	-0.0558864605786581	0.0831869867917836	-0.0805898659883887	-0.0692338726306675	-0.00996655315177750	0.0277719094525022	-0.0203621783800933	-0.000107516479770522	-0.105618409427320	0.0582946823592087	-0.000595076892164907	0.0354398164813338	-0.0188934831384554	0.0752506578474381	0.0557857920394710	-0.0287467828888605	-0.0964224654545157	0.0115080446392388	-0.0609058071742642	-0.180638698807167	-0.00432657794468591	0.0651258822064043	0.0200196445981232	0.0432440728382370	0.0126626588782839	0.0238702074325623	-0.0514179762065701	-0.0477013121946702	0.0709814101203645	-0.115457626355058	0.0899310599286187	-0.0235176832866716	0.0198613340389387	-0.0837313625350178	0.0340161596812634	-0.0136844113517124	0.0200605444346649	0.0216731313143946	0.0552442266862590	0.0617221262717212	0.0111766865923558	-0.179369795538239	0.0427928130299017	0.130762417626556	-0.0374578784523722	-0.0703117364842710	-0.0386215479404905	-0.0193823830841760	0.0511103568316354	-0.0109065775115499	0.0273041223325114	-0.0638700984384211	0.0116733173609876	-0.0584079501883900	0.0603317859260026	-0.0678738008577520	0.0208224961663978	0.00619954690121521	-0.110365440023863	-0.0345476164342008	0.0840805489333687	0.0261102815833205	-0.00673731562552510	0.0862576151966934	0.0633578499005347	-0.0402480622421114	-0.0252001470828839	-0.0556970710678003	0.0112032893296016	-0.0151049949773372	-0.0280293872671226	-0.0193191981712926	0.0743568586467445	-0.121833597515105	-0.00454683311679106	-0.0554567832977925	0.0936183474535884	0.0470342310734723	-0.0149871616454898	-0.0311888955570269	0.0288355545580249	0.0841638885456017	0.0858665409406180	-0.0245642085628340	-0.0608455908832761	-0.0477518346101460	-0.0443088151367578	0.0550251823503466	-0.0103117313942401	-0.107708313520844	0.0399313707732196	0.102603440752960	0.0614616761669269	-0.00733903834954893	-0.0270593219278848	0.00712947400383330	-0.0268740593991905	0.0426606325889684	-0.0203950120103933	0.0126232483945096	-0.0349094525033473	-0.126339473061647	-0.0342409391496102	-0.0315390582504273	0.0720490797670769	0.00566067736147484	0.0511160590149124	0.0112309431567902	0.0247062418982063	0.0621597419882391	0.0340183776438418	0.0169363230558685	0.0366724795353071	0.0142729770830322	0.0167229336264487	-0.0688039791872354	-0.00453274730908189	0.0606773882389022	0.121733407892923	0.0162464178383123	0.00703144467606558	0.0619806155612400	-0.0127204235487053	-0.0364488869632420	-0.0577953538858476	0.0651213921654138	0.00860123229466295	-0.00757298259590529	-0.112048920265648	-0.0274913738537527	0.0202270149690828	0.00308217480816358	-0.109375399785631	-0.0523661178623010	0.0691585446190482	0.0862702414468952	0.0988434015315046	0.0200114281490082	-0.115578417552341	-0.119802244946472	0.0101180458669480	-0.0347528016207574	-0.0479181135958238	-0.106731156223607	0.0576538852091796	0.0968391731980166	0.0607068816946014	0.0842253073648041	-0.00155859415224676	0.0255760481344072	0.0711148575302108	-0.0178943083135258	0.0182687543588749	-0.00511074290260965	0.108295956142864	-0.100835482892178	-0.0331395532430256	0.0706720269963339	-0.000922511559703423	0.00500490144854817	0.0295278013425404	0.0554711600985452	-0.0208982710878931	0.0216820964770587	-0.110173109435399	0.0369465011032446	-0.115103488881518	-0.0616621631672060	0.0894225275977535	0.0273443875264369	-0.0865435579638842	0.0264113961449155	0.000855435020787710	0.00463457284599671	0.114679251568169	0.0135845527890341
-0.117256806725201	-0.0803572667169183	-0.0985835801248886	-0.0534245819168896	0.0856776385433828	-0.0946382305602568	-0.0488843282950474	0.0385700096493449	-0.178428729988325	0.0765393598290124	0.0469813135177368	0.120554192978364	0.0162853835198925	-0.0260771279838676	0.0351410101840356	0.00241529722797824	-0.0112073985225530	0.0221722830691343	0.0982770803707767	0.0381674043501142	0.137786433816790	0.0222683217825767	0.0482867841169481	0.0442881318255157	0.133078205846518	-0.00223765029855838	0.00414220651961859	0.00799911006170451	-0.0912198539715041	0.00966714817628384	0.0813453698138656	-0.0230067984059316	-0.0123538280231120	-0.0687788054279385	-0.0697807601103132	-0.0546467989198336	-0.0280555982023877	0.0247194256438527	0.0116923943528699	-0.0849748197614818	-0.0385533537392343	-0.0266949101433201	0.0230830796307931	0.0575241034610654	0.0365368712190406	0.123667823955363	0.0299456874411194	-0.0548769980239121	0.0163857480555394	-0.0181004749266379	-0.0288807535784244	-0.0704807314959795	0.0351847922435473	-0.0431463545101784	-0.0231271557748265	0.0445694682605565	-0.0965071319705003	0.0290726432875126	0.0555415221163221	-0.00174241807020392	-0.00926401307850386	0.0750233083770886	0.0658008924781089	-0.0131098788529685	0.0382449562901248	-0.104460773119039	-0.0634092412950687	-0.0127586378008798	0.0173886360500989	-0.0624907418387222	-0.0323073139344340	0.00484431815132922	-0.0350471925661973	0.00449905304302328	0.0130880425181007	-0.0297218825038116	-0.0130684099261613	0.0247683437422651	0.105863894869367	-0.122108231621083	0.0595282378479479	0.0641711433709344	-0.0160491079718401	0.0367976447130813	0.0426803622307582	0.0179058543259686	0.0137039723956663	0.0404298072667131	-0.0666772231282201	0.0230263223566452	-0.0508966520301715	-0.0323284772730092	-0.0355482626453637	-0.0205316752593116	0.00890905499212253	-0.0566217330067982	-0.0773227565809350	0.0466239493634001	0.0482114651791988	0.0682184265932621	0.0474367312157160	0.0418236658898475	-0.0878364578801970	0.0241630225267775	-0.137251977185694	0.00278954684459209	0.0192863376964917	-0.0630657646534165	0.101025295512272	0.0288350018918705	0.0480343913261008	0.00658198177883965	-0.0366461190550459	-0.126554183637051	0.0368030005390058	-0.0329947191015362	0.00382236000005656	0.000217878098389547	-0.139076084453600	-0.0167372320887508	0.0433077688531164	0.0376953762425330	0.0840946543755698	0.0210527112371792	0.0173228772613985	0.0368722873143592	-0.00210485904849547	0.0306721977572256	-0.0520228641475619	-0.00882828287096949	-0.0178382239810893	-0.0332215745206117	-0.161603109968144	0.111451510804553	0.0882349315981975	0.0551025336436163	-0.00424373520616665	0.0574582816624709	0.00592288576150649	0.126239473209644	0.0441828177878263	-0.0274754702340798	0.00700839639079386	-0.0532455895049528	0.129058352654529	0.0626133906333971	-0.0694678577322677	-0.0187150999593144	-0.0763667911156797	-0.0901658045456751	4.32854993520708e-06	-0.0554817812164759	-0.0556807804399646	-0.111973887697915	0.0553258910136948	-0.0562172291961883	-0.0878696794608310	0.00156480853951683	0.0203561504326878	0.0473494070289124	0.0717445357398093	0.0179555081440580	0.00995923440317953	-0.110140834930202	0.0166403697847147	-0.0121410080038534	0.0586892732287591	-0.0721608188101913	-0.0132865911485260	0.0111512650954182	-0.0424264641690104	-0.101625902455940	-0.0392480068638658	0.0262594772041378	0.0120478381215879	0.0240708084109239	-0.0832250622598741	0.0225598395190560	-0.0229432904110555	0.0120730006492053	0.0489964846899561	-0.0650590414547382	0.132943568668362	-0.00348411085049514	0.0972683078706756	0.149965114692788	0.0318955056096944	0.0286101088296378	0.0219164250327112	-0.0237832649587552	-0.0271568816426920	-0.0489125149527551	-0.00282569189236952	0.0916148330975108	-0.0861763566281482	-0.0395606063857308	-0.0590610387829897	-0.0470488638258076	0.0927168660328398	0.0739536733211874	-0.0417769297836935	0.00532032780810604	-0.0413354835933626	-0.0535938836447557	-0.0855201477694214	0.0938648421875372	0.0239206019633457	-0.0742150789924850	0.0379263981857755	-0.0385249876282239	-0.0401864332073396	-0.0626624160667040	0.0605427100469822	0.0367017121229102	0.0229855859128186	0.0155677535689939	0.0688354533668549	0.0636185017924932	0.0811010163943727	0.00554101981251342	-0.0916800707196347	0.0830675884943206	-0.0457597438394013	-0.0279262281989394	-0.0655353858058542	0.0478459123241131	-0.0186834617137137	-0.105540597894076	0.120253027771159	0.0130626859063525	-0.0416463589608787	-0.0233847236221593	-0.0858094581368664	-0.0892013985754429	0.145666156182876	0.0628150402771728	-0.0362665158443613	0.0601531353925092	0.103671406578815	-0.0699555242776465	-0.0516642961933232	-0.0322606568065966	0.0256836996897785	0.0211321246844606	0.0696026340319291	0.0929869591162837	0.0322048872530509	-0.00326964386668662	0.0359222030527239	0.110854395482094	-0.0973359871920914	0.0222500092010234	0.0485709765084547	0.113129837991943	-0.0970354212219389	0.0139150054846597
0.0699106340304386	0.0737197199241385	-0.0132785383248486	-0.00995865853881718	0.00646242649748345	-0.0426887656771915	0.0323153140782492	0.00141879108758532	-0.0506034241600993	0.105667833930097	-0.138203111693772	0.125628858907000	0.0966623119903599	-0.0376297911581139	0.00486337937845214	-0.104722859576333	-0.0123395440983514	-0.0247266225408682	0.0364302502138999	-0.0166936733556156	0.00725144513596102	-0.00215295788091110	0.0787271359921050	0.0563072654062468	-0.165665768155563	-0.0868031051940087	0.0579252828862396	-0.0159296066569112	0.0630730690087079	-0.0595183347868664	0.0123454989139192	-0.00185013071568653	0.116860758194928	0.0272250033390607	0.138597027858554	0.00389164138459003	-0.109298480157897	0.0282074868401746	-0.0179878842774121	-0.129203613372195	-0.00951842695877771	0.0446634554899963	-0.0150259298390192	0.0447503208504859	0.0667242484936871	0.0495059811471099	0.00313592380219732	0.0163391004639255	0.0231243097639256	0.00249080267184661	-0.0133690184174470	0.0129212225776295	0.0522535249738772	-0.0506031316305013	0.106383331348111	-0.0374977416610797	-0.00101984907160951	-0.0396736167944742	0.00432285495975080	0.00160909168296803	0.0589529660769536	-0.0265776940253863	-0.0476370735902427	-0.00141489759529034	-0.0546372307127340	-0.0256129462256795	-0.0311081714870663	-0.0163917069735140	-0.100270937343482	-0.000803158917374459	-0.0197210921225084	0.130158997730640	0.0629770240331744	-0.108966894474552	0.0167160761739764	-0.0745583717598616	-0.0499000424116050	-0.0138671396145231	0.0349623573638238	0.0278622961475724	0.0183871448771814	-0.0453127864287030	0.101342790383429	0.0722492079619748	0.00252971071635873	0.0464693770450814	0.0268931519896282	0.0140592811633646	0.0258367860593895	0.0144570767301885	0.0370674400902386	0.0620375007556402	0.0875311267854103	0.0603609968651989	-0.0765815444785883	0.0334382043720794	-0.0838493304244272	-0.0832149231414550	0.0468014196196537	0.0340216538370338	0.0275507569477116	-0.0911545760702799	-0.0950048828235243	-0.0640412770625701	-0.0116025785811219	0.0421468851238326	0.0725967640476585	0.0170224036813900	-0.00240441795932016	-0.0324562356271350	-0.0695044895498605	0.0451767547359812	0.101777499639533	-0.0104249714160348	0.0647472532264820	0.0689490635621447	0.0286299037003722	-0.0994493281893811	-0.0113299975890253	0.0259214600451771	0.0637351223708092	-0.0912451005941194	-0.0463330581513180	0.0479826839862744	-0.0739732364494390	-0.105559739542989	0.0124087316597243	-0.0234081403856312	0.0448355655395759	0.0107926263609354	0.0615042719184749	0.0103201460101584	-0.117987859304795	0.00346711240614144	-0.0330277626304172	0.0205167748544177	-0.0785984322669329	0.117913357271484	-0.0127038491834116	0.00439112736278086	0.0217858709766920	0.106896409420642	-0.0383331617807522	-0.00538769035838387	-0.0645499461278190	-0.105732901224408	0.131373571151340	-0.0463075909925948	-0.0499924611740641	-0.0300994000692469	0.0250092016751138	-0.114276850178757	-0.0728450304369200	-0.000111565236158588	-0.0220215387207400	0.0622296485182742	0.0792082004496810	0.0902081669077196	0.0449517120174126	0.0152123333298979	-0.0493854708783850	-0.110008216950893	-0.0798342553462699	0.0500385079393936	-0.0496756920224452	0.0668137233318954	-0.0380324784988818	0.130309399442495	-0.0787076485125499	0.0517729403521927	0.0339080258289306	-0.0208668002482709	-0.141770923975486	0.00159619417108450	-0.100771442290318	-0.00862962933058075	0.00875889697553408	0.0355810442653373	-0.00850720172379104	0.0203528945159869	0.0647883219928915	-0.00852146041917932	-0.101243585244141	-0.0664775548369745	-0.0175871777287917	0.103398829940382	-0.0725806384609017	0.0723964639114861	0.0538029296245062	-0.0142464859627588	-0.0490678653816466	-0.0142328862775210	0.0192314126147621	0.0192807817259121	-0.00344167072793160	-0.0441659506471097	0.0337989157794111	0.0105030100488032	0.0295399488176531	0.103750820023169	-0.0150929671651867	-0.0778434222091768	-0.0376308465932060	0.0321288768057688	-0.0760477750895775	0.0467671288871638	-0.0901136954389654	-0.122522564836019	0.00702435741671110	0.0876822891644581	-0.0680659710106835	0.0915803693370077	-0.0442846440311497	0.00607117419338470	-0.0444837636408879	-0.0631338585979085	0.0787313995631783	-0.00432873150619333	0.0617952897030637	-0.132453999791552	-0.0812785456202252	-0.0544051881319154	-0.0613077725478797	0.0614701430435801	-0.0260119109585162	0.0518250887812206	0.0457865516885741	-0.0160832591952849	-0.0539467099618050	-0.0933991108536109	-0.0997408654090430	-0.0597530988850945	-0.0603170217878970	0.106924847184805	-0.0633470151551141	0.136208900096230	0.0646362421829117	-0.0576403663957253	-0.0475559694158910	0.0610271691394992	0.0405717179466335	-0.00646545447715130	0.0783572002327816	0.0588413342685423	0.0391550785095641	0.0329472390654332	-0.0450525808741096	0.0322444558835366	-0.0726470600283655	0.0307570167579422	0.0190164701688204	-0.116893107163385	-0.0893492769806002	0.0270015967862014	0.0381837306310858	-0.0567494486904379
-0.0454946546739973	-0.0751277087516657	-0.106853434908287	0.0542323470909304	-0.00218219411019011	0.0563202272163605	0.0412285883234776	-0.115081405911453	0.0269324083042727	-0.0682988715257436	0.0426053960136062	-0.0600805839434772	0.00180182523697537	0.0253445545593285	-0.104283941977257	-0.0955056503392625	0.0870123141301158	0.00793701114661086	0.0219210330511211	0.156609159287483	0.0220125032421108	-0.000582248588178725	0.0138762528637963	0.0541461187333872	0.00294516992449190	-0.0129013613180982	-0.0771786656648866	-0.0371980671084566	0.0242674607699109	-0.103474033358179	0.0384354722487790	0.0710619004650460	-0.0372489089058402	-0.0314398344664766	0.0584159678222695	-0.0382715111943273	0.0495571275051872	-0.130790012648864	-0.0435784406666090	0.0176518258098272	-0.0420458203880912	0.0285745820190856	0.143808994317088	0.0733762414149691	0.0347249527298145	0.0441436474030841	0.0443918858581448	0.0364605332464828	-0.116584758760457	0.0298165580181867	0.0433874656313878	0.0833665687040522	-0.0408557004238766	0.0338313515773473	-0.0467100390409503	-0.191803270002845	0.144777767335749	-0.0840519551040384	0.0185331449021924	0.0104062290797797	-0.0336769663711832	0.0435014726000300	0.0252952185253671	0.00406686154763601	0.0941603076158903	-0.134839483634169	0.0392422418797683	-0.0438051021867734	0.0476386817629012	-0.120419166986254	0.0149828021425876	0.00690245721526598	0.00887760140507131	-0.0371852029641621	0.156552865600455	0.0497541529806532	0.0282656308471824	-0.0115639331272177	0.109611609525516	-0.00315902636960783	0.0828287977199841	-0.0512715109520925	0.0882305589207656	-0.0446556631743060	0.0357124740333289	0.0577211178137565	-0.0251756908304681	-0.0209255176770510	-0.0637636672955707	-0.0448454908567350	0.0483311909730927	0.0853767067625752	-0.0472772628936334	-0.0572123104522809	-0.133897512731180	0.0531765670859595	0.0210478947262582	0.0233677470443284	-0.0267128966752812	0.0131568255783775	0.0425681224221313	-0.0899352864510159	-0.00301717004986093	-0.0190264480822090	0.124266644879742	0.0485846248525411	-0.0374093260893862	-0.0624541136671799	-0.0991649356839979	0.00119986757727064	0.190741345466268	0.0154391705040885	0.102770100483823	0.00391382580575794	-0.147902966305880	0.0967641664331421	0.0301610048340009	0.0648439827819173	-0.0708256436400189	0.0755200276623967	-0.0455088817456062	-0.0308858871521635	0.0152038820674935	0.0304965710702876	-0.00294674529415902	0.0233073057023661	-0.00929502211618006	0.00413174417146381	-0.0191924335605870	0.0362678597112717	0.0312688079829813	-0.0201687112738599	-0.0387689805021243	0.0755588327260762	-0.111982647782455	0.102333070834601	-0.0307285054887489	-0.0958519560309760	0.0645032748409087	0.0270619900191747	0.0513707864602956	-0.0461608181460831	0.00147432521416656	-0.110775895396125	0.0425032169578584	0.0382427337160828	0.0354820368744422	0.0995221685736598	0.0484277807085312	-0.0214715885578950	-0.0707071749938993	-0.0482302781207119	-0.0880716357696667	-0.0199313733419155	-0.0462978198075296	0.0885962204548252	0.0181850263382612	-0.00799471867722802	0.0617435430402502	-0.0698245964080752	-0.000294009613188491	0.00952118087689957	0.0301508261225169	-0.0309793042593200	-0.0227786336474553	-0.0196243417518530	-0.0601268349395039	0.0898886799897853	0.0630901517365504	0.00257554908516200	0.00385796053199611	0.00134075381916946	0.101312997086644	0.0529610518979217	-0.0247807776333655	-0.0363564636047201	-0.142577417738150	0.0338550001194341	0.00296242716347345	0.0349689212258471	0.0486195312339149	0.00242172737688853	-0.0790541122062653	-0.000949499444004220	-0.0121799614101613	-0.0949715219817791	-0.0651102992985090	0.0556187214070661	0.0353947134550019	-0.124059649614089	0.0299454308149011	0.00305622976487561	0.0308595453832951	-0.0866559891641595	0.0228588251542786	-0.0121738307601305	0.0148664073282259	0.0861805431805683	-0.0523424829737973	0.0685744729594088	-0.0676873262260185	0.0653138405835321	0.0391591598155397	-0.0308125706616685	0.0480697521590019	-0.0393205102368079	-0.0534898876549513	-0.0593048353356292	0.0196324241274256	-0.0322119913413362	-0.0375810019842867	0.0293911181657317	0.172057980636989	0.0739239159398403	0.103558632790731	-0.0129705092139804	0.0323653742789542	0.0410866574492286	0.0232854044260875	0.0550217135183401	-0.0699342356568528	-0.0141539759663764	-0.0860358445300200	0.0183431071456519	0.00511421094566643	-0.102093007246988	-0.0816503952809467	0.0524641688681241	0.00783203419736965	0.0166625369042699	-0.0209491721486813	0.00320605287741359	0.0285041898508532	-0.0729661864785823	-0.0584695813253811	0.0638262125922364	-0.0438820846529954	0.00312983920559191	-0.0534848125453285	-0.0894142116857507	0.0633309209950834	-0.0584395329805870	-0.0684226017835274	-0.0338326218463711	-0.0197939945889972	0.0277439120995297	-0.0131744865639691	0.0459474443034130	0.0682607883370394	-0.0211114436384073	-0.00656181974484412	7.80623157113317e-05	-0.00489538482862034	0.0474411542368543	0.00461588552020482	-0.0583981006879912
-0.0491084735371606	0.000394024002334419	0.0486620165626345	0.00681270871976956	0.0354750042207594	-0.0945481506001523	0.0795693880132705	0.0460541438329242	-0.0413705582263225	-0.0121781068736950	0.0569656602442062	-0.0534606967412485	0.0211224659948918	0.0461850688179720	-0.0687996539007051	0.0192182226404663	-0.0345022387110757	0.0390247589823951	-0.0527279060464336	-0.115485210918525	-0.0298255613135092	0.00797652630851962	-0.00330447935608819	-0.0346939924258733	-0.0312361820796480	-0.0516219239733685	0.00778628744108826	0.0783381278329878	0.00451253805030323	0.0565412034237761	0.00648218085248153	0.0108190878295435	0.0626516905788835	0.0677942801065147	0.00385670767569681	0.119733770058574	0.0318437612092825	-0.0262218018023793	-0.0601470666487256	-0.0106120181319511	0.0345730780155948	-0.0648862674502247	-0.0635276267948712	-0.0319165443371898	-0.0426365846120269	-0.0445158507133751	-0.0670201480676236	0.0549493957233305	-0.0651538574955018	-0.0707501938367697	0.0214495831812302	-0.00786423552556036	-0.0549133499936230	-0.00252563885968668	0.0147326046074109	-0.0252326716758973	0.0138856845021742	0.0671612795276942	0.0760365973076064	0.138581515695479	-0.0369036225128758	-0.0142692026943117	0.0111328494810017	-0.0664702996733412	0.0188391328882007	0.00974269968127292	0.00222565297795711	-0.121816978011131	0.0579361984482666	0.0108795578676187	-0.0349069717920514	0.0116965947367548	0.0403507041876052	-0.0395261834547224	0.0744148661543547	0.0321082033617003	-0.0139261835745564	-0.0425675421228471	0.00766424611032356	-0.00590162331414532	0.0302799499727896	0.0916959335338883	-0.0114850540347932	-0.0449563023227297	-0.00968232548245730	-0.0484890189386713	0.0469590138418193	0.0115724579842916	0.0152334651114520	-0.0426327935739419	0.0788795233398403	-0.0383642577002454	-0.0859714684230918	-0.184842537881521	0.0508447995842814	-0.0395859724619529	-0.0824394639975651	0.00320973237921223	0.0834421162902629	-0.0278252764555383	0.0750025189860607	0.0544243974776211	-0.0486680627122150	-0.0603072636670665	-0.0920160234830917	-0.0755142484291560	0.146687626527161	0.0646707245137300	0.0659093874308827	0.0972913964719110	0.156767133111773	-0.0261848690176618	0.0664507921724084	0.0176618261028174	-0.0364800319802688	0.0666783473745191	0.0174821289573298	-0.0266363527769157	0.0972979843739541	-0.0139067812647575	-0.0874341111935434	-0.0407652712708446	0.0305818876915421	-0.0599663592057192	0.00453191333420496	0.0379365082390081	-0.0551772616318750	-0.0521437380392079	0.135554466946240	-0.0948423283342239	-0.00491858685116676	0.00769088216351076	-0.0771544716089335	-0.0565604177339503	-0.0150414536340307	0.0741198359606334	0.0299317812958571	0.0820252687758498	0.00226728000219620	0.0222073175930611	-0.108485629852745	-0.0859864093167111	-0.0660117195363553	-0.141427921736717	-0.0352740536772881	0.130486212341503	0.102751526842788	-0.0429726980377125	0.0724135783089889	-0.134525718541310	-0.0258112574505665	-0.0297316244738109	-0.189784384915560	0.0279953789459910	-0.0755520180408661	-0.0574462691806093	0.0326407074605492	0.0657443571986979	-0.0508601395255419	-0.0153959628251674	-0.0461678731244986	0.0292200265230376	-0.0330819776227309	-0.108782286877027	-0.00446309361181813	-0.0208197637324692	0.0797459993516578	0.00760943959547051	-0.0448892155418059	-0.0519117148474201	-0.00139261441751524	-0.0352603243573071	-0.0338776009039143	-0.0120473858132586	-0.0273286021805140	0.117519683191218	0.0137418784005725	-0.0572263484801003	0.0215328448943585	0.0538912360365644	0.00724938973774124	-0.0344102462507725	0.0673084131650030	0.00715789892954545	-0.0333900340252333	-0.0148076872233529	-0.0461386125032364	-0.0395353935264329	0.106100279346672	0.121986781101018	0.0474832695849173	-0.0322750064498217	-0.0946591683391989	-0.0238125706010819	0.0800842838744548	0.0447283769656824	-0.0910485888455823	-0.0312815005664594	0.0265343196185075	0.0201510003353055	-0.0199400300033355	-0.00533305618849478	0.00816959930734123	0.0564195414723552	0.0205434365381816	-0.0659127890692497	0.102997583874762	-0.0624428456630925	0.0205837522115825	-0.0759048236033959	0.0738129132289253	0.0537207804836864	0.0257013404001828	0.117649800793821	-0.0284468230630360	-0.00528076441556250	0.0218697126691533	0.00800128075545765	-0.0308082579634662	-0.133026606694192	-0.0104243025114027	-0.0571115484033492	0.108222431734020	-0.0593408546539456	0.0777805692292894	0.0824870740453317	0.0438139283288898	-0.0144835456093446	0.0229988461630204	0.0824038543792936	-0.127426954089965	-0.0639197317370853	0.157017284872426	0.0217456095492604	-0.101321622487089	0.0142981360240114	-0.0578290345061551	0.0290522260657301	-0.0215680849871909	-0.0206258226511147	-0.0336690592952504	0.111873195953187	0.0103604520097693	-0.149697417387055	0.00615800050189430	0.0179944016141190	0.0418969081375823	-0.101472121591424	-0.00231659043351648	-0.0661251759390719	-0.0382320893667401	-0.00383726702747219	-0.0274947049921944	-0.000603780549773702	0.100687222077711	-0.101592708625119
-0.156378449483065	-0.0670522507122311	0.101500457891444	-0.0487133422119409	-0.0583224981856616	0.0585775625195845	0.166181447720143	-0.0915568741219712	-0.0542070117861556	-0.0383141327778135	-0.0119925523043597	0.0267407899439051	-0.0151388337012845	-0.0485666651788931	0.00494155310566508	0.0151487179918061	0.0269137524705280	-0.0414730326642708	-0.0386464844769382	-0.00871619090610025	-0.0408342840345628	0.118494298072496	0.0749308581699332	-0.123741932851299	-0.0793397454002775	-0.0466244732371041	-0.0507959251459200	-0.0123368199075029	0.0360910916312566	0.0666461185844023	0.0661915649265297	-0.0952764158235829	-0.146406874240291	0.0701326745861931	-0.0452153596340840	0.00161025906869501	0.0530680329445462	0.00225645826318791	-0.117843457681391	0.0288140318875571	-0.0505024913974898	-0.0457509929404035	-0.0322305807700693	0.121686938098242	0.0199337678441285	0.0137118376297834	0.0358641103565808	-0.118381161820162	-0.0229392344918264	0.0392784692491114	-0.0944541471755572	0.0296581293503915	0.0625445386687905	0.0738359130321057	-0.0226180655343116	0.0377181424537458	0.109075862453871	-0.0233043548532989	-0.0220565697402335	-0.0257124798082327	0.0568674874072614	-0.00479862340529917	-0.0232355093804684	0.140163541624584	0.0362869539296789	0.0539215305317559	-0.0113532021326113	-0.0524961695269676	0.0269618195210726	0.00599471611367889	0.0990077804586002	0.0410892842465096	-0.0102763621491481	0.0520649323541054	0.0255183298052345	0.00815072518232672	0.145576794136438	0.0559546402710754	0.0226996385777942	0.0550294398241996	-0.0214689878516907	0.00985587121187517	0.0309598704336276	-0.0151121839890870	-0.0750885394440554	-0.0337042025208040	0.0982751998178283	0.0389257960580267	-0.153520963610301	-0.0800095853025512	0.0196913694343445	0.0106945830706597	0.0239446385817527	-0.0580359056941962	0.0301006726350298	-0.00584040092485464	0.0734562138367531	0.00291103673691631	0.0582663827603228	0.0906713010426931	-0.0581502366453273	0.0159249969250294	0.0167470247939136	0.00709561304121516	-0.0676850830932282	-0.0644078871856820	-0.103850696298279	-0.0236480009262893	0.0471213481514268	0.0674179485204128	-0.126003600567895	-0.101177134084612	-0.0271812900665316	-0.0752991185597030	0.0442810104253016	0.00207632510955372	0.0147360485868105	-0.0350360127144740	-0.0590017184815919	0.0313102650926392	0.101890044302455	-0.0857318823405402	-0.0998036698916445	-0.0282939950408013	-0.0240139948239001	-0.0186855045778160	0.0826887404074423	0.0487533627402185	-0.00860026567090504	0.00552375231668491	-0.123464444128820	-0.00313796936901237	0.0256546237976183	-0.0964510360330834	0.0800050003646162	0.0294706041308233	0.0867120177993120	0.0572914909169450	0.0136151782222388	0.0135011353973553	0.0137665089267212	0.0693957348601951	-0.00955217391357598	0.0376447019450466	0.0431767564406875	0.0597281295114143	0.0587214620650128	0.0352700440639067	0.0953780354356483	-0.0203601427474002	0.0945184590295439	-0.0906093792912644	-0.0252938045617763	-0.0377205240100363	0.0329203857615406	0.0176401746796372	-0.0730459472460489	0.0513101507916297	-0.0759171602902307	0.0366619124742974	-0.0251883817559897	0.0772837412365480	0.0269268199135776	-0.137058795965461	-0.0473819482671025	0.0571753532362110	0.0445640069498954	0.0154574392655487	-0.0564688786776058	0.00927870170387148	0.0142906868915130	0.0780326041501358	-0.0391184436491713	-0.0256370880417387	0.0966382962607015	0.0451136601128445	-0.0443244283494189	0.0765953778527135	0.0501714739423594	-0.121358253726824	0.129365299715952	0.00100833666421800	-0.0724960606409470	0.00104252546669429	0.0188857692739970	-0.00911170833991977	-0.0155298695468943	-0.0897873489397385	-0.00296264726715837	-0.0239275732221722	-0.124936410778475	-0.0462163929094237	0.0233334748644643	-0.00832742934176267	-0.0539963717670737	0.0151729196045746	0.0125404722438444	0.00616118338980192	-0.0543540181192882	-0.00161460771242013	0.0295095898487524	0.0287721665398895	0.0158978008595775	-0.00330958578360384	0.0714824211993935	-0.112061604976160	-0.0951478063933378	-0.0114428082484067	-0.0357232153524165	-0.0390067010888097	0.0141141999642781	0.0556940500647678	-0.0159934470334811	0.00677199552813140	-0.0716118554345421	0.134229268039916	-0.0471382506596005	0.0521348228277164	-0.0413716060114293	-0.0786036609548474	0.0391499575129622	0.0205842545640187	-0.0763889247008269	0.0345092442620689	0.0331037229113774	0.106989474464245	-0.126333916533451	0.0227120967408362	-0.145815955242663	-0.0323214685504105	-0.0217124490395557	0.0239546205398177	0.0446706834085905	0.0293707433066956	0.0382574794168238	0.00972869698689261	-0.0708831551210820	0.0194612337073782	-0.0533331398481927	-0.0398320084483954	-0.00813733168147349	-0.0409590187274895	-0.0676172779161342	-0.0156361985598407	0.0782484502567640	0.0704575354432703	-0.0667650332579515	0.0929110653498898	0.0310919904429877	0.0538733856266717	-0.0311642129966497	-0.145319458153566	0.0101189586309487	0.0454137521109510	0.105721572996687	0.0274539234188655
0.0443149796136536	0.0106320582982412	-0.0299631166187995	0.119511537747385	-0.0788572288266842	-0.0444987572319479	-0.0900474430837957	-0.0125573157135670	0.211732343223033	-0.0576271179828570	0.0220561008535712	0.0757112603720166	-0.188194016521065	-0.0594073999718258	-0.0497620916736169	-0.0480411335943669	0.0205478658236431	0.0113372989020071	-0.107583615993654	0.0223487859086741	0.0502026906025848	0.00458259823071546	0.121842191048601	-0.0494876843507686	0.0443417285547402	0.0550892813899417	0.0447885683928324	-0.0948591458115799	-0.116708860531837	0.0249100606399495	-0.0669532264624668	-0.0221590196768452	-0.0246117366370591	-0.0367749760293651	-0.0495348694622671	-0.0578780773188493	-0.0239005696266685	0.0826648101952832	0.0324302328856590	-0.0621518822612459	-0.00853177892457857	0.0207657372787357	-0.0328697517391044	0.0516307712502116	0.0347804514009769	-0.119365017618738	-0.0742035545077079	-0.00220195705464882	0.00532149619927447	0.0391589727653520	0.0731935298814476	-0.0192568489615757	0.00304634504514495	0.0258416212548908	-0.00825890222696011	0.0171918451827346	0.0620356981710392	-0.00425516542892068	-0.0275572850295189	0.0692975723408004	0.0161551666522630	0.00342454659682496	-0.0285105645943428	0.0479934441762807	-0.0612230864161618	-0.0722983190246854	0.0356919410726098	-0.0649097059195794	0.0605049041965897	0.0244107714192582	0.00919723214145744	0.0287749517807641	-0.143787546466417	0.0321759522734259	0.0564476839042800	0.0174241250938997	0.00439440876667682	0.0351353852118749	-0.00560185873677392	0.0405511016907362	0.0725660434758682	0.177847740956527	-0.0675187078657021	0.00320615095684221	-0.00149919748400152	-0.0476302403052505	0.0486897943679693	-0.0393655268518497	-0.0247893641319607	-0.0615080077434210	0.0676085494432766	-0.0240433499074063	0.0233725378315489	0.0553590691215644	-0.119411336158075	0.0740089592488372	-0.0747729048380000	-0.0148856207763029	0.0642894785638695	-0.0899899237016809	0.00929064186857821	-0.0497208307933945	0.0588649898420595	0.0280849055556663	-0.0359131875394310	0.0423613982950124	-0.00549121706610039	-0.0278673242023931	0.0206636356710971	-0.0806415064626226	-0.0458611240342683	-0.0527682062207171	-1.13856715389495e-05	-0.132600347732532	-0.0556374961516455	-0.101984597853872	-0.0720555205052061	0.106511905364478	0.0363298606484078	-0.00138352187249743	0.0195389159561524	-0.0904037187795407	0.0382639878078504	-0.0387618194634093	0.142959846216966	-0.0666163359299336	0.128251384898878	0.0646103091889443	0.0442958066409734	0.00919469020438163	-0.0192511505282941	0.0314545317434584	-0.0331767304576790	0.153926597729611	-0.0532670383660475	-0.0129488652655524	-0.0429029413060606	0.0778854956821062	0.0297546656658657	0.0397067597108394	-0.118684453798204	0.110095261044653	-0.00472337160079128	0.0806993240192760	-0.0295717320245944	0.0626246043199192	-0.0734164037880028	-0.0689217174469045	-0.117425195272844	0.0337549855849427	0.0196715586023371	-0.116272781387475	0.111620377471709	-0.00671682503192968	-0.0801674277500563	0.0383258650550214	-0.00473831040378775	-0.0120413191401205	-0.0122462025722282	-0.0271714806533846	-0.0401709213525276	-0.0288480679944671	0.0767781460433476	-0.0161546118003946	0.0373549511926627	0.00632515319691587	-0.0695777923244979	0.0180848936520790	0.0309073751609280	0.0474443630699893	0.111561534666645	-0.0127569549605365	0.0168307593225018	-0.0152839578149404	0.0431738792156715	0.122226148226025	-0.0712795434409897	0.0214472181687436	-0.111734437810899	-0.00358501109101098	-0.0655353581330115	-0.0287102281209061	-0.0348252492483053	0.00175291022145261	0.0429099669607846	0.0298123378989555	0.0405953216738967	0.112655210224499	0.0728423152659003	0.0156525806942993	0.127912715273878	0.00704220692201784	-0.0314899868019025	-0.0276179834145720	-0.0402950040001215	0.106572640437356	-0.0522161086107807	-0.0371029136898581	0.0797226096942911	0.0996306187889414	0.0403325839340211	0.00716970840696798	-0.0446115593255751	0.117609953727401	-0.0539751419955105	0.00219870791262316	0.00678583843183951	-0.0507591685213343	-0.100171976405150	-0.0205653944504983	-0.0736109993200362	-0.0765026956073200	0.0101266859750577	-0.0317752268999267	-0.0215585765175946	0.0164667600627764	-0.0749948710990593	-0.000839047706497565	-0.0291764014293650	-0.0747917128218256	0.0584866472355105	-0.0539594948726818	-0.0260211577076150	0.0351764087466304	0.0505088568768259	-0.00733474896754642	0.0148867156431999	-0.0144059711025041	-0.0218852548556812	-0.0600532680536673	-0.0686485786793556	0.0142523484880096	0.0385315299874030	0.0120929544422108	-0.0693777379761341	0.0903369012509779	-0.0858574057603755	-0.0295314891848714	-0.0663097901687681	0.0384585309833466	-0.138952724587019	0.0189482161918051	-0.0891591529217570	-0.0449039082344964	0.0954357665519573	-0.0203560923011116	0.0831642707952782	0.0313549059383629	0.0502146447706085	-0.00832200587465726	-0.00529574880902237	0.0657164700642162	0.0317646511562140	-0.0558866925976373	0.0125087517577174	-0.0826506597933763
0.0408574506124391	-0.0284092139601840	-0.0657776262876942	-0.0151927950124942	0.0502823240274154	0.00796675120022643	-0.0325388339034709	-0.0333494014884060	0.0538606229208203	0.0958921123601750	-0.00323621335546102	0.0850692465621599	0.000457224671218312	0.0354793212163319	0.0544205476424977	-0.0240569587415853	0.140959100952558	0.0328736967406227	-0.0945804421197312	-0.108250354882010	0.0470802329170481	0.0155094538688499	-0.0607872217010597	-0.0233520354016894	-0.0194587472857942	-0.178989518303066	0.0520161568004661	-0.0435655033260341	-0.0958438717099468	0.0435376921892183	0.0332635887589753	-0.0599860660558829	0.0702362571399801	-0.0480298096595678	-0.0391174995749123	-0.00596424998261805	0.0549517376618509	0.0652985637539915	0.00683572676691589	0.0464010502692280	0.0213026106323000	0.0544345617537408	0.0834566832205628	0.0568125661617030	-0.0268136314392704	0.0157459666965927	0.0673005128798308	-0.0830661949704055	0.0248221307649857	-0.0461818836284689	-0.0735216201106216	-0.0323692671913785	-0.0799168501090368	-0.110165074011856	0.00611476955750543	-0.0722176665017572	-0.0230871947589693	-0.106940052846536	-0.0245504521315568	-0.0830350481959191	0.00754000980635332	-0.00208143875158681	0.0550826556884184	-0.0199420203998174	-0.0248021870491673	0.0454395625931178	-0.0274878284946823	0.0391732680956387	0.0399522130814579	0.00147212401500862	-0.0548243930942235	0.0725633739767525	0.0786803860600359	-0.0182706437312491	-0.0632492106017466	0.0621239407190910	0.0717076730355615	-0.0662296965273479	0.0301716677360295	0.0452489279177596	-0.0323796201854830	-0.0375893242750373	0.122122922166168	-0.0432209823118302	0.0853887660433868	-0.105281993507697	-0.0146341947147277	-0.106363945644602	0.0244264412530984	-0.0128577845834454	0.0627077033940729	-0.0153555491036074	-0.0904119153501973	-0.00264194539149378	0.0288204194271260	-0.0203906322869121	0.000744583864409459	0.0421296073574699	0.0353058431065424	-0.0393065223982613	0.0796235661330027	0.119562444007726	-0.0873178443163123	-0.00449036928735035	-0.0336808283330812	-0.0812093118826064	-0.144096941282869	0.00459139680128145	0.00957011463959794	-0.117302293482699	0.00331671040463162	-0.107360607104817	-0.00196455328666919	0.0344484587091918	-0.00754698692321888	-0.0787051601635140	0.0580185177524707	0.132571361533229	-0.0203293769860820	-0.0743345203423238	0.0493767550209460	-0.0737438975546502	0.0506807536407743	0.0486005898474881	0.00276010444163182	0.0464899517287741	0.0805833206957524	0.0527823954552886	0.00374947911110340	0.0170292951772328	-0.000672314450192186	-0.00221354208401960	0.0243253852285529	-0.0784713192788512	-0.0585453531549210	-0.0100603373925508	-0.0470818647661025	0.144422890873627	0.0829573274920829	-0.153314699344028	-0.0723321335748693	-0.0446366520999239	-0.0317223735157694	-0.0716860282028236	-0.0937949320344173	-0.0665062249714261	-0.0854916490859206	0.0325385272416215	0.00329378378263802	-0.00901504095270417	0.0504496418916590	-0.0325775896781489	-0.0102384161371876	-0.101465834454760	0.00175718314873729	0.108121073981806	-0.0322246243103180	-0.00249434391854951	0.0940065384166581	0.0962242569493911	-0.0491704378936759	-0.0598628552053389	0.00895822279840670	0.00721901263636298	-0.0491821296305029	0.0873342986924204	-4.96599647863676e-06	0.0382907740064477	0.0352422207185213	0.123030021610351	-0.0738670498061950	-0.0578624895209800	-0.0145134370474283	0.0412133453469244	0.0579450571529213	0.0454843863216429	0.0404794079641351	-0.0516215480815677	0.0900148188538534	0.0134434236459053	-0.0851768505677326	-0.0255349246438827	0.140438715799311	0.0343530511424764	-0.00425763947597295	0.0320669197257911	0.0569627095049571	0.0806134946673088	-0.0330489120108289	-0.0444912688900034	-0.0444125075955363	-0.0468065614269839	-0.0336602925831400	-0.0197432322706215	-0.0529753400091391	0.0281722101057748	-0.0214919628546868	0.0829915000691937	0.0753282983519552	-0.0118793253613756	0.00292730258465605	0.0338151847085059	-0.0343566993321258	0.0660302179835161	0.100263755940782	0.0625039097363047	-0.119609328725061	0.0804317167271527	0.0479570866536994	0.0195363118305267	-0.00414182916353810	0.00792128203108157	-0.0321337923276804	0.120068350024561	0.0364446314859553	-0.126614244396185	0.0467075759828825	0.0245513315339464	-0.104111900816700	0.0563602965313825	-0.0773217458884989	0.0857307893802162	-0.0516097526954136	0.0236176737546103	0.0631582708137031	0.0206201482317056	0.0295531213534797	0.0380913226621833	-0.0346760915323439	0.0852672098784997	0.185214590159297	-0.0837022463514461	0.0786980329540650	0.0819911768436311	0.000274784762853137	0.00666645671007158	-0.0158224605358570	0.0175424469167934	-0.0320717010957432	-0.123394966840444	-0.0581274231076749	0.0496482313105799	0.000936252167987815	-0.0916505521669918	-0.0860221396338815	-0.0342560113210962	0.00815728892613272	0.0258813939122014	0.0607284183243434	-0.0883670315333024	0.0277180369276744	-0.0835169302497025	-0.00748859328880631	-0.0229354585787905	0.00824969261159998	-0.0163664514101042
0.0844008330266086	0.114113421411870	0.0378450527914349	-0.0141883066321066	-0.00217394496796794	0.000912538460042781	0.0457926093530163	-0.0865103040467305	-0.0119886651285542	0.0921371015607600	-0.0644215619923802	0.00273873376887142	0.0457396258192059	-0.0892025009129974	0.0422611874780963	0.0904971180596112	0.0162621828341467	-0.0553462871359817	0.0955656103075489	0.155241074331212	0.0544209361161313	0.0360000135698446	-0.0713248953310476	-0.00561267647961553	0.185370990952611	0.0257526099258238	-0.0627929723000022	0.00248712859092813	-0.104636329003573	-0.0277229962870436	0.00266047705468535	-0.00303197303876480	-0.00131526829294368	-0.00750557128945783	-0.00741316402723918	0.101283224704981	0.0576270982941116	-0.0198479306164094	0.0293459451308789	0.0372340108127711	-0.0792005659407838	0.000369905992278203	0.0628056862366560	0.0534079967175999	0.0330776429293185	0.0215917274062102	0.0105852653060593	0.0161889906012138	-0.0811100925589946	0.0508625794944391	0.0138636465964448	-0.0455861808896154	-0.0797466396725218	-0.0581224194247584	-0.0850379660478972	0.0378664293340323	-0.0711924684978973	-0.00852624473697727	0.0458491551967428	-0.00856555424737222	0.0402597284443621	-0.0245820681964171	-0.000448182902364992	0.120863687501698	-0.0126495636024167	-0.0114619340857224	-0.0221732496356435	-0.132610263601341	-0.111652964643744	-0.0425006289417014	-0.00306811847365074	0.0225395492948922	0.00637476731462694	0.155176188471863	-0.107271366567460	-0.0297056037142557	-0.0339912341485176	-0.0528309862879808	0.0665355815819393	-0.00342140361996494	-0.00830433111756204	0.0710060153768044	-0.128462558963908	0.115811761243876	-0.104461810163464	-0.0769771236750933	-0.0102381981830521	0.0444369442863779	0.0989248877241329	0.0116795023802722	-0.0275300853958351	-0.108063027055267	-0.109996979469940	-0.0370608088046236	0.0198433192717416	0.0626581501418245	0.0172990950976438	-0.0370309911253135	0.0172044995320071	-0.0635334625730564	-0.00329086650577388	0.0512028561761575	-0.000521654172157140	-0.0225784275949639	0.0487465995128453	0.0523283626173435	0.0138733626783897	-0.0648048643562676	0.0138188843587467	-0.0476282421384329	-0.113740530085839	0.00644356918921389	0.0544639267824734	0.0455343130097822	0.0859704287723027	0.0290189000434116	-0.0330195298754362	-0.0165815420119376	0.162882461759339	-0.0598204062330837	0.0999241913952695	-0.0486501224296369	-0.0248901479530804	-0.100919113178684	0.0433526509396094	0.0156726388023152	0.0337492327254245	-0.0275946376932914	0.0614205140773153	-0.0316321441025902	0.0255041784960686	-0.126367813630493	0.0384118416936172	0.0750026507659976	-0.0570692597515751	0.0210267636394167	-0.0377789973177628	0.00178678681704639	0.00475915479595967	-0.0153028072269892	-0.0273024225134085	-0.0156006679575591	0.0624789128423730	-0.00838102887166755	0.0279969364064039	-0.0413058222307977	0.137332659975080	0.0562579948627917	-0.0186509049706541	0.00608327130867418	-0.0341075685950370	0.0496028698843335	-0.0464636215430643	0.0293184574975046	-0.0933316431389602	0.0271480276238955	0.0644856975796018	0.000197892880039802	-0.0349838020064154	-0.0252205779754101	-0.0170397314752281	0.0394926276897830	-0.0159707847866731	0.0853621394069249	2.47114309841114e-06	0.0662805485226726	0.0730619594529584	0.101655134033724	0.0141104097859398	-0.00556023376706153	-0.0101419456408576	-0.0177913971247208	-0.00246765617685991	-0.0258936180850843	-0.0478754547428659	0.0434049253535148	0.0308540225425933	0.103602830932257	0.0467539165441296	-0.0306373285719524	0.104203223543448	0.0292520185345615	0.0609288574706725	0.00377580047708128	0.00841433427726120	0.0307896816754823	0.0227009203774955	0.109742886429198	0.0519018225824963	0.0366688343992963	0.0856336575281744	-0.0216826246187259	0.0224490055126003	-0.106218191544503	0.0161476225540608	-0.00207860817245318	0.0660192493518710	0.0564560288675848	0.209621571454617	-0.0792810610489759	-0.0983531660718109	-0.0330232977718259	0.0869532100483997	0.0258312622183967	-0.0461120380472368	-0.0220203281763541	0.0113452591211156	0.0306542147930011	-0.0199012993865910	-0.0986589252039850	-0.121470714023683	0.119796767277389	0.0629659455563665	-0.0645320046019991	-0.0610671058270697	0.0462444745985793	-0.0484916767807707	-0.0466731678206055	-0.0383802306604702	0.0172240650553523	0.0506471808039483	0.115892995358403	-0.0268862939385831	-0.0113512245278095	-0.0170990217474804	-0.0229724302663404	-0.0676683542039153	-0.0912234237103910	0.0197280532732134	0.101741990584313	-0.0285549982717046	-0.00391181381872873	0.0458243611208748	-0.000519744920564010	0.111627325813298	-0.0217940974173827	-0.0456339366277088	0.0350422372120571	-0.0818232641503925	-0.0498742369910494	0.118452649882951	-0.0203826867488886	-0.0178851434573645	-0.0538088609825616	-0.0630181253321221	-0.0177867501200734	-0.168086157166913	0.0930129903179480	-0.00971364105162795	-0.0591986263388913	0.00231316955078625	0.00499585947823820	-0.0338022817389089	0.0788954424231894	-0.0136896187342694	-0.0864129541910309
-0.0781962657639082	-0.0326141397509561	-0.0822406670319910	-0.0354138201494427	-0.00753012852580391	0.0845652249822711	-0.0311384822793812	0.0369975863701313	-0.0491277800601297	0.0555392338063164	-0.0614835641925228	0.0719625363021777	-0.0252557811795421	0.0914010254706870	-0.181180208426342	-0.0347451352372377	-0.0556349385956209	0.00575220192598173	0.0527482545891857	-0.0894311804972661	0.0757717075198286	0.0334830434223243	-0.130431867324064	0.00545682214612535	-0.0260614795412939	0.0237712316191286	-0.0874181486029268	-0.0468047379694377	-0.147357962780717	0.0417476059749913	0.0275133582112598	0.0596957785162067	-0.0352803911327858	0.105337146578304	0.169089087884516	0.0169392625069744	-0.0419546183973727	0.0635114446545978	-0.0106112142289059	-0.0257578328755760	0.0617688257951848	0.0367761782456193	-0.0250390231502541	0.107660975613022	-0.0700561314127281	0.0930626082298252	0.0159697669991287	-0.0100578779026810	-0.0165843511839906	-0.0509133033398857	0.00788806973123862	0.0179741609431564	0.0232339282796571	-0.0455025748934478	-0.0615237593140899	0.0191778392007442	-0.0183790186070778	0.165518876453447	0.0330914435123135	0.0124453296747251	0.0658470417435444	-0.0127902759588905	-0.0462604612467164	0.00609267471068552	0.0370685560920249	0.0300208750024962	-0.100227859253266	0.0559596138007929	0.0153380846697441	0.0246398427828972	0.0155351616925903	0.109500530082405	0.0813948837026690	-0.0529881303212795	-0.0591550505295277	0.0285120656123451	-0.146607994828307	0.0597575670575774	0.0327564527122032	-0.0477309268761805	0.000613367695044831	-0.0232774660136232	0.0414386700998722	-0.0565000243194538	0.0899833955011734	-0.0283215250727787	0.106266907537428	-0.0779984024397201	0.0352956740267890	-0.0607460788955324	0.0978079589345080	-0.0111253842978235	0.0339926950422772	-0.0233088215384256	0.0433028289458249	-0.0611122273852057	0.0773113766469177	0.0702159648035150	-0.0648267998384101	-0.0537913997984046	-0.0406910142511714	0.00310826680305062	0.0383152146246383	-0.0162698178970737	-0.0448214571303443	-0.0399398985738464	-0.0105371991680246	-0.0367242625294662	0.0155030686875938	0.0419671207944956	0.0418496961725324	0.0438070061988880	0.0499003253234227	-0.0629999690176164	-0.114553187248562	0.0306856556547909	-0.122090588314113	-0.0180595278487152	0.00234136303252563	0.0593127726267711	0.0344359975230083	-0.100594007688209	-0.0715031908124101	-0.0455310842581084	0.0111207695374821	-0.0183230616479636	0.00198332859443574	0.0723348438980458	0.0383247750205371	0.0595254643746277	-0.0189189266394326	0.00819057637104904	0.0695279420375761	0.0755629667735047	-0.0356500575690030	-0.0109941744321504	0.0215074558334878	-0.0194672652139547	0.0882974221709185	-0.0185676729356290	0.103953307769265	0.000443765647063076	0.0546633638771056	0.139867893538981	-0.00956118286098284	-0.00403229526149292	0.0607072469316055	0.0215600550048520	0.0395406244742444	-0.0188069996418797	-0.000410968551624811	0.110163607627716	-0.0117677002388049	-0.0672899871360044	-0.117849334643469	0.100330687958364	0.0553656724935489	0.0323332352135097	-0.0309491563721274	0.0789795334369597	-0.116876428851179	0.0220375764637943	0.0341664736059431	0.0439839520269322	-0.204552889934958	0.0209102905387383	-0.0312868639828480	-0.117834176014318	0.00824331959414667	-0.0108150032294262	-0.0541369220435384	0.105267669656166	0.0111144150761627	-0.0101469203100472	-0.0332090360182057	0.0218738893950734	-0.0310300461258399	0.00417658249923450	0.0667725222802217	-0.0901990779703420	0.0224971026540753	-0.105989178046508	0.0380053483762255	-0.0182366538066350	0.0308582017146766	-0.00712637642773436	-0.0152064357017910	0.00278116631101991	-0.0811298413933998	0.00844756102162283	0.00831303777330410	0.0277900606536758	0.0336711377057354	-0.00717469790061197	0.0280310816880695	0.113821165246966	0.0262156541255642	-0.0716747582876584	0.111696307840499	0.0129239423652899	-0.0413123027591705	0.0115866099545653	0.0412238064102761	-0.121006719378645	-0.0294906724814834	-0.0857416970793758	0.0292334805561833	-0.00893920577587162	-0.0548232202477114	0.0542933153915172	0.0856697371374975	-0.000956561727799271	0.0778703562745242	0.0540428832935364	0.0487660157801308	-0.0279523997129353	-0.130554555011172	-0.0926540701779301	-0.0141865572922211	0.0126648097867770	0.106630566213555	-0.0311260925312598	0.0366450213770576	0.149096676486403	0.0456278349213510	-0.102003874468837	0.0956780367610056	-0.118489154871017	0.0518675228552172	0.0205394343212775	0.0370456312088840	0.0604723668975332	-0.101660505378897	-0.0314102658349957	0.0699716780919270	0.0705459388829709	0.0206483242221037	0.0214884408753176	-0.0690746681702519	0.0450804726039707	-0.0214111429838865	0.0826741540505453	-0.0136073500028825	0.0122238230336160	0.0809036406287914	-0.00454989742941595	0.0923497557629681	-0.0499093584335686	-0.0239951729599928	-0.0178767343471698	-0.00406422709777491	0.0178710995064430	-0.0579305991947349	-0.00365725720158388	-0.0131965150799940	0.0378770418478086
-0.105974590464445	-0.0463722023277750	0.0167371806846601	0.0364803040250763	-0.0607092365427108	-0.0843680334188526	0.0669832319555150	-0.108812621822828	-0.0601664700976794	0.0699192546116675	-0.0793919289688080	0.00934643632493789	0.00539169674911742	-0.114802812082115	-0.0294972091566703	0.0850012383012772	0.0742261205447490	-0.0363074720580070	0.0438858536975421	0.0393205332586559	-0.0763466929321640	0.000484665616141254	-0.0106520169496612	0.0463840223109545	0.119742518602807	0.0321959071120080	0.0428847830702735	0.0259512856717833	0.0468033046846523	0.00555792497187102	0.0314814971200585	0.0538291632844146	-0.0158609403759076	-0.0875854337265629	-0.00976492277210373	-0.00134111770351321	-0.00971005000449334	-0.0450467434193970	0.0231877552231676	-0.0630097933572369	-0.159317184779984	0.0593795494322736	-0.0815426957646239	0.0589310434284241	-0.0366793563858904	-0.0583422615809968	0.125559652073881	-0.0438714103783502	0.0392006523271236	-0.0449611592199229	0.0690728902141320	0.0540808176160979	0.0118273705902648	0.0629443415254590	0.0404432915222374	0.00471196100325435	-0.00447337556639053	0.106762525950201	-0.0311823472263246	-0.0650656078288744	-0.0100990689822908	-0.0605683037122366	0.0177902575831453	-0.0493674738906195	-0.0739899474608750	-0.0141529879998243	0.0349189488869773	-0.0923417310811658	-0.00485820289392737	-0.0619154838850777	0.0222494726924944	-0.00754105312007649	0.0389872315692921	-0.0881694215903502	0.0197786044101501	-0.134450852698314	0.00418541917949875	-0.196265927800290	0.180589094602349	-0.0222197917928902	-0.0884127869620165	0.0426091888941681	-0.0535338334338210	-0.0554596115687601	-0.0369011785804378	-0.101025344344961	-0.0338723868721591	-0.0631281669992694	0.0210773536934677	-0.0815228468333807	-0.0292973033697150	-0.0904188582643692	0.00560961758042297	0.0503077021283083	0.00354884857330808	0.0127067952412894	0.0111894433788872	-0.120787672099726	0.0637654815259837	0.0720912660053204	0.0753124252211068	0.121545405812608	0.166595072345189	-0.00899360488709705	0.0499179352184053	-0.103456529933178	0.0254064529710325	-0.108080957169134	-0.0599238410331219	-0.00601958549156443	0.0320915521856127	0.0396078464385079	-0.00758076553429192	-0.103122408895413	-0.0251133348774510	-0.0385122855820777	0.0388303410205673	0.0140572502617434	-0.0638296284678342	0.0232992483826466	0.00674123254695637	0.00972500879895191	-0.132601935621626	0.0440674437772631	-0.0445990264926631	0.0655045621342723	-0.0484370967722969	0.0352402087984779	-0.0302138395078816	-0.0387165692948964	-0.0203387041973311	0.00537675826609469	-0.0581619242922473	0.0379776319883125	-0.0641539837750979	-0.0377783870638558	-0.0159416415204273	-0.0295186364312809	-0.0273407572984858	-0.0143457857664924	0.0762600089423571	-0.00483262440182057	0.0744960085127295	0.0917004754861293	0.0760478415771364	0.0966275434440407	-0.0197333673205388	-0.111420120818191	0.0322608177306888	0.0226219214908692	0.0143581594962015	0.0581861847831773	0.00699410851675836	-0.0198973798556377	0.0460766643312272	0.134720546013147	0.00946099970167050	-0.0508508836779497	0.0876681756373155	0.0571226550506727	0.00385141990325086	-0.0295289036945408	0.0678900857425822	0.0103825017581135	-0.0958862422657474	-0.113010528394615	-0.0881198367641935	-0.0288556142016690	-0.0433490582076807	-0.00993759957725024	0.0761166720729572	-0.00674925872264528	0.0644969218245365	-0.0471823836675100	0.0184861517330834	-0.0188775732198608	0.117749805917790	-0.0733837035996157	0.0946833753684007	-0.00486167126965336	0.0272379190019051	-0.0589744460783849	0.00180370170162074	0.0330180743206827	-0.0924580906421037	-0.0193859625078764	0.0457570556031094	0.0116595330770631	0.0567864215192133	-0.00639143094929752	0.0798047236996263	0.0478830425845481	-0.0512269289413673	0.129897889422914	0.0438202908564510	-0.129407565216094	0.0171868797647938	0.0258714051324941	0.0236015533113851	0.0644199027192568	-0.0419914721953800	0.000548772757203490	0.0831091517529810	0.0535550163335055	-0.0203935820589916	-0.0208674144953895	0.0770436416115994	0.0297483745990451	-0.0223008240812519	0.0685065811506351	0.0435961857644195	-0.0109696226767239	-0.0400357696023564	0.0675155587708200	-0.0855298935112469	0.0537213435719875	0.0701152353641343	-0.0227369851945045	-0.0384476207832278	0.0348608455126209	-0.0376638128469166	-0.00820875089031562	0.0445393607711626	-0.0223655307624982	0.0857020817931341	0.0919681683208544	0.0691945815335945	0.0794941508859882	0.0321402608487938	-0.0149576455039875	0.0137837799167788	-0.0126365628434573	0.0206268802076973	0.0806513735480026	-0.0844659105006529	0.0459415865646547	0.0426301241174159	-0.0160019431414535	-0.0359817394753391	0.0631819392023644	-0.0642553322105636	0.0731675810453266	-0.00675830059492245	0.0720091301547971	-0.138191901261910	0.0894609771331527	0.0839549805476019	0.130333873142478	0.0247520199568293	-0.00250426578607654	0.0739879318129378	0.0259898672135736	0.0196867378047265	-0.0250415279899106	0.0731320358478041	0.00162101023671992
-0.00996525071425789	-0.0263899455834869	0.0513772204086800	0.0195147308294782	0.0417359210105406	-0.118634644533083	-0.104299262820615	0.0371481830033882	0.0993591099511722	-0.0405422769450863	-0.107548613043136	-0.0321047791971659	-0.0865629216658333	0.144311333285964	0.0408289165646819	0.0164542413411530	-0.0966079926378273	0.0199403528592811	0.0784858071370653	-0.0150472388381462	-0.0709893774461569	0.0544517628511484	-0.00537180619473648	0.103156361586357	0.0528520966892054	0.00965902596404078	0.0595039181445069	0.0469919621726047	0.0347886163822269	-0.0354365114007061	0.0691552584062036	-0.0622408331561428	0.0362217078835772	-0.0929070997185827	0.0657237993745392	0.0349341184853987	-0.0314171554446263	-0.0989507175437017	-0.112258362620853	-0.0232744068616386	-0.121816571306764	0.0406294615978547	-0.0450851064758246	-0.114462475588369	0.0480128470632278	0.0535671272862716	0.0204119556491848	0.0152891549990942	-0.0373131185174374	-0.0450985521691822	-0.0244228665031308	0.0962510539532114	-0.0567536260565775	0.0703225462144173	-0.0216958971626711	0.0412931434465626	-0.0288817477337733	-0.159262894381197	-0.0549915165671806	-0.0371428505916007	0.0636189919836547	-0.0163854609073957	-0.00902803650417427	-0.0276232372057828	-0.107178358705742	0.0737370965372678	0.0645236262579878	0.133759787134604	0.0216981428666099	-0.00336794519879917	0.0809772556329158	0.0185478917730381	0.0224679104408486	-0.0130264950646256	-0.0191257196821693	-0.0312309076786359	0.0322210436282263	0.0398301296484877	0.00110782295061784	-0.0340933293976779	-0.0316679942793237	0.0330148358514243	-0.00912734469623880	-0.0456712358596210	-0.0595671631272585	-0.0355612793730855	0.0645016105683033	0.0375445000557203	-0.0335194985475606	0.0509269576864956	0.0585808540543959	0.0871211087535783	-0.0341526219162457	-0.0507472990554232	0.0880271948416829	0.0286088352616116	-0.0900928981780692	0.110960533107146	0.0595146745579365	0.130936183895577	-0.0251495654137156	-0.0364295499577123	0.0136642102091177	0.0286398610865349	-0.153318504881100	-0.125861299998490	-0.0130825149492664	0.0530518743237232	-0.0684762631747269	0.0160338784358146	-0.0341385997809547	0.0328944032426073	-0.0139002749325983	-3.09453093020759e-05	-0.0608494105912014	-0.0511127519626623	-0.0439859189750015	0.0374814990902572	-0.125515397073930	-0.0377252171599898	0.0899119324664853	0.0345419004562777	0.0931208623124365	-0.0981820847141874	-0.0152201430611128	-0.0850228554347200	0.0238888453534985	0.0362248386268926	-0.0961887976842888	0.0223504048352456	0.199932395855444	-0.0802030666137292	0.0668611600066673	-0.0370212352344561	-0.0333495080213286	-0.0887213108031054	0.00204347237441315	0.0129880396455016	0.0445818502624989	-0.0446345672136880	0.0395618412765623	-0.0750788752109365	0.144530589540332	-0.0480944568454562	-0.0136603982646249	0.0681132615945889	0.0987127511102136	-0.0109837903609313	-0.0170748679550122	0.132989147130314	-0.00753083303134863	-0.0400123750108644	-0.0235476588009487	-0.0870657837127862	-0.0383019747746002	-0.0867042346292824	0.0364666662016469	-0.107351255656031	-0.0114623064863076	-0.0180811180176240	0.104664869660698	0.0371334726360344	0.0754273563662714	0.0137284964727501	-0.128461025894926	0.0995733330598946	0.0865938879188018	0.0226473451011495	0.0342355248590857	0.0224987364846773	-0.0217629764873203	0.0614575880572713	-0.0117801688396909	-0.00901841047447536	-0.134601709926126	0.00708112148261913	-0.0757590577767759	0.0735888123247448	-0.0978914762679351	0.00858124236531853	0.0477747178049474	-0.0900025055860755	0.0260277742558011	0.0709381773705557	-0.0475436915599523	0.00322410461490861	-0.0552922157867315	-0.0444879273848819	-0.0135990471158690	-0.0373985340752788	-0.0285934946369069	0.0336181150664862	-0.0935920696312487	0.0658446060004988	0.0156674983531267	-0.0647762280127690	-0.0825759705878332	-0.00918773152711575	0.0623159447100882	0.0443635507670203	-0.0436517984020928	-0.00533010009439577	-0.0394827966167418	-0.0671955044235556	-0.0474655410597649	-0.0189024922252494	-0.00872442187868877	0.0753806629735752	-0.0140064050180605	-0.0633685372185236	-0.0752208682617267	-0.0114355439586244	0.0392093404859219	-0.0707912470583044	0.0328581378806854	0.00569876129513537	-0.0178151737141116	-0.0659826763139125	-0.0580985469217715	-0.0254489404256379	0.0544713158135346	0.0140672124166560	0.0982482342117415	0.0652310065847279	0.0238259269771604	0.0151560097094832	-0.0839489180666863	0.0357314675537830	0.0135028892544454	-0.0331805999996440	-0.0740841625624096	-0.0782142751047299	-0.0317851247099930	0.0331977421103038	-0.0672077244597611	0.0653263521891440	-0.00712766008396185	-0.0628014536207356	-0.00971011771563379	-0.0353178619258378	0.0500490663264237	0.000987498723812773	-0.0726708270099150	-0.00897279065653427	-0.0561401066810124	-0.109127383019901	0.0350962467887557	-0.0145772117396135	0.0865685335365781	-0.0363286080731709	0.0432477353178609	-0.0257026866313502	0.0234664188567133	-0.0269577666729677	0.0185518536189205	-0.104127416316987
