-0.0541200977038808	0.0384513044033539	-0.000161901412452929	0.0201120475637083	-0.0627471717929602	0.0448852703178593	0.00375107398936222	0.0181874074857303	0.0619222362169093	-0.0165609341667233	0.00493303836415017	0.00775670531075404	-0.0836035547314631	-0.00143830026943406	0.0445861654729381	0.0526126552622021	0.0152211491777038	-0.0570208377659403	-0.0755758110307848	0.0709672252019095	-0.0941129111711720	0.0211664638908767	0.0266282127319162	0.112859786719734	0.0752680264617736	0.0246755799564625	-0.0457742069389764	-0.0795146665618031	0.00625647521201842	-0.0452304543165533	0.00588937945704008	0.00591834951971324	-0.0894118937632875	0.0519075963573029	0.0382851710983961	0.0815241231952069	0.0259658032760060	-0.0722227764071457	0.0510883794122020	0.119079879684711	-0.0235426405078373	0.0163860847371248	-0.00593258562759622	0.00687405565823818	0.0690169995275957	-0.100898863721905	-0.0697086442764781	0.0734013937133681	0.0456378392475451	0.0515201051308782	-0.0109371164670860	0.00713845962120632	-0.0688014936374235	0.0587690460075521	-0.0847228528672708	-0.0277293097622139	-0.0121387988869322	-0.0450562917985640	0.0817477746967423	-0.00290069295362925	0.0225287501383566	-0.0711763294242585	-0.0756997119517334	0.0459335825463922	0.0384962819264481	0.0329265264620735	0.0589935255708247	-0.0204302996621729	-0.0339868143765208	-0.136581650977027	-0.0427845453258565	0.0481425554288234	0.0600544139612921	0.0227577519926827	0.0402789331514891	-0.0284582673082009	-0.117724184723667	0.104081819558152	0.0897299674281220	-0.00187197896964782	-0.0530462121203947	-0.0840716961170834	0.0164071881936185	-0.0178645683828253	-0.170135050622431	0.0358314652424491	0.0325669450678032	0.0324190815509287	0.0415910312722883	0.0247294542242647	-0.0685144550917826	0.0383131221869042	0.105119234199355	0.00359958481785625	-0.0154897849936356	-0.00439378385816145	0.0206290667116873	0.0259134535994405	0.0125637820024843	0.0412535974726049	0.0550880962300465	0.0402160744269299	0.130267963375019	0.00107314704817850	0.0404142383740649	0.0754703949226297	-0.0548652555072687	0.144582388038455	-0.0175546780946776	-0.0367922967772378	0.0833433788181663	0.0681858502298709	-0.0336963554535179	-0.120526191255719	-0.0632057138512099	-0.00299769388198676	0.0189938501039000	0.0475263112865704	0.0609332228706380	0.0290167622186040	0.00314880253674762	-0.0263806075099654	0.0452999386945289	-0.0326457638446923	-0.105230145882573	-0.0431809769652449	-0.0697466656454165	-0.0306647477645758	0.0477473415393606	-0.139700818401559	0.0271258452520728	0.0464541227442633	-0.0217220220470116	0.0206859753184085	-0.0891823576492020	-0.107968766350242	-0.0105235418340624	0.0272225571360282	0.00390592721469722	0.0480248412727810	0.135731236310459	-0.0798374050872763	0.0355241959044618	-0.107751176618565	-0.0431949336210818	0.0293306658259222	0.00705973610055599	-0.0562221138559529	-0.0440107537290763	-0.0422993175630477	-0.0767666021183030	-0.0365555489027732	-0.0260723582904994	0.0283375538641093	0.102553609116088	0.00176419113144333	-0.0333820219153783	-0.109488522021657	0.0764769327644325	0.116784593202448	0.112194489022521	0.0555148842004969	0.129935546361742	0.130314053062325	-0.0961055797264394	-0.0747412531048169	0.0241890590327874	-0.0473224361336318	-0.0755307964502853	0.0536292933751424	-0.0728968032180538	-0.00720096883410919	-0.0316194212825739	0.0154780638112127	0.0400602838393541	-0.0595304197693855	0.0314656863084716	-0.130613030329585	-0.0102220367744352	0.149222553466446	0.00630700395771582	0.00665125462127372	0.0801114738933706	0.0884023907325273	0.0534003857536965	-0.0357538827802559	0.0418658864994239	-0.00519649737595869	0.0542977052609014	-0.0500353363977796	0.0578344318957969	-0.0379993800345030	-0.120055122993160	0.0638225730381662	-0.0303130270025669	0.0408329744705567	0.119585115649616	-0.0131705633327764	0.0513468587898651	0.0532068948848744	0.0610549856439953	-0.0448606486152612	0.0380549439685667	0.00259805102511254	-0.00842026668472717	0.0218488948328488	0.0788130016624139	-0.0314771883032434	0.0941528600905290	0.0256624973200084	0.0122526699301982	0.0332666800885215	0.0623754912800179	-0.163383769188228	-0.00440894068365080	-0.0591194235197795	0.0338264566153022	-0.0993314728732705	-0.0546826386684391	0.0323873293071747	0.0609519794972444	0.0159575741882421	0.0712599026701351	-0.0662008017703346	-0.0503548841272188	0.0338066987407488	-0.0379698815210534	0.143093267129298	0.0828232940978845	0.0166509584874379	-0.0791111186574621	0.0754140646984196	-0.0679077233864569	0.00994885747930060	-0.0139727368012656	-0.0637499019168535	-0.0165480730641493	-0.0315928877683923	0.0361205272462255	0.0703063924181733	0.0122562547867667	0.0807544029716220	-0.0559883054500492	-0.114686195985491	0.0701238510278872	-0.0692675834430583	-0.000376824381698147	0.0253588760568680	0.0773760076417018	0.0269795009155465	0.0527656355789752	-0.0241053274941058	-0.0345859501530470	-0.0757790671169299	0.0675311068033317	0.0777856378284820
0.00183896757010259	-0.0340939028910530	-0.0196952284053877	0.0758072911471773	-0.00726903501888562	0.0219233307525933	-0.0999511067722075	-0.0358233562920203	-0.0107677697617245	-0.0717632730592934	0.0624328442531204	0.0492243873085898	-0.0306972072911331	-0.0687743027397487	-0.0189177279390729	-0.0972241553576082	-0.00561340970014958	0.0114231481601479	0.00288665386619735	-0.0385018158278343	0.0111196293498936	0.0504921429485036	0.0216570511827257	-0.0758435648554625	-0.0459738287979444	-0.118712154120423	-0.104934819718295	-0.0802358600491404	-0.00669410683385649	-0.0539984019918210	-0.0571470709025251	-0.0365698257699966	0.0209134613459931	0.0586437235664934	0.0603740421931709	-0.0902052876992196	-0.00960841603979084	0.0655176800800871	-0.00139781881530453	-0.00312133240285937	0.0889433835265370	-0.00829436780165332	-0.00434566900095384	0.122824775608146	-0.0174636761987585	-0.125256938531102	0.0640397499779407	0.0273414128226895	0.0379096504020864	-0.00447795977545654	0.0643838519006755	0.0853915465744144	0.0216508430695953	-0.0176634542594682	-0.0694348486994343	-0.160313712168279	-0.0543808688522062	0.0900827777271740	0.0350494979647672	0.0919296522077971	-0.0508930258242210	-0.0808486726973551	-0.0762565460420028	0.0746151719228649	-0.0286557307661296	-0.173567985407038	0.0230948851444131	-0.0804805914839025	0.0312217350017784	-0.00267156024485887	-0.0139419777853413	-0.0173334706547248	-0.100737318328503	-0.0304819642353825	0.0622761412752521	0.0228868671463798	-0.0582914527694042	0.119409267620107	0.0275038988771885	0.0827920830775133	0.0529483770121082	0.00622872716007321	0.0307279231377865	0.112264457855093	0.0316789792361815	0.0249903811750429	-0.0202177968538382	-0.0627034894750747	-0.0161850345951352	0.0339734725985017	0.0852671134125753	-0.00721852709409059	0.0165196293217296	-0.186643574835697	-0.0472156372362865	-0.00805483152497548	0.0305390589375720	-0.00471586745063785	0.0914803617168894	0.0360242695517676	0.00753369726622761	-0.0611210740050742	-0.0184947973860754	0.00330261088838906	0.0480793288960274	0.0425961597045986	-0.136732490601517	-0.00419075698800293	0.0112360644727575	0.0838563969160788	0.107430216219948	-0.110452311827688	-0.0207707137623253	0.00283707419667447	-0.0329689024465300	-0.0614820528154376	-0.0503517397573291	0.00261664331855642	0.0746547189580831	0.121190906728779	0.00544038605946897	-0.0422615835552318	-0.0626906660693258	0.0413852659840564	-0.0413979459024844	-0.136519626125483	-0.0138673120844820	0.106787334124884	0.0254473406291751	0.0356149333561135	-0.0468825595950844	0.0404541630947948	0.00395658610795713	-0.0580442898378939	-0.0758782643865621	0.0120987748632372	0.116432376494058	0.00554498397596086	-0.0374058444307508	-0.119499782389376	-0.0912817367659913	0.0792710862777425	0.0484867078013647	-0.0250076256267168	0.0432892912493341	-0.0240177839144374	0.0733563627091858	0.00812457695840231	0.0416827149196837	-0.0337074014269948	-0.0205223668352529	-0.0562579755101412	0.0922245338147430	-0.00425478940056467	-0.0959512377313139	-0.0287895969244991	0.0760145363685559	0.0310622955882980	0.0655216649443677	0.108863841634906	-0.0250522526700690	-0.0250121361525613	-0.0433282236075291	0.0641769715881728	0.110980454717369	0.0108396614693607	-0.0408716285317033	-0.00911109809207980	-0.0680794500220978	0.0675115004175777	0.0576243802137283	-0.0387641677494289	0.0924143700332166	0.00725501768494873	0.0532988039896055	-0.120757578372726	-0.101898364534929	-0.0269174197218757	-0.0970192035881291	0.0636500608726905	-0.0978011373154500	0.0699872664656381	0.0698208329620089	-0.0300899663601247	0.0463964814159798	0.0114336488546468	-0.00500241210773336	-0.0728602109856191	0.0781374321258588	0.0911539729898570	-0.00684956531987613	-0.0208552051512916	-0.0624540203118917	0.0214273615873620	-0.0818912674506807	0.0352011540651314	-0.0612772699384809	0.0469321782067638	0.0459524443218042	-0.124212269918101	0.0430373313606044	-0.0466936206173414	-0.0704538762011397	-0.0426428822383206	0.0440067686131021	0.0953529661433611	-0.0424396081598926	0.0394660655973931	-0.0248226949522332	0.0352713604532801	0.0748083377435106	0.00381053723498865	-0.0559378178670842	0.0222327539310504	0.00894803796593779	0.0382721425548093	-0.0458362457797153	-0.0210310457459822	0.116743581436093	0.102589847687917	0.0846059819116930	-0.0697646879470152	-0.0260458137605443	-0.0225458654201494	0.109127063817336	-0.0279764953660576	0.0909895250714816	-0.0529292685629597	-0.0147950840427428	-0.0748330200704072	-0.0872296234349929	-0.00123959044515201	0.00732076751422445	0.130768047446832	0.0462075008991102	0.0589533656898495	0.0554252999795564	-0.00269671587209347	-0.0298343451241117	0.0253731249572364	-0.0378600377829807	0.0751872621573348	-0.0422462252641834	0.0436489745729536	0.00854555628813552	-0.000965323643479090	-0.0442446318243601	0.0632042618591688	-0.0797152948857594	-0.0320816221713432	8.17296697532865e-05	0.0437390571383982	-0.116561364654902	-0.0153051664242982	-0.0577888753826574	0.00480525395443261
-0.0276460091185395	-0.111886740758182	-0.116734825460287	0.0716055002051035	0.0244152839606656	-0.00227050852111389	-0.0478188774233785	-0.0337717832984403	-0.0510604008944552	-0.152890394939017	-0.121255360258401	-0.0168183210140721	-0.0308468172353283	0.0283127837326534	0.0314358270367679	-0.0195196226317201	-0.0215505827366424	0.117188113588270	-0.0499661469253082	-0.00349090584687734	-0.00733786240172006	0.0801454357099787	0.00840806239246425	-0.0144722937074621	0.0730502107566822	0.0424632862617800	-0.0752781205529053	0.0964492592793356	-0.0140171305509001	-0.00692980068703010	0.0150963455242433	0.122791682482062	-0.0117792241230205	-0.0151713634532859	-0.0189147400036432	0.00472746974241516	0.0939242800216783	-0.0804969897468890	0.0242701163256641	0.0351161398420565	0.0308979411475003	0.0470851341967749	-0.0624289468462105	-0.0210720862100723	-0.0113456192833789	-0.0802267146461926	0.00590586124236681	0.109560598351284	-0.0592351745060274	0.0334194873810126	-0.0328393340087695	0.0768331629287770	-0.0578954092933808	0.0458486178969912	0.0115623958576984	-0.0868226585029964	-0.0649879201212759	0.0680461860918164	-0.162990555451478	0.00927651526652606	-0.0645773381077220	-0.0578381939779295	-0.108357647318545	-0.0561851564045767	0.0747306349361122	-0.0344117769692039	0.122842093643967	-0.0762591599094196	0.0552911045373900	0.0835485020224899	0.0402714363916595	0.0154599194371943	-0.182784130790450	-0.00308247272307195	-0.0155206426054256	0.0381029172035711	0.0113357734536197	0.0496909852914123	-0.000496259242239683	0.0245356469544137	-0.00499770655602846	-0.0515764782384252	-0.0366864054069409	0.00643310741569586	-0.0116169768532925	0.00270864174596234	-0.0629057480883654	-0.0224769408214856	0.0521115187754257	-0.0984248590449763	-0.0495169079873787	-0.0148666562152121	0.0301801281114363	0.00464884406717441	0.0288688417589057	-0.0258307611101032	-0.103892486185746	-0.108884314398190	-0.0916740907358843	0.0524804932559061	-0.0420342413442082	-0.0712075909287495	0.0389072883477746	0.0282918445386866	-0.0481115866075067	-0.0401231822036072	0.0931285853891473	0.0159932240047951	-0.0522171786421260	0.0787768750741892	-0.0348542811413455	0.0140689925883046	-0.0571744401880381	-0.0190172546200777	-0.0589162850329115	-0.00438724312056046	0.0328801865666408	-0.0659510608427209	-0.117976708496888	-0.0251640578364360	-0.0166989548125729	0.0685265015304822	0.00103312012065659	0.00270338850489982	-0.0585390179265876	0.0799989173751981	0.0108375112447700	-0.00220493773801049	0.0502293753528107	-0.0595664886757641	0.0381925368433160	-0.0439747520107586	-0.0469275528277371	-0.0631553807840544	0.0181288718739597	0.0906850584542499	-0.0179943109705937	-0.0484277429395756	-0.0339879414002099	-0.0127487067130005	-0.0194320742310853	-0.0903204559134226	-0.0708283019985497	0.0356466490599299	0.0115052737858047	0.174377968772560	0.0798459682834831	0.0671731400350586	-0.123226415758073	0.126471999972252	0.0613307575829296	-0.0579862721735208	0.00456629809707518	-0.0367360477080869	0.0267272725866592	0.0144428156115796	0.0151029297599479	-0.0523616652271973	-0.0158842864012649	0.0120622716959713	-0.107837233738342	0.0670167540790389	-0.0437061439767806	-0.0497348732358796	-0.0689401748284858	0.0759233736185023	0.0425052643792344	0.0777930290640704	-0.0276558188775351	-0.0412281891563971	-0.0268921738253649	-0.0612241376894851	0.0119980568443635	0.0547291873804947	0.0633544806009139	-0.0164214307748293	0.0788007834761274	0.0398311053791601	-0.0469738092057404	0.0369984034597490	0.0383946242381958	0.0885534514208789	-0.0286351052931670	0.0118669089787644	-0.209525178988019	-0.00355941984257050	-0.106347884325472	-0.0397205648092171	-0.0251696276618280	-0.0694153043753368	-0.0797048353552751	-0.117167581383056	-0.0619653254787638	-0.0456062001544267	0.0746967230153220	-0.0446096344536776	-0.0188257980033448	-0.0889262522149497	-0.0647595176605893	0.0124052647803502	-0.00113673154538831	-0.0183895182746698	-0.0382048969087559	-0.0561815715405474	-0.0246276620092798	-0.0219450584554150	0.0963425276609354	-0.00555140196193975	0.0594636208271987	0.0695753600096613	0.00574962308251810	0.0167778756628932	-0.0919213730100214	-0.0357417138769637	-0.0672731431309547	-0.0616710115370755	-0.102525260724256	0.0530861768589199	0.0289692160585134	0.0832856692018609	0.0551163958473094	0.00938727802751972	0.111234076981644	0.0615543561170832	-0.0841688172114090	-0.0801192913938666	-0.0299455716804763	0.0243986581277231	-0.0452441700818255	-0.0449053452207862	-0.0250386620764306	0.0271525225092891	0.0530003966999628	-0.0346117424737087	-0.110745326298137	0.0718695791510902	-0.0201303926016160	-0.0233990169418665	0.0233990255357879	-0.0127761546887009	0.0336035477694957	-0.00299308768238182	-0.128342425246325	0.105712605180820	-0.0482435605758765	-0.133487431742138	0.136703656019629	0.0279673244980320	0.00293828906498241	-0.0232163406692007	-0.0288246008777330	0.0618376225534185	-0.0123517383544621	-0.0680723422029514	0.0538623168059511	-0.0278317092640404
0.0391116669167396	-0.0332306652572005	0.114650421869279	-0.0610247507747993	-0.0117741929180365	-0.0340459068892507	0.0568485616042844	-0.0962727842352712	-0.0324512767920128	-0.0209882600673209	-0.0261692983845831	-0.132342975101915	0.0682966089184858	0.0339954205534189	-0.0413596129031642	0.104696210326113	-0.0848442052974623	-0.0507323609390596	-0.0465239685850292	0.0836713674417572	0.00501459980175696	-0.0341971253110428	0.0258018469313597	-0.0200420340958303	0.0224959647175865	0.0528768360965652	-0.0493261907920665	-0.0494938529973791	-0.0276127845859898	0.0306396365831613	-0.152823972366588	0.0682301991008459	-0.0816782876787059	-0.0159819594367406	0.145959523025189	0.0433773856582610	0.0259209624673414	-0.0204349688504877	-0.0470544492964913	0.0816327394922140	-0.107939136725700	-0.0620976888576852	0.0477457802931943	-0.0238754929059005	0.0451886384352152	-0.0347337740585106	-0.00566725899156045	-0.0272701631173987	-0.0930282533407161	0.0553136393452829	-0.0338379534906271	0.0188318147042822	0.0834349915356338	0.0197359971190059	0.0728114937814824	0.0481170846135653	0.0388673403069390	0.0110124866925976	-0.0333873214985432	-0.0792666376501445	-0.0385314674553722	-0.0847755954914664	0.00561544865926748	0.0396774677421019	0.0546728864363643	0.00223014745525412	0.0819309943779475	0.0361809465887802	0.0138652514524391	-0.0694513992913748	0.0900601901832574	-0.0285589660356642	-0.0310857773655634	-0.0241952282297676	0.0440054185120255	-0.0583066792858208	0.131910091541826	-0.0176133725702337	0.0409852537469312	0.0388430189887201	0.0399710421710417	0.0722284260337209	-0.0512510027199302	-0.0439997208313785	-0.0830602594949054	-0.0260500780572313	-0.0359351941056564	0.0369469359218014	-0.0312334871802519	0.0233998267678188	-0.0684487360718607	0.00767542165536598	-0.00443184467396045	0.00171599499070015	0.0607634648253579	0.0469385234984569	-0.0269713544230884	-0.0530894658758053	0.00227354358418319	-0.00255222797500324	0.0313786782539385	0.0351451714950604	0.0556308998618103	0.104804760178357	-0.0370925132255251	-0.00960828150801911	-0.0774517748360716	-0.133476625764671	-0.0678553390728997	0.0122106858216673	-0.00641479461531287	0.0816638831850829	0.00694847252832333	0.102819946795592	0.0993941802245689	0.0239806276920368	-0.104212546909545	-0.0146207720437923	0.0324123766972142	-0.106559796176564	-0.0474317139544812	0.0261788351902188	-0.0597247323274540	-0.0726282915708265	-0.0191945389593444	0.0188217897230334	0.0684184128528377	0.0454215516789246	0.0732616439125220	0.00525198460920428	-0.0545586944959152	0.0572051206783216	0.0272096851016714	-0.000758214657321217	-0.0373020259310927	-0.103729610616761	0.0487487570827833	-0.0774472347586937	-0.0432255792750872	-0.0374235701234744	0.0280986262689036	-0.00867559739406215	0.0658519033215304	0.134652518809911	0.0871751639286937	0.00372898725629079	0.0500157282259466	0.0503449636603512	0.0201593540917804	0.00829238467575604	-0.0514246546399605	0.0780250664475057	0.0602473049019545	0.116597532273029	0.00888913941346510	0.0310893220009046	0.0156384005211169	-0.105523098779860	-0.0395817864790361	0.0417786250383712	-0.00917096552734307	0.0483812620484852	0.0223661839064961	0.0893367450003654	0.0244006700879335	-0.105702050624930	-0.112279916612639	0.0410312718831363	-0.00184873452406135	0.0264409959504528	0.189221665377580	0.113988062839468	0.0913145352444560	-0.0870345091359383	0.0940675070431052	-0.0633424474607655	0.0111489277272625	-0.143735296774349	-0.0130159461870326	-0.0181103562770785	-0.0434251128857458	0.0791016150260923	-0.103131458655942	-0.0973530930555437	0.0585673435758051	-0.0135163818343906	-0.0383273051396964	-0.0177837035323969	-0.0111123040559820	-0.105202403668593	-0.0100954359723439	-0.00601239163218043	-0.0393865842761369	-0.0777166082964160	-0.0483291404691781	0.0415387636010875	0.0460767103496153	-0.0459770788345774	-0.0575661621765959	-0.0807094450765396	-0.0831689120027473	-0.0263110975787625	0.0679207093934183	-0.0534726116783836	0.0150131548373254	-0.0217467471976120	0.0160955393879571	-0.0204591019078570	0.0372067753662163	-0.0931866769960888	-0.0333531363268172	-0.146813846877710	-0.0846232214321769	-0.0148891286728170	-0.0142345278453258	0.155352828451047	-0.0532114975939274	-0.0412929219693259	-0.0452926208806125	-0.0989480969809048	0.0749454283336866	-0.0667159538933546	0.00328192583880412	0.0464506232661245	0.0357669558028345	0.00636137888653083	-0.0423677629144583	0.0788434965238875	-0.0861251483988395	-0.0341913820806779	-0.0822396185872373	0.152467986344357	0.0813181851261577	0.0715744447362591	0.0246180947419931	-0.0469706826645386	-0.0257352836799611	0.0315355262482924	-0.0679340353272200	-0.00131103570938346	-0.00179143717185709	-0.0758757105675273	0.0536386299938574	0.125771723590324	-0.0532787597116938	-0.00592789104326152	-0.115604076628992	-0.0578462463922598	-0.0444443404426564	-0.0272868265684042	-0.0402200828628475	0.0120520610061660	0.0129565991374606	-0.00248181781732490	0.0630577737346352	0.00477136994840025
-0.0980196088193741	0.104698880755283	-0.0538188143611324	-0.00863420585118550	-0.0363664947804383	0.0261508981467413	0.000530577187322818	-0.0523973621291693	0.0829933292349202	-0.0319305303234020	0.0600783572229356	-0.0432632818233170	0.0357488689021444	-0.0455630649489704	0.0924367273928933	0.0469921197358606	-0.00671312899910830	0.0368848894956461	-0.0231957574554667	-0.102801058599721	0.0697683590859932	0.0125699695940615	0.0602974364711655	-0.0261310608477123	0.00938441205733766	-0.0427849427473147	0.0732591232284246	0.0306729315902145	-0.0134503908270836	0.0884972114375224	0.0742350286771832	0.0142082107653131	-0.0371826267188147	-0.0462284578870313	0.0722871067111716	0.0185364246620263	0.0988444152136920	0.0541628662596317	-0.00913494882664897	-0.110481685091093	-0.0147540428737022	0.0361297021449279	0.157079263080611	0.0329800902347822	-0.0902799620669190	-0.0492465713733766	-0.0637828507052855	0.0878885643436011	-0.00534479011682939	0.0500263460880319	0.0101091030768316	-0.0536466807674518	0.0808542262810562	0.0428521193314777	0.139349443120587	-0.0747866560898541	-0.0564099192523101	-0.112399595847569	0.0280365588605091	0.0799286007280424	0.00259441951103733	-0.0284177740016254	-0.0303595439801143	-0.0572792906389720	0.0894260793984699	0.0717859539164212	-0.0723409835764435	0.131591092111861	0.111284733716674	0.0205046196728121	0.0325858723519996	-0.0694706278849235	-0.0488412713974052	-0.0128028683378225	0.0241494293029416	0.0455030900566005	0.0246073476290584	0.103036733503772	-0.0748612807678236	0.00429714260979761	-0.0411254232923999	-0.0365807677192653	-0.0293180157778901	-0.0105108079546457	0.0583042399423544	-0.0155870141308629	0.0640146715445716	-0.0126822902470972	0.0840343862962072	-0.0511519493001179	-0.0838614941255226	-0.0574722429622927	-0.0498467651684403	-0.0477106712486918	0.0250551171249335	0.102594271281575	-0.0270113574433610	0.00983947835492014	0.0450692923742448	0.0363775186030710	0.0281774096907829	-0.0254858327744040	-0.0651832401460206	0.00849860754483544	-0.0209571149702536	0.0627125111147156	-0.130594295706398	0.0664927517400582	0.0244230834074419	-0.0328141904499985	-0.00399527285954119	-0.0192319001164044	0.0157925491311646	0.00555741366946654	0.0936740457854930	-0.0371570193664783	-0.105828826530646	0.0335289094327157	-0.0210030451635846	-0.104513442426234	0.0105794464741341	0.00718579879605199	0.123430759658557	-0.00787579144626518	0.105983384533316	-0.0120845149765244	0.0103832627550667	-0.0900301787432078	0.0727061160164653	-0.0428449483529993	0.0370072921864284	0.0334150704183943	-0.145416298303303	0.0151432255272233	0.0225547695744623	0.00383865772618590	-0.0883557802221424	0.0675990656184955	-0.0842706108369417	0.0654588007919812	0.133828066758013	0.0377736452230792	0.00961400157854350	-0.0472296707251222	0.0801321237987911	0.0565153110854569	0.0425962381089400	-0.0669708789168695	-0.0203526322865817	0.0294946063146182	0.0526644683500500	-0.0726413908471107	-0.0310458624662535	-0.0875974548900844	0.0668179563766247	-0.0244757766957760	0.0436979816159430	0.124969939083067	0.115287544022386	0.0151784766131092	0.0274869956146360	-0.0423826716286617	-0.123080838088936	-0.0346277676096184	0.0281500612081520	0.0474318762759051	0.0336824076008443	0.00952345718973476	-0.00416149756084200	0.0265606279641683	-0.0467313517669887	-0.0745592330556936	-0.0618171844305040	0.0178265281544067	0.00142168693159079	-0.0710282654404476	-0.0875432110533180	-0.0327145434633359	-0.0739209907496260	0.101583254651936	-0.0153878376550264	-0.0264082454779867	-0.00899351300805100	-0.0411606106783832	-0.0241795169729827	0.0744987329461358	0.0651086712872784	0.0601787343704363	0.0479266366631252	0.0173058019996740	0.0215933876525006	0.0203087452956809	-0.121760129819272	-0.0375219400410937	-0.0976499883360295	-0.0954764644583139	0.0133095012530887	-0.0556077883039917	-0.0557130723206295	-0.0315345847546521	0.00762936463662973	-0.00599548965104919	-0.0659470134791313	-0.0605820437407740	0.0471323020865139	0.0535272928649566	0.0940237953143897	-0.0110961992025141	0.0817800886093597	-0.0307452441352721	-0.0902938966812693	-0.196703515287143	-0.0918497383965665	-0.0116665905887451	-0.124761515499016	0.0611767925651450	0.0209508914726578	0.0884552369305850	0.0908354560460386	-0.0759289274795079	0.0347649640403292	-0.0221043754430313	-0.0370424354995167	0.0782254858549326	0.0298694302846611	0.0571897480034607	-0.107751245461757	-0.00981068098862719	0.0505621061707211	-0.00327837390382648	0.0284969936032680	0.0312087620250800	-0.107766970375882	-0.0110569267227581	0.0583668745278442	-0.0191055319292889	0.0466919485275058	0.0320711968646091	0.0164105596192225	0.000716998214573336	-0.128747119692964	-0.0155157704483248	0.0374282866044098	-0.0824613005664031	-0.0745086112857540	0.0347902147973932	-0.0229270519727578	-0.0969135948818373	0.0485704393198884	0.0480656854289432	0.0205629751793402	-0.0607496397220849	0.0353768994076878	0.0501462350730264	-0.0556575914050651	-0.105955771705595
0.0591787061673920	0.0238665621852507	-0.0549481720167720	0.0343497871129277	-0.00332957787957959	0.0134289868485965	-0.0673329842412403	-0.100332557466653	-0.0522216694415621	-0.0462319153047465	-0.00312886092433944	-0.0792213559166762	0.0212845112489972	0.00500644093534028	0.0887280375430132	-0.0346847779828979	0.0733974422097785	-0.00710561752696913	-0.0267093054127171	0.115493512277264	-0.00344034462555334	0.0524147472184192	0.0591188151274689	0.0391453665388016	-0.0173064565596995	0.0541312551179997	0.0332803882005629	-0.0463300382958947	-0.000225111000983092	-0.0994565757827144	0.0547038995551207	-0.0661982274967550	0.0872435401470749	-0.0659327434126455	0.149601591115129	-0.104007459134183	-0.0246256306008943	0.0334772816241649	-0.0854051494070942	-0.0603923436512117	-0.0742167239973341	0.116288475865423	-0.107727016785534	0.0148680978845777	-0.0326742927653598	-0.0232784258254457	0.0946918511786900	-0.0159442132322149	-0.0715655881674259	0.0215147472691327	-0.0642701873829728	0.0338917611079464	-0.0122179102798267	0.0491475102564643	0.0483779871747167	-0.0180286121777127	0.0601559577551758	-0.100799509753919	-0.133743400821374	-0.0970334641925663	0.0466025732349688	-0.125547985379075	0.0213005434985953	0.0616182533194243	-0.0962387343707856	0.0131926658778457	-0.0342466374393788	0.0274318985105535	-0.00633623830689398	-0.0539856498661838	-0.0924303530529830	0.0310517950781447	0.131513191802489	-0.0475394516826674	-0.0253973448103626	-0.0146560620177638	-0.0414970852525308	-0.0205670595818069	-0.0267873547410021	0.0619422154460645	0.0276400169342948	-0.202288098444839	0.0137576380187892	0.0206095300528850	0.0414545252449273	-0.0915110703917063	0.0790455945074132	-0.0107139109657469	0.0160389128896937	0.0383055081966523	-0.000381814317119648	0.0243405014910874	0.165550172641279	-0.0855929384220042	0.111702744010069	0.0887467622697040	0.0195982822235148	-0.0125361893533854	0.102155235814465	0.0936845457273938	0.0616411404416092	0.0188507920060073	-0.0278772348135664	0.118343071524180	0.0531256748350494	-0.0420456913245419	-0.0723361116024164	0.0555402243198831	-0.0925966811399365	-0.0199086727774200	-0.0572272999732609	-0.0161765752466883	0.0634803282220902	0.110365948617150	-0.0179576043306819	-0.0617058782815824	-0.0150615638515496	0.0638087037487288	0.00459112966307707	-0.0410068693709006	0.0836121166557034	0.0500442227526263	-0.113367491535105	0.0559980671813993	-0.0381685324758896	-0.0684258094564183	-0.0235039986530479	-0.0701524512603157	-0.239222838333200	-0.0142133875874480	-0.0118531923812183	0.0326591104787480	-0.00727344112826291	-0.131275569057408	0.00866077420879092	-0.0679496396324587	-0.0486059438046184	-0.0306433437388701	-0.0209156730971663	-0.0254016715821246	0.0238993285143816	-0.0796505078258778	0.0311366832091512	-0.0159046381541967	-0.0464536864109792	0.000854073073078559	0.0456917762847288	0.0482383075989141	-0.0703435470473768	0.0247452703034871	0.00163515701476910	-0.0714259098935050	0.154956306603281	-0.00319212063742886	0.0938230924142262	0.0307180351982992	0.0154009426048859	0.0175706416857265	0.0971778954802784	0.0495528055960441	-0.0679256152584133	-0.00690342712427965	0.0452194304401953	0.00168279187087382	-0.0326322670950077	0.0490212126602317	-0.0322586862891260	0.0637011831377278	0.0256300361573356	0.0878358670875356	0.0714694952355413	0.00193731449561417	-0.0166771893130968	0.0732275110116537	-0.0989018744098056	0.0204919020319042	0.00763974858469211	-0.0143234763603924	0.0745248718854819	-0.0246397369889229	0.0749788754893963	0.0111020385523668	-0.110186720399422	0.0137780969011031	-0.0618880198603736	0.0531735002609272	-0.0472600844566452	0.0253592535600617	-0.0434373280235174	0.0360530653199628	0.0485772733168866	0.108624800620855	0.0693396810433429	0.0588039743935136	0.0183324985598214	-0.0562901725876184	-0.0391848472250259	0.0673557737137668	-0.0411822474665155	0.0730647445442367	-0.0293952985835400	0.000678389740714293	-0.00989369761717202	-0.0126551596009687	0.0411559409419465	0.0492857545217752	-0.0374970771287556	0.0274622792975502	0.0383349759723141	0.0348591811395779	0.00994686257260373	0.0121767174519142	-0.0278646002469415	-0.0254951036958150	-0.0846592970853253	-0.0786126526828549	0.0597412637381790	0.0353719380637066	0.0126764651926216	0.0191380617316802	-0.119856909177101	0.0299850804235686	-0.124121350613891	0.110281017592159	-0.0734379335696143	-0.0657023194339554	0.0270105616998597	0.00353607752742020	-0.0638530026306553	-0.0106100028274077	-0.0134886512184529	0.00822462397887322	-0.0485184142098389	-0.00439193179560290	-0.0725215726966847	-0.00300784514744542	-0.0104280944530409	0.0192131522477877	0.000808510131120010	-0.00792663205396194	0.0364982963827740	-0.114729435434308	0.0120856597403375	-0.0229524296681953	-0.000951371753332652	0.0313561361372139	-0.0721372766355676	0.0898646903904842	-0.0763937695572860	-0.00605425877349359	0.0615192763194781	-0.0547238139368838	-0.0177967467352540	0.0365804901216577	0.0534787111538487	0.106219890738849
-0.0606550049130835	0.0972955102015679	-0.0110890374885281	-0.0186521951574806	0.152555412040897	0.0696023398379642	-0.0164208186801679	0.0427136023201599	0.0592449799539157	0.0268085495920831	-0.0541221309778166	-0.0327358187404532	0.0452845828934636	0.0220781371682480	-0.0682909913439824	-0.0334132344195356	-0.0666017379020918	0.0866168463972613	0.0435686011580551	-0.0365870640461903	0.0678382740049743	-0.0415140156089936	0.0654265209562367	0.0329522003591991	0.000271374291480078	0.0617936060199117	0.0161531632145409	-0.128598932809993	-0.0140791609927000	-0.00923997308979000	-0.0298703294470384	-0.0432913242803722	-0.0581159294312104	-0.0599829419801240	-0.0572965862192087	-0.0291458046907074	-0.0658637421423954	-0.0680119138744987	-0.0273178176834693	-0.0394447185441265	0.0292899624945068	-0.0517044058465129	0.0107348834488744	-0.0680667354144810	-0.0588131042620413	-0.00988066352760599	0.120568304268110	0.140533585960526	0.0748874250052811	0.0364649118361920	0.00585181513163515	0.0417166347630334	-0.0468898350964295	-0.0133086797742740	0.0602631050862228	0.0316380103628776	-0.00354481568018277	-0.0302191321293904	0.106905094061192	0.0346384535351524	0.0535368448006115	-0.0564605371901513	-0.0918813466774174	0.00434970474886826	-0.0159254228668727	0.0240651437509694	0.104704097168717	0.0497614054932778	0.0589663119891670	-0.0153110294361304	0.117913609039109	0.00164825840755168	-0.0452341142500941	-0.0401792823057990	-0.0550471326136260	0.00352949242343198	-0.00853925773215758	-0.0185522761398447	-0.0142424871568525	-0.0114455220768975	-0.0887560907698528	0.00659668628889796	-0.0154975922807217	0.129057816141005	0.0704724062891841	-0.00146944827862433	-0.0746730264058384	0.0416403407346064	0.0339967549988868	0.0390544808009426	0.0161691061706111	0.0673760780018758	0.0803030252891392	0.0871529834489256	-0.00485266379020807	-0.0319700053363622	-0.0181907876449840	0.0243700877859012	-0.0706103551138107	0.00317783882589877	0.00535973741910409	-0.0858121087682304	-0.0769733333631495	-0.0473749532620416	0.0310139401264045	-0.0820459106995425	-0.0293458867083333	0.0231417530965158	-0.00668768227582266	-0.0882345822982705	0.0208456108525293	0.0122794119513153	0.0427892440185889	-0.00999371769708672	0.0886995906828808	0.0188365105354153	0.0510135885720425	0.0276541630499385	-0.0896237517751371	-0.0709694219786179	-0.0437547248883919	0.0243638390519535	0.0143068580188674	-0.0225818092164513	-0.0599594515793812	-0.135287544830612	0.0110048402498594	0.0102406016004134	-0.0928402941150177	-0.0474588122039823	0.0510904570941515	-0.102427025556885	0.116420729998945	-0.00526592727404497	-0.0888900160551574	0.0359136730602850	0.0409156121657347	-0.0322196767102938	-0.00897974039332094	-0.00656051718114358	0.0602857020273318	0.0243728101729126	-0.0187292666754947	-0.0211952019171686	-0.0410043849074153	-0.161352367171623	0.0515046432131964	-0.0127443384996736	0.152744414504191	0.124220644240128	-0.0126803410540210	0.0672544794378853	0.0557900972707944	0.00481476919389138	-0.0127508424425243	-0.0819180101439620	0.110640385782894	0.0267172402647200	0.0275075589947389	-0.0664941324424207	0.112554789994750	-0.00593446735477938	0.0564433374021289	0.160722420415257	0.0854435589188466	0.0286455954725936	-0.0397542149588020	-0.0184301272836205	-0.000181071147260370	-0.0524368092601569	0.00827945792659374	-0.0576588055053876	-0.0664630659659558	0.0192522105230328	-0.0301025558809525	-0.0692765685192324	-0.0640474718878730	0.0107291906549254	0.0532236858511276	0.0201483992831445	-0.0169954483672315	-0.0293615592791063	-0.202069805719089	-0.00727374729344169	-0.0494572366189475	-0.0151610422605079	-0.0917025883833697	-0.0379379017217354	0.0679798484026849	0.0605747716164445	0.0384201995036860	-0.0353250270217235	0.119588008537852	-0.00913888123783814	0.0514517754416605	-0.0838075330056672	0.0485885117331070	-0.0134685797460741	-0.0356997294671198	-0.0446636036808924	-0.00644576670525336	-0.0521603979559435	0.00868386229333496	0.0352533506818605	0.0353597435294372	0.0458664704650720	-0.00520933165339739	0.0388447477203009	0.0764623445983295	0.140033434330702	0.0919087171767543	-0.101209404221321	-0.0894180348085443	-0.0302460064951309	0.148053435639195	0.00386563392028552	0.0627212448028394	-0.0375062289576073	0.0579752057379523	0.0591262081405315	0.00652859905816254	0.000168248595397409	0.0682899018102988	0.0344275523927392	-0.0297368251712090	-0.0187906596813631	-0.0283766219702426	0.0616445319518937	0.175213270956568	0.0408678076497075	0.154768095018634	-0.00483870185950219	-0.00986619614142798	-0.0428709617444115	0.0113351817576120	-0.108367521969403	0.00485988321259515	0.0222025836745546	-0.0188966604646131	0.103101507630673	0.0983536574619732	-0.0396731602758634	-0.0328348738139978	0.126623064246229	0.0235571788176859	-0.0547653892811722	-0.0219006685528894	-0.0376479441403970	0.0792778865225628	-0.0966691658711595	-0.123954520768226	0.0402189366820016	-0.0139203698967097	-0.0158457334923805	0.0303155891793843	0.0387938024347868
0.0122210416134605	-0.0170642679265262	0.0870932706378151	-0.0512518907383672	0.0422390230652381	-0.143862397013468	-0.0912741263935702	0.0389584586267307	-0.160739819234869	-0.0549482313086557	0.0419130132707740	-0.0935809681578346	0.0442868224963374	0.178787695924992	-0.0129229468967958	-0.0271175697730926	-0.0200959628452167	0.0248453054530035	-0.0181628879580923	0.0508246489329155	0.0662519316684345	-0.0628463525526384	-0.0204652904755499	0.0480004412720334	0.0193483783405911	0.0331814861615349	-0.00671912892342419	0.0345884109070772	-0.0982077163388983	0.0387447703313251	-0.0275081940900819	-0.00138369695601416	0.0378820643391588	-0.123722229666642	-0.0234376799399182	-0.120759912452688	-0.0900810408786706	-0.0362648947413533	0.0397776460424214	0.0137155431092276	0.0183322453781526	0.0954851163101414	-0.0356746341975138	-0.0553554449485258	0.0162213677860409	-0.0577679406853563	-0.00207809232395430	0.104033223795679	0.0289600672675371	-0.0415858433556169	-0.0234431672599656	-0.122329396854679	-0.0450195101310410	-0.0501504328717095	0.0225590883768581	-0.00493249610849897	-0.0847493843504152	0.0473348202393794	-0.0266001066586479	-0.0844261144654540	0.0918002751200819	-0.0460021879050883	-0.0766317662927385	0.0747303821215180	-0.0420459228302536	-0.0200208994129952	0.0241410272071260	-0.0348041155090517	0.0181443450746046	0.0724936335184007	-0.0420697254590210	0.0584719150824599	-0.0284915989455259	-0.113249079795636	0.142861717473921	0.0572128932029122	0.00550550289962542	0.0429108999214374	-0.00982617592753287	-0.0582741191004834	-0.0405275606789808	0.0511336385964102	0.0115332781377672	0.0346687060623860	0.0131895409842660	-0.0438119668389027	0.00351149953915693	0.138325343668209	-0.0697964750107271	0.0358338771976641	0.00609657715484555	0.0732662291396182	0.0126046146607805	-0.0356842484373403	0.0576721877141345	0.0939770955520937	-0.109488729928644	-0.0136037439219879	-0.0254310117807464	0.0748789282896478	0.00381382076263658	-0.112743302772077	-0.0398432355900999	0.0457707918665915	-0.0880532130704057	-0.0534340517511869	-0.0285452490806736	0.0468131728058095	-0.0129956229815127	0.134689928234722	-0.0356092509288903	0.0230943574756696	-0.0465510131894867	0.0401089547298808	-0.00651101552040180	-0.0304971560788606	-0.0572756260994131	0.0484390308468607	0.0649136551135809	0.0713274205432435	-0.0685174034888565	-0.0584582670037639	0.0508795238018415	-0.0262837724522306	0.103809377135515	-0.0284618834181874	-0.00539513723115668	-0.0201838628765985	-0.0495733987859131	0.133581728379387	-0.102525735056516	-0.0431889413927957	-0.00397368249156473	0.0457765845232059	-0.0522032776714801	-0.0463654608931753	-0.0598931106148615	0.0370370499404867	0.0583276945441946	0.0938608479438419	-0.0110870889492529	-0.0913141439453063	-0.0104047082391764	-0.0464599516299561	0.0828706126058144	0.00413383931994501	0.000146561145381978	-0.00467879987481100	0.00486591651209485	0.0486662506551574	0.0799241583404286	-0.0440463258604728	-0.0586915292301903	-0.0274192540276450	0.0924159062359370	-0.0407520700389450	0.118872809611737	0.00726506482908276	-0.0176449514972313	-0.0779870019705276	-0.0230669002546951	0.0410252934600405	-0.0484604805190459	-0.0452585142728416	-0.111450360855443	0.0348515060476855	0.0118675146424439	0.00956199552490726	-0.0182515563436309	0.00580328304099760	0.0420114520389605	0.0486471055699877	-0.0278645785431052	0.00109800047930322	-0.0637272117445603	0.0288389462122721	0.0151412248775854	-0.0778128014936698	0.00893270843045812	0.0669992869911051	0.0176682375772002	-0.0464941714911957	0.137261290746519	0.0153650944545095	0.117724783391687	0.0899806624072466	-0.0245628155206972	0.0176402291894584	0.0184495050766362	-0.126330783910825	0.0795128184197038	-0.0244989307284304	-0.00630862754105291	0.0568036684671435	0.0296803585958932	0.0760111319611435	0.0156028144122330	-0.0769873607695758	0.141584701758472	-0.0584607470754741	-0.0850612720866360	0.0350280029735125	-0.0884787557813456	0.0195575845058019	-0.0133712297998731	-0.0629351592792156	-0.0164417106615192	-0.0132296662959992	0.0205840666611725	0.0272982135894448	-0.0883238542994316	0.0100338583913496	0.0631165587588583	0.00747371109519680	0.0850083690175036	0.0638705165999046	-0.151349699177096	-0.0185305577147751	0.0117858067508820	0.0514997637240489	0.0138886033319791	0.0576145312289433	0.0331213071587940	-0.0522349479512382	0.101909535099723	0.0255210548285725	0.0806836952419508	0.0738131861425265	0.0957195471762777	0.0834369645029361	0.122760018292966	-0.0283885017888133	-0.0387728645395926	0.0865325778258050	-0.0159223404335471	0.0148612015837343	-0.00627556453445420	0.0456240156142071	0.135801967858616	-0.0496902637354004	0.0237061423776169	0.0208407383098245	-0.0445167500761448	-0.0306255058532209	0.0568766351573762	0.0783446844330174	-0.120363248713482	-0.0931543198307587	0.0224950667460573	-0.0965176697516945	0.101873342559356	0.00303114064438224	-0.0531175351808102	-0.00229251708806203	-0.0163729902821653	-0.0571404197088951
-0.00866349987086166	0.0354039504103085	-0.108243382289252	-0.0626779097450937	-0.0375520715976093	-0.0429987859397641	-0.0136239394185999	-0.0259724889033217	0.145670488374025	0.138265261915975	0.00556605411674815	-0.0324061650634921	0.0338023257200542	0.0773647909227440	-0.0423542432572125	0.0141204403906848	-0.000107661163131911	0.117198694098274	0.0437281290531899	0.00945295528351953	-0.0736628169536354	-0.00836622255935583	-0.0378356915572750	-0.0483213173908163	-0.0338286727682534	-0.0325868527587829	0.0367665053305658	-0.0289304428820094	0.0119898558792988	0.0698024187650044	-0.0546103170215298	-0.00417749247777635	-0.116765809010880	0.00545715127033386	-0.0109569507513107	-0.0358530191484219	-0.0344018761731607	-0.0611286055147985	-0.0499151736354440	-0.107978518716422	-0.0478913219815152	0.0279015665792516	0.0685136201092777	0.0406387760978259	-0.0395215389955786	-0.0427241224566964	-0.0527716093448760	-0.0633009678758404	-0.115273105603695	-0.0124128045721868	-0.0351584904873398	-0.0165083846290676	-0.0628928776850258	0.0316010458221067	0.0160238742089910	0.00115822133438136	-0.0829469499267588	-0.0176221862320552	0.00476340218685358	0.00967557040172800	0.00842897709887185	-0.0379553119617724	-0.0565720715515280	0.120796054526318	0.141905610993771	0.0951985266994019	-0.0554873994189301	-0.0262734536337146	-0.0120141776208027	0.137565832283054	-0.0829096720713008	-0.0264222242011192	0.0693654697072992	0.0346670697138274	0.0697006022374994	0.0741039881562921	0.0509327843016448	0.0398596294002208	-0.114318118421700	-0.0384648971234436	-0.0653328873783518	-0.0487134289192783	0.0592287587623872	0.0239260606513803	0.0807812469399580	0.0967313949020410	0.0472728243263040	-0.0377001637564864	0.00144937706712462	0.0351016867569041	0.0383324675790955	-0.00757932489761919	-0.0328180574670692	-0.0504497471458926	-0.0132800565238147	-0.0352352729697641	0.00522339926809479	-0.00969571995724551	-0.0601018220509918	-0.140461428454322	-0.0182321530222564	-0.00967643200830387	0.0386678753907323	0.0416010114717503	-0.103332817618704	-0.114746382458769	-0.0859761709604077	0.0257007585933441	0.00796251985269591	0.103289995252694	-0.0376627545794734	-0.104259663217783	0.0295979844538585	0.00883886322730916	-0.0519787605176605	0.0501075063232491	0.0678635858767852	-0.0222663488320866	0.0221400714338526	0.0261925126343127	0.0672452937691324	0.0707649996803078	0.130898639573798	-0.115673250222709	-0.138558201670652	-0.0853261679712546	-0.0151892653155679	-0.0473220163120382	-0.00571481808144731	-0.0820175145427153	-0.0186731759641212	-0.0849370286702966	0.127997879745127	-0.0946657694199456	-0.000675131220888157	0.0223617455416442	-0.0468708286982617	0.0438983489157211	0.0212739085502202	-0.0617816683906192	-0.0670691005991143	-0.0325947713944003	-0.0927664865778368	0.120331962601471	-0.0348896367183273	0.0249603189457602	-0.133212623690234	0.0277305264026393	-0.0302573218234073	0.0502792941585059	-0.0841221056732139	-0.00610642326172242	0.0606085802355683	-0.0587393156693916	-0.0378440132178059	0.0160885069421611	0.0690344255585946	-0.0863843842207020	-0.0679029987449162	0.0831228410485615	-0.000682751072606984	0.0371376074127191	-0.0434470697326604	0.0133658204414287	0.0419799618993361	-0.0481593036346259	-0.0243773008002571	-0.0453025186294043	0.0703078621906849	0.0496437499872376	-0.000155825868873101	0.0837733644402289	0.0198349243933667	0.0295804897276048	0.0128337830086307	0.113757869469396	-0.103653511549985	-0.145087448582293	-0.0386778463298615	0.0180308573280117	0.0685752934545174	-0.0308327894385202	0.0858192836409387	0.0395594806683468	-0.0418497832447602	-0.0105649108948874	-0.0161748126265767	0.0425897583217135	0.0912146582653555	-0.0345525236233283	-0.0199582328391709	0.00817553141769841	0.0731070673792128	0.0787863597402326	-0.0690960548259540	0.0921235477771330	0.0950466111184762	0.0802090600923199	-0.0685950054433618	-0.0995680269414526	-0.0188383976264981	-0.151417644900483	0.137523476684523	-0.0209857352322102	0.0688909412857340	-0.0732305748029428	0.0753534814614389	0.0170382895859915	-0.00982174963730998	-0.0317280054190277	0.00864047786049083	0.0795770352160417	-0.111032799302997	0.0533261117006554	0.0142288870798079	-0.0376226610233239	-0.0739233595886201	0.0504842357650316	-0.0946633389375670	0.0480454669211449	-0.0251152941812402	-0.0339811638720999	-0.00190602796626904	-0.0185957456068662	-0.0619486342499987	0.0448401910700315	0.00996265269893714	-0.0182549935726656	-0.0386042434061760	0.0291202352259417	0.0599322627992154	-0.0232519741960562	0.0549396936948407	0.000495912913432645	0.0524887053624941	-0.0882983601142043	-0.0243566331275185	-0.0357681776121361	-0.0134882280920539	0.00282579713378426	-0.132140726260799	-0.0244867349067904	-0.142549043611381	-0.0174316178075459	-0.0503787691835048	-0.0184694779204082	-0.00520929818392987	0.0501948886653325	-0.0249047617175108	0.00315361106257688	0.0743232371486413	-0.0932802168678240	0.00889322996565259	0.0350576994102379	-0.0398580815464350	0.0534811174626244
0.0143956573745439	0.0939215208123247	-0.137966369185398	0.0702610166568062	-0.115166124160078	0.0637071819075486	0.103939918750599	0.0315529325816821	-0.0594739545270575	-0.0211226909842192	0.0286686433672071	0.0137786843280658	0.0583884060076091	0.0128811075465941	-0.0735720664879811	-0.0723727800346779	0.0728408673363908	0.0735622253152613	-0.102303536811902	-0.0633598489406459	-0.0625242286783958	-0.0253336766040322	-0.0338686603301229	-0.0436865254104338	-0.0430704443239430	-0.116387433900930	-0.0211197922423378	0.0238733845733194	-0.0596203421747986	0.00249439080052693	0.0599374011280551	0.127566217328563	-0.0104991523901322	0.0278919974516662	0.0589700684173885	0.0147094933727797	-0.0284125355627640	-0.0364234451006495	0.0237359217572889	0.00283015525207972	-0.0392917100329602	0.0247684370560560	0.0517444746553599	0.124148006072443	-0.0279109757141374	-0.0232161024504185	-0.0651153100721184	0.0267533275408255	0.0815839296203919	-0.0340677064451071	0.0237859386290295	-0.00575417745083567	0.0548686845929637	0.0177227451733264	0.00494136891429661	-0.00432981996201401	0.0689778432259557	-0.0742683031918483	0.00128478207377986	0.0103531736464474	-0.0117592829513101	0.0821589643331601	-0.0689248651251212	-0.0199901994389822	-0.0138630059580417	0.0725264085969895	-0.0308522917174819	-0.0738791749376093	0.0228885512717700	0.0252948069357984	-0.0540870966940977	-0.0610438125772535	0.0301250495306425	-0.100318199240824	0.0255496005757320	-0.0755008828652121	0.0386173551289574	0.00636708869477656	-0.0755171919552386	0.000444279307816260	-0.0634780559251633	-0.0848250099331206	0.0429148084659894	-0.0179094101462085	-0.0759956963126095	-0.115174135439825	-0.0425911089351041	0.0282820627147475	-0.180459219625242	-0.00157351872521187	0.0817644560229178	-0.0856490247922288	0.0728536386244833	0.103248547649113	-0.00984992698071070	-0.000701401324363140	-0.0121563109576116	-0.0699418264681279	-0.0826423732580386	-0.000173526546794960	0.0885826221837671	-0.0319524257350893	0.00753144943806330	-0.0225369447244997	0.0875577826555105	0.145517786004211	-0.0689141545392743	-0.0689785107778167	0.0391585106684593	0.00208516366867269	0.0163218929009427	-0.0536845832484419	-0.0880890173833434	0.000540635425160648	-0.0498242074001269	-0.0162482105676664	0.0483681027713740	0.111622245956666	-0.0417522830115379	0.0729190988047993	-0.0280919276290189	-0.0241843366309577	0.0407691169948296	0.115523322951346	0.000629391971602641	-0.0976259809857839	-0.133101241100324	-0.0283872428105451	0.0361810156673791	0.0277782540487820	0.0488468996895865	0.00310266020669704	0.0932501893875512	0.0182937834624666	-0.0215342808866138	-0.0167349766886125	0.0523831603961939	-0.0776301809859226	0.00941192305439502	0.0258342583908580	0.0396556235581902	0.00800214989593332	0.0664657789496327	0.0636315394275738	-0.0494144288500608	-0.0985162595080920	-0.0380785421410274	0.0349610226052852	0.00703274068678737	0.0558479098517713	-0.0467319685068755	-0.0251905418498948	0.100598566514624	-0.0303330024552856	-0.00233494803943194	-0.0370093262166285	-0.0177579841880854	-0.0876798673302433	-0.0227673840867949	-0.0225067405515695	-0.101180459693814	-0.119656506036878	0.00188359613969405	-0.0200145928940672	-0.0625260143703308	-0.0384270386824335	-0.00483166419337023	0.0751672023134860	0.00492553000377480	-0.0255447324608719	0.0869376728010573	0.0569110118272869	0.106146544025769	-0.000995969522981958	-0.0449272628105138	0.0876340129430133	0.238692696060285	-0.0350677769930182	-0.0166861312812166	-0.0136891273296562	-0.102760878411230	-0.0308293436055330	-0.154294585003805	-0.0159594495945083	-0.0468022430370030	-0.0508501194752970	0.0471071896462885	-0.000104127690932921	0.0216330976277964	-0.0298037529933835	-0.0170750801673207	-0.0142649378707087	-0.0738761860840378	-0.0533806812993376	-0.00930502682365060	-0.0803738531255680	0.0622502742828070	-0.0491874426546173	-0.00945837922831629	-0.0155519085961452	-0.0490099842508911	0.100653681397924	-0.155836592534375	0.0984360406587323	-0.0233179794349526	-0.0791415804009714	-0.0439786361463906	0.0640229410040103	0.00249840284314237	0.0751739854447044	-0.0299903235769707	0.00103153578643629	-0.0226767596769779	0.0548855541499301	0.0852219335420510	0.00816379511181477	-0.00187909077513491	0.0704141014301394	-0.127291233918215	0.00239609754960010	0.0474481334240142	0.0151296360035137	-0.0380372532455596	0.00761918108542202	-0.0298092534100770	0.0439748388932125	0.0305729867507891	0.121321148670292	-0.0344087416423337	-0.0995682608301713	0.105444304634931	-0.0191926858126606	-0.0909724990056187	0.00991687051028165	-0.00509441225735317	-0.105229825812110	0.115196870349872	-0.0900672348136124	-0.0326678168900419	-0.0736459084428127	-0.101188672456080	0.0670394347599514	-0.00766926088629122	0.00738395501971921	0.00372625619531096	-0.0618159627888961	-0.00996253461929294	-0.0827068654232317	-0.0574839277419292	0.0365487786737097	-0.0177735348689815	-0.0204685819719007	-0.0440636090278755	0.00396157811435726	-0.0135681701904312	-0.0480315616682679
0.0425042234234391	0.0908293623693066	0.0142631036722702	0.000926604674120983	0.0141548557342496	-0.158131792288936	0.0105909896896840	-0.0159433785020462	0.0537919404653051	0.156637748569284	-0.113277766959910	0.138979217176634	0.00114167935580875	-0.0356204615918379	-0.00941758986836744	0.00275857951412861	0.106132637236870	0.0384435144694838	-0.0192006249125557	-0.0134292038191161	0.0527778442472478	-0.0540778421106881	0.171587723134842	0.138335265726439	-0.0949453981512546	-0.0764071019019760	0.0149261834417494	-0.0582633915590124	-0.0105653256164107	0.0110555991037906	-0.0481998250383901	0.0202616817434801	-0.00746380918052712	-0.0102175517824753	0.0478137686278235	0.0902576117973781	0.0504517324322777	-0.0388824088568541	-0.0421811972889044	-0.0811527109657878	-0.0327592192205407	0.0325151088904825	0.0343771682922150	0.0423276474464673	-0.0844131883400649	0.0678565972975434	0.100074676725249	-0.100228083431617	0.0268598348879048	-0.0160555583130083	0.00754993737080380	-0.0409458759486406	0.0304201455323375	0.0166186206408179	0.0777961540414216	-0.0541703045088401	0.0235365868035543	0.0615294802047172	0.0319047566212262	-0.0561654224812690	-0.0480598655662923	-0.0117060969337626	0.00781418186532666	0.0679733039440705	0.0323150498810370	-0.165646115554001	0.0598655539972197	-0.0392261692795968	0.0234235846437329	-0.0804472314840262	0.0647633506177509	0.0656726135072958	-0.0665807018269421	0.0245764555801545	-0.00658091662724052	-0.139624785942381	-0.00260875064146151	-0.00104548470597313	0.0240872340982250	0.0935013526625863	0.0862133667453229	0.0205428148480147	0.0113140379569813	0.0181722744302723	-0.0244202502618884	-0.00134639265264514	0.00643273430206468	-0.0466190131834489	0.0638365187060626	-0.0370256484873288	-0.0206887959960237	0.0664301784270572	-0.00137562142110803	0.0655778391404099	-0.0455173628293635	0.0779720170844057	-0.0186587652669800	-0.0405253097736793	-0.0215710631463393	-0.0398013070601453	0.131382224767534	-0.0254747529029419	-0.0117112410507220	-0.0441184565354171	-0.0691166884506086	-0.0819073697491142	0.00859604109591285	-0.0571705726328103	0.0562046860085622	0.0287522780841365	-0.00344732822741535	-0.0367127742094750	0.0857877552945928	-0.125416204971562	-0.0769285379566455	0.0757027045723705	-0.00957502216348354	0.0729679258782225	-0.0843230147437840	-0.0425639389180565	0.0300022155493394	-0.0183203373109402	0.0133670314233570	0.0454492317148333	-0.0321547419123397	-0.0280564713157787	0.0140952787214973	0.0262445745728422	0.0848454478261498	0.0334185117933578	-0.0247161379495658	0.0312048033567150	-0.0509130678902524	0.0491801465423986	-0.00582118016423972	-0.0123173075143510	-0.0828622134218919	0.167661755275120	0.0280821024057707	0.0455230147391656	-0.0709796509133667	-0.0335169683262575	-0.0515657538558252	-0.0693862593710454	-0.00606946032465166	-0.0592245218865014	0.0367400577641557	0.0497540693956908	-0.0229618390188640	0.0329211250360798	-0.0330395235387366	-0.00760389795437048	-0.0896650159492603	-0.0909529916229436	0.0424012858060023	0.00432574308753147	0.0124774549897788	0.0381010846198883	0.0134428473646773	0.132164352241424	-0.0853540106312729	-0.0767091292675979	0.0130997073751194	-0.00540467523789309	-0.0551571628117199	0.0493846772441477	-0.0626520392767711	0.0650857932948808	-0.0441309217330757	0.0569167469395347	0.127076545313875	-0.0468936015409735	0.0471243632417458	-0.00427576210589316	-0.0877838710612681	-0.0204961138007832	0.0352789522856464	-0.0374885738153484	-0.0531471692470021	-0.146780468405658	-0.0545406045540369	-0.0648104529288622	0.0547161458515703	0.00722533703719723	0.00408108445362833	0.00962690740221180	-0.102325280564356	0.0695953731052540	-0.0111205218503509	-0.0854885490378004	0.0458525840284260	-0.0174930719033690	-0.00681022271053720	0.112850901996828	-0.0523615438098062	-0.0400651328552964	0.0947879686180126	0.131181890956531	0.0229275066982176	0.0656065092708963	-0.102607140949194	-0.0113629454201940	0.0618210987136021	-0.0274083040935891	-0.0170191404387238	0.0620719857548203	-0.0254121779905284	-0.0247809157372365	-0.0791156820535157	0.0343299465064491	-0.104396517728267	0.0729665947283373	-0.0215432505910777	-0.0367611866630658	0.0645376590415769	0.0543853742970511	-0.0110786201604466	0.0232012639408325	-0.0512197637572412	0.0929567904156631	-0.0417542813999704	0.0537519059596627	0.0699568417162661	0.111332875571776	0.0959094536322861	0.0814898490848073	-0.0315090611430299	0.0556158348129203	0.0594574580238825	-0.0541729018471036	-0.0396912050225497	0.00217901060038883	-0.0244938523065397	-0.142375074419404	-0.0843333625477581	0.131526564950389	-0.0143767158699294	0.0789445874021325	0.0168502640423036	0.0305169026394782	-0.0540520785020577	-0.0236755504712556	0.0431596113045542	0.0563146664536400	0.0937925317515486	-0.113320197464794	0.00315460971134196	0.00948590883564435	-0.00942851397142325	0.0920004804015320	-0.0497942849463624	-0.0184267575609343	-0.00220734771767107	-0.0244757056611663	0.0479914868955676	-0.105838616663413
0.00942833597900558	-0.0538772257215020	-0.0510815596475433	0.0252423645103575	-0.0924003079411967	0.0157540909892940	0.0129112369538157	0.136793991882162	-0.132181329160561	-0.0446962025447201	-0.0141234763081933	-0.118926163970184	-0.0142311488162125	0.00880608552737537	0.0930114500473126	0.0131454078523229	-0.176756307235264	-0.0334320730685204	0.0249651396837847	0.0332404913102268	-0.0136561374631119	0.0119036339903211	0.0928899426086308	-0.146242641198807	-0.0194032807845002	-0.0443958531402478	-0.0555308164663859	-0.0535354981586331	-0.0257965824607555	-0.0647784561656299	0.00815803073495153	-0.0351603238567986	0.0884845006306720	-0.0322653640845515	0.0584123564318773	0.0396238150306313	-0.0424768699256208	-0.000830512738083116	0.106649806904853	0.0126453801466906	0.0663097066761753	0.00519634963720879	0.0300940644312582	0.0125353474768419	0.101388814109868	-0.0177134974821637	0.0510208912011743	0.0230569756962798	-0.0493646428930839	0.0124541975682287	0.146899217945550	0.0275104072394296	-0.0487783599057688	-0.0121115029757983	-0.00165435147374104	0.0287878542046969	-0.00954027345364651	0.0928286837432264	0.0688165398222179	-0.0416055245082345	-0.0606722944210841	-0.0282130877147563	0.0924991614617359	-0.0592979829446293	-0.0222217102429177	0.00683061453275085	-0.0755815305386604	0.0340556226317923	-0.0202856234483525	0.0244395586465959	-0.0868334907677355	0.0577177364441652	0.0133863663434017	0.0533718896097682	-0.144592044013440	-0.104052679221627	-0.0245422515339235	-0.00632747552260488	-0.0431757676913274	-0.0257448878560017	0.0316523524102165	0.0670189387164930	-0.110244914742948	0.0760989067189534	0.0480687673805325	0.0423748041975557	-0.0258646477166861	-0.00765070111030903	-0.0115873065879643	0.00346043765800277	0.00211281689372976	-0.0351113743899151	-0.0494690846616322	-0.0101724791638515	0.0914313115603156	-0.0732579407602261	-0.0934956264405070	0.116946362131409	-0.0620573665839269	0.0893483449903253	0.0195300044416546	-0.0469095270538362	0.0482387153304098	0.0167660651124132	-0.0849648863797767	0.0983126015943723	0.0567952468989019	0.0776476883578720	0.0541849852723101	0.000749138020882163	0.0493009236080848	-0.0845893821481915	-0.0565270294806675	-0.0766498107256322	0.0897827344544386	0.0345088105019292	-0.00131223745695147	0.00100595054781802	0.0191066927794173	0.0170504813739760	0.0257385594881484	-0.0145777762284246	-0.0255182573842909	-0.150273362329175	0.0151029622737473	-0.0404793717288417	-0.0611396984961072	0.0141623073904374	0.0373409847046755	-0.0422703660041360	0.124238249484360	0.00214379192091738	0.00471412525862435	0.0186585990346398	-0.0860364442179139	-0.0253036507814526	-0.00793129821095490	0.0814007929378979	-0.0881297950332991	0.0504413972040586	0.0185677105469394	0.0739869576976166	0.0132683649913341	0.104770911815400	0.0159861115768707	-0.0645568937569879	-0.00751863113355513	0.0106404283635421	-0.0885022970217928	0.000242948232870979	-0.0345605988650749	-0.0809879647068539	0.102355373603478	-0.0812977039925491	0.0263866774067628	-0.0711619256766327	0.00487454002576170	0.0640945010230025	0.0305977518403974	0.000619580074970536	-0.0510361794833958	0.106393399004157	-0.0215391942356722	-0.00285424568908840	0.0160169605817546	0.00666479760301174	-0.00308478461653343	0.0629168792503014	-0.0770040426892427	-0.103997181411548	0.162553389888418	0.0564552492272241	-0.0390207816954785	0.0410038751080938	-0.207980877385369	0.0243957219113121	0.00212042155701218	-0.0414369101626867	-0.103834792307933	-0.0498021196056717	0.110549257395131	-0.0364114522307145	-0.0684415980782457	-0.0318166050220738	-0.0539992274776587	0.0136035362869692	0.0216815911499449	0.0338925040791584	0.127805648374305	0.0456848726027260	0.0292868580983195	-0.0884046969024207	0.103791739924704	-0.0649232169708024	0.0288032341316662	0.0318976941985605	0.0439760683674398	0.123800544694492	0.0785482179772632	0.0509368130796461	-0.104659323881405	-0.0478299788703406	0.0299677750036851	-0.0627268497844005	-0.0817593924511733	-0.0105744723655118	0.0193702078391240	-0.0268406452860092	0.0503889294987353	0.0164472046753031	-0.0488284682748100	0.0365144247571435	0.0657053629349835	-0.142468950035857	-0.0340184362203728	-0.0490773190718082	-0.0618852240385215	-0.0313143685682421	-0.0692557024379655	-0.0898969698904681	0.0355613330122429	-0.00936127566514454	0.0248029423188741	0.00373145075325992	-0.0460768428456288	-0.000712347343539568	0.0358583401547357	-0.117040237998450	0.0182438848872662	-0.0205016092234259	-0.0501258686512767	-0.0465269229854265	0.0136759996263337	-0.0598544088401769	0.0534411503026147	-0.0492124241070177	0.0122755550160966	0.106540587776268	-0.0565762046468359	0.0589683838914087	0.000489296248880244	0.0405591916378844	-0.0454154889658126	-0.0262748821643743	-0.0129047503706003	-0.0312753607719265	-0.0882329661719991	-0.0458711070961431	-0.0703557780429691	0.0840733667880217	-0.00239850241959917	-0.00397327565211721	0.130879443494630	0.000623376013509564	0.00394629349093087	-0.0539602768128180
0.0490975173135301	0.0997840008452857	0.0426349202573929	0.0282599676221188	-0.157981016715667	0.0463099025072087	-0.0154915472644158	-0.0372693367453362	0.0630670418319275	0.0881149931100718	0.0251836476611877	0.0209977919869853	-0.0704768653719965	0.117113588934618	0.110776296336162	0.00957634625683168	-0.00347459390287297	0.173879572885160	0.0857403374597332	-0.0407125411640956	-0.000429977981255822	0.0583419937869297	-0.0204493020561179	0.0179735930341428	-0.103030621725840	0.0226550197039475	0.0669256829586016	0.0126988097613851	0.0610992937437330	-0.00413919912713330	-0.152245075040213	-0.0487687375633466	0.00714599522247871	0.000857256038474252	0.0349670882344746	0.0177751766649667	-0.0920436089214593	0.0495944949189635	-0.0217986335052253	-0.0280542513524543	-0.0947864674333514	0.0335686990469010	-0.0140450709112453	-0.115352891319342	-0.0367136256496164	-0.00672508720828433	-0.0304885414584444	0.111197916865049	0.0148532721252319	-0.0234342480233800	-0.0843287667327153	0.0222001414002332	-0.0453010405678345	0.0347077729624515	-0.0231827436120727	0.0513640828491815	0.0675151603181051	0.0523766155669017	-0.0313049544524348	0.0142456993639195	-0.00939641338076877	-0.0849808047090672	-0.0246332778786336	0.0892821364210347	-0.0257829898538723	0.0518528098108611	0.00646012909392142	0.0501329691177652	-0.105266936653713	0.0295063199215777	-0.0391269318497917	0.0166050376491241	-0.0292973459107658	0.0893103416784121	0.0194033451584061	-0.0184130072156458	-0.0307393912416429	0.0378954117757911	0.0622151702345850	-0.00984123120745387	0.0162992121194286	0.129092556921252	-0.142170831892016	0.0237281155550755	-0.0647951036261055	-0.0208924003546169	0.0229676358728702	-0.0186712475285557	-0.0449164708599759	0.0556665596485166	0.0350389856810943	0.0414111269507673	0.0395070036578611	0.0845972969101800	-0.0449480331733309	-0.00136962621529200	-0.000759172027421660	-0.0779013051924501	-0.0577938548385530	-0.0106790702585052	-0.0270896794563368	-0.0217363578915996	-0.0551300937923113	0.00684342468210359	0.0687017608599205	-0.0345779279163480	0.0511844564632204	-0.00998655902146877	0.0442503089749119	-0.0497469999554615	-0.0814575625088411	0.109598899554754	-0.0147533426301084	-0.124760794444336	-0.0236751507717435	0.0791167873787030	-0.135380738533799	-0.0541748278645323	0.0950605594026288	-0.0598045944687941	-0.00491985782741287	-0.0609194289268063	0.00562601229796188	-0.00427493710726970	-0.00979056967387256	-0.00646551421867286	-0.0319829765711991	-0.0810388684453740	0.0481486598928846	-0.0208019873557412	0.151220361796946	0.0203008772377673	-0.0182494287344350	-0.0792781591803948	-0.0457531135017992	-0.00426958557597802	-0.0144268185943039	-0.0415105225652480	-0.0384547840225767	-0.0340715335580890	0.0608139089299298	-0.0740248180107279	0.0596056340936631	-0.0181825857559241	0.0332864185540253	0.0816870543060871	-0.0814909173743087	-0.124037114680950	-0.0634821709017285	-0.00899734140098420	0.0680176357573851	-0.00819581878413739	0.158065703677868	0.0181857025750560	0.113787421747716	-0.0291475247371398	0.0116798460798574	-0.0357654842771729	-0.0687370940328203	-0.0231896124916869	0.0735539976234024	0.0342311714819248	-0.0825470582469951	-0.00204481915135393	0.0925912956785562	0.0183686625991096	-0.00223841250333400	0.0796474570584899	0.0217183736028774	-0.0884150806142649	0.0548377316502757	-0.0679290106149129	-0.0701087117175233	0.0137389807883320	-0.0104872667347507	0.0236294898292233	0.0585211016812751	0.136583192382210	-0.174986194065722	-0.109253739677859	-0.0469814520974202	-0.000178187501024918	-0.0284380883977836	-0.0558113895915298	0.00601955527674980	-0.00577180619146994	0.00819743519820539	-0.0766521418772458	-0.0350129982860604	0.128009944874600	0.105826420446138	0.0488328470844936	-0.0469103153293010	0.0928788447298811	-0.000206560912421195	0.0661323736983752	-0.0393052778789196	0.137706305565371	0.0692502474744192	-0.0452005602841605	0.0397886293771478	-0.0182324961308937	-0.119537295802281	-0.00802937208709495	0.00539999292316732	-0.0409730902598887	0.00662838873276373	-0.0245452993826314	-0.138614473791748	0.00685968748969858	0.0384772553263361	-0.0460601498568260	-0.0272619858459364	0.0665925565132326	-0.0828208772745910	0.0444585428962189	-0.0885217112803245	0.0256024655593369	0.0120084289920658	-0.0419263377237021	0.0128692303809894	-0.0302116774107257	-0.00102223100337930	-0.0647836959629725	0.0324454305173552	0.0222844491379043	0.0700661476243883	0.171431706769164	0.0385473869969935	-0.0588519243885864	-0.0388501917235202	-0.0759264492156187	0.0102549086713929	-0.0413635056361850	-0.0261956925409228	0.0261923022019783	0.0382665843317956	-0.0439262349635983	0.0578853527344633	-0.00732761180509975	-0.0391754695050790	-0.00331594546721046	0.0968635558334279	0.0556968874376004	-0.0929390596258743	0.00527208882818308	0.0442880961505388	0.105245729875624	0.0323321585908475	-0.0590201306382880	0.0451119008186502	0.0523238358118614	-0.0241774627602179	-0.0818941841130992	-0.0385133143713745	0.0296207398143161
-0.0840497938730020	-0.0348711382530759	0.0412681406780834	-0.0715189391833248	0.0529728583028409	0.00288436923071913	-0.0138279702017576	0.0178298878565613	-0.0111933858031352	-0.0277700467550557	-0.0490249495044004	0.0590592598942174	0.0661457438215894	-0.0691078921874675	0.0225374040272380	0.00411052012936958	-0.0219967001838419	0.0549735453030960	-0.130720305497548	-0.0795418198832911	0.0842835543797140	0.0295011061393006	0.0980657068687210	0.00998680942918617	-0.0453175031712207	0.0215638128755166	0.0619685772952054	-0.0424079764256686	0.00578653481506107	-0.0124254804222763	-0.0104102558129716	-0.0465870279537275	0.0304652052778800	0.0573825429123607	-0.0197790081172941	-0.0825404411226116	-0.00461057508914254	-0.0493353280718078	-0.00206983461771680	0.0763507550286981	-0.0763325369744740	0.0340267569779056	-0.0234472529975133	-0.0196123168310551	-0.0186103920413542	0.0287882583803113	0.0191697099846860	0.0280157863528772	0.0642635004005920	-0.101775682539973	-0.106394491645858	0.0393300240509439	0.136133533175011	-0.0426983256609835	0.0200415907654451	0.0309539287971032	0.0526505094154592	0.150135251548584	0.0208410747078139	0.0527646100966021	-0.0373781696442733	0.0549899616144176	0.0668411372068299	0.0313850483982988	0.0494498297350087	-0.0156635238590004	-0.0136175491996807	0.00149203454191708	0.0622736606927249	0.00166281642517658	-0.0390440276640161	-0.0565420128391470	-0.0802064781720940	0.0904059618515902	0.0128141478205854	-0.137975039103538	0.0159236571286765	0.0599225525641519	-0.0275254036929307	-0.0301327871916252	0.0521041985491342	-0.00215956335727665	-0.0574604235100226	-0.000855613915370638	-0.0713168035591932	0.0770550254533191	-0.0979704110881565	0.0383860939506048	0.00751682565890612	0.119672046723036	-0.0375930367869388	-0.0843336248370371	-0.000877312456939223	-0.0444886162966019	0.124363398569217	-0.0367891237240373	0.00503758418380114	0.0346679031949760	0.0573129252467222	0.102449266696332	-0.00801647140050984	-0.0166629541014801	0.0232612048568547	-0.0830767968375492	-0.0979553782946009	0.0485372643835602	-0.164464559283929	-0.0188142317360181	0.0254476289826185	0.0215576651154306	-0.0474410536988765	-0.0349882571277037	-0.00944363393067404	-0.0416288370909832	0.0346352871412278	-0.0746941222921246	0.0715025536871123	-0.0898457324410859	0.0340459315829509	0.0676048947021883	0.0647768743565063	-0.0754640763734513	0.00953082194329128	0.0551773501839376	0.0558468108251054	-0.00757005532489024	0.0407923117883768	-0.0639929566240330	-0.0683331297660859	-0.0200425999985836	0.0190273609620176	-0.0744168153273739	0.0523033774257956	-0.134034461362128	0.0593304173255959	0.0208318916682110	-0.0110569183545937	-0.0130364364637125	0.0725424273197634	-0.0126083100937804	0.148833771071308	-0.0191161700984713	-0.0183637645291150	0.0138584673125247	0.0724955512523976	0.0462998298341485	0.00423462573913262	0.0136508582428254	-0.0385345419198746	0.0622229929348082	0.0843246139429229	0.0343018855665887	0.0807935685173199	0.0845301271634591	0.00957451337731332	0.0351884381476959	-0.134267071122699	-0.112073658925676	0.0207577579706365	-0.0755037154009260	0.0161127624154460	0.0173730507893038	-0.00739799302107048	-0.120730430181499	-0.00457016483697530	-0.0350279814299805	0.137396653125723	-0.0764361108738665	-0.0788588398703023	-0.0240887976677270	-0.0796206472000919	0.0960043657398691	0.131943153420792	0.0522385902834082	0.0286090267785250	0.0780349451599618	-0.0353979062332511	-0.00470128970961385	0.0114976032782506	-0.0846291937175619	0.0291454690794072	-0.0522074874782252	0.0721597857470000	0.0445054303426774	-0.0110257302019211	0.0380642967713255	0.0781653159082127	0.0350306271803932	0.0192396104474821	-0.00172019798271358	-0.0140162049872911	0.0766758249548566	0.0207295651606034	0.0620628961804400	-0.0886688783733136	-0.0673318425701481	-0.0165268963518300	0.0464737675018998	0.0294021289653835	-0.0143950503587280	-0.0694608055084668	0.0909201905470478	-0.0473243671186164	0.0198073419286941	-0.0315624247944459	0.0225683613696428	-0.0315537508599298	0.0402263909375131	-0.0336325777753050	0.0247689847742594	0.00742736688864311	-0.136316034765938	-0.0506229234129795	-0.102836627805949	0.0586937555402457	0.0586417005126342	0.00314875028464831	0.0805527542847981	0.0514748521830728	0.111435794347094	-0.00143045346081075	-0.0262003489372150	0.0177179036090448	-0.103610272013335	-0.0412477162601816	0.136401908166459	0.00904854339075789	0.0161753018758586	0.0552308087504606	0.0228838361311545	-0.00416933484330542	0.143763589499607	0.0711767410427287	-0.0480656523656393	-0.00454464509634562	-0.0526394807344003	-0.0811077863094562	0.115131808934488	0.0125429866821260	-0.00604768505645620	-0.0206972316155160	-0.0370805402555279	-0.0494789890333835	0.0298413516417984	0.139483217594927	-0.0409287245040316	0.0856002334293022	0.0134447765184300	-0.0853873420984066	0.0322351019760917	-0.0383117969773342	-0.00321093124531312	0.113092892209349	0.0158724051889498	-0.0234786509530926	0.216771355331093
0.0448276731570253	0.0406861180507727	0.0351907659605261	-0.140457055568678	0.0435222793971909	0.0509529186733251	-0.00507684037620820	-0.0270263833027288	-0.0427453375177727	-0.0298656475151539	-0.0213929610453651	-0.0316721552877320	-0.0201189918653047	-0.0605019013046613	0.0579293816001872	-0.00715586242309189	-0.0933531019856949	-0.0471618145171495	-0.0633764805033765	0.0785261534432093	0.0842884493411620	-0.0348081066725929	-0.0127942664352703	-0.0366114323962217	-0.0359583288828619	0.000449193666050209	0.00471478864182764	0.00636141888846161	0.0223009854898777	0.111222694419388	-0.0316000983313984	0.103466818673148	0.0369036953748617	0.0126100196996526	-0.0232209352420819	-0.0459139110761032	-0.0303705386601847	0.0220244011703213	-0.0251918537575039	0.00266417079979687	0.0154825678266153	-0.0391989094137245	0.0546745189374405	0.111847824410755	0.0109012764756815	-0.0274663052148322	0.130565178456961	-0.0377018437818667	0.0673813744353410	0.0519109114701470	0.0428669233036323	0.0541272273330104	-0.0154482736070703	-0.0946892703162277	-0.0842887379029168	0.0722893226399949	-0.0512871104511018	0.0313572089547402	0.0244531257702956	0.0367146070689272	0.00542911946080227	-0.00922240096221592	0.0174169744278518	0.0248667654751332	-0.0255479919371202	0.0266149706350278	-0.0679041637950862	-0.0388239136004218	-0.0558005954874330	0.0523132398656083	0.0597141440321283	0.0665749401645771	-0.00796716838314995	0.0207758362222390	0.123027231949291	0.0935240137993898	-0.0417345464250832	0.0138349189109907	-0.0348811494134079	-0.0264747817993824	0.0318114003985886	-0.0870681860734530	0.0380090304428791	0.0365422975718687	-0.00196641716550417	0.0145161142468717	0.000833725054864169	-0.0262560605572756	-0.0142495740215985	0.0963939444839976	0.0545035391334200	0.0263493472665100	0.0825271415801442	-0.0354831361234555	-0.0723855210986091	0.0246251424887186	-0.0286798911392902	-0.117980211905815	-0.0416986794952426	0.0524967974792576	0.0879785292313044	0.0129716918139260	-0.00382077728024941	0.0337544524113239	-0.00731566080627536	-0.0752277029016119	-0.0241443293406269	-0.0548295652682073	-0.138857292307921	-0.0650876691819011	-0.00505838808950132	0.0831101183764906	0.0536892498303074	-0.0764515568452465	-0.0167146905628631	0.131069692686317	0.00979970686918759	0.0175613179603228	0.0575474646825967	0.0414751787050489	0.141531925836982	0.173749360637689	-0.121677648326778	-0.0632003769740984	0.0608396982012848	0.0108489855375265	0.0317015818443282	-0.00574988225594443	-0.0434485021842170	0.0343923758473811	-0.0111106024463060	0.00630427381848223	-0.0272619517443674	0.158077161864423	0.168507967667555	0.0954096299723120	0.0144153582273278	0.112799691433645	0.0317923662709947	0.00960764315390552	0.0385730017143541	0.0192429731189593	-0.00373526421895001	0.0688102523347221	0.0282327341191768	-0.0722569187172309	0.0704033864692598	0.0287160503707770	-0.0441393013465183	0.0708629811306595	0.133204005988916	-0.0330477840477107	0.0753461684199289	0.0319863628799607	-0.0870016417081486	-0.120185544881262	-0.0344970714754604	0.0293218236802176	0.0632621782741680	-0.0951158282290660	0.00156409546976794	-0.00481350870481638	-0.107210340502265	0.0828002064232532	-0.0746601498658938	-0.0884483516351105	-0.0933306416764241	-0.0967673997706957	0.0934229084200291	0.0175365091869602	-0.0654397848011646	0.00629400051663990	-0.0677514874228729	0.0339887643166914	0.0336033051126552	0.0267580447148698	0.0380235850414510	-0.0346315271080956	-0.130273152313488	-0.0130419943007703	-0.0357927618880327	0.0797851612293475	-0.00691519132629702	0.108477793082612	0.0243779702286806	-0.0210906923742146	0.0365465382675153	0.0221635252984694	0.0304815528895100	-0.0765020602773525	-0.0456630158098629	0.00950582885228258	-0.0770663355310701	-0.00814739965767423	-0.0302976912886292	-0.0876242388631788	0.105046071850561	0.0452073151867724	-0.0625406784221943	0.166770231993311	-0.0575830225360953	-0.0490087127901428	-0.0923823054081739	0.0648396933417150	-0.0740201419903975	-0.0508779657562541	-0.00689323836249365	-0.0192405346218980	0.0532771851756384	-0.0602973007957657	0.109326773044800	-0.0436138479098853	-0.00972272663491131	0.0211226745574109	-0.0129422244566219	0.00207071054456730	0.00218007711239181	-0.0557487649242846	0.00845015088055859	-0.0364761014233725	-0.0437743035194268	-0.0401359519588794	0.0234208857332765	0.0388768029969044	0.0743301658388719	0.0944919872932137	-0.0201710041122610	0.00840325604064922	0.0352511513087865	-0.0706574554782583	-0.0452545290455384	-0.0764243980562317	0.0596547416262330	0.00382510688689417	-0.0716415086824343	-0.0549091113650851	0.0678899109545343	-0.116702529103340	0.0964693302036417	0.0881067569726855	0.0120316288907965	0.0151757176145544	-0.000290144705593717	-0.0240130202205153	-0.0236876315245614	-0.0635569067450552	0.0549745656378146	0.0617109237844768	0.00554525528994708	0.0869325647173144	0.140946595160007	0.104035812816889	0.132080782873961	-0.0279360154963735	-0.0568802901620974	0.00997176224533315
0.0533831301108776	0.0666187111809719	0.0402676928246197	-0.158906962563450	-0.0237982845679083	0.0503981304678360	-0.0671842435719724	-0.0211586966856412	0.0185412718590735	-0.0328166661704868	-0.0730627707915400	-0.0748988579023941	-0.0939758210159833	-0.00395265603327817	-0.120395347336438	-0.105863091533566	0.0580034566763701	-0.0297268696554864	0.0818481873363364	-0.0812878486204896	-0.0964669862403993	0.105117104042609	0.00402718461992255	-0.0487454744293024	0.0332290649096866	-0.0207535267284331	0.0133896349913560	0.0447073710741128	0.0344312041047975	0.000874362686726598	-0.0113432532871677	-0.0354634465188795	-0.0104273970561756	0.0182523959881644	0.102696601011778	0.0352248560079236	-0.0561669596191386	-0.00898251710332319	0.00657955531825681	-0.00258544331909610	-0.0463797954757804	0.0359138722134764	0.0295354815616270	-0.0415682724959173	0.0175109925046565	0.0390412937893083	0.0589729401177894	-0.0411275128753317	-0.0282343591363776	0.0705668806637278	-0.0153650875164135	0.0937831223964172	0.0664122991591968	0.107852199574687	0.0215717166697353	-0.0310238308058296	-0.0108109356797568	-0.0734048355188466	-0.109582751059541	-0.0589357109966941	0.146114304819952	0.0665115888443259	0.00697510816810241	-0.0277557473389675	-0.108541889477666	0.0849901681165591	0.0318361618273254	0.0784753942922709	0.0224608136500798	0.0105877288008908	0.0768066373927314	-0.0630766933343620	-0.0184310389618626	0.0487904810668109	-0.0147229572487962	0.0448348806054999	0.0425003659014577	-0.0386804643362667	-0.0384311297492057	0.0171526467901595	-0.141599654708181	-0.0858287344369331	-0.0285497643175685	-0.0393523021185407	0.0687739014027647	-0.0689127089357022	-0.101978495587016	-0.00692893589612434	0.0478125947327608	0.101362557687831	0.0984403524961802	-0.00541052651152116	-0.0831714645564965	-0.0257768502090847	0.00886878487118661	-0.00275525205291904	-0.0310640940448488	-0.00957959783843501	-0.0290387895899753	0.0896352065785541	-0.171578972815600	0.128786689500694	0.0752142473945341	0.00380092061744227	-0.0442262676489878	-0.0571356036819712	0.0598899834351690	0.0238713509037598	-0.100442425500586	0.0137155523785786	0.0378920490109071	0.0730666763905894	0.0270886756833770	-0.0390892325456694	0.0354175905175634	0.0157845958343146	-0.0627520537370624	0.0157682623697131	0.0179138053453138	0.0367604497082168	0.0433378224484803	-0.0470309326544173	-0.0415996392125981	-0.0579331359070296	-0.00428603795446800	0.0241956080932710	-0.0203552424499739	0.0814542426493911	-0.0169486001269724	0.0684993160992861	0.0892249708951738	-0.0595820986291729	0.0369992255841942	0.0424304999152151	-0.0426547328445457	-0.160995651491265	0.0732860786356446	0.122291647461622	-0.0161346379017446	-0.0499423205261771	0.0585890307403869	0.0262718036397270	0.0667142553210282	-0.0408082467960803	0.0569632445302815	0.0418661229451060	-0.0479486317247640	-0.0207166792170767	0.00912108340334553	0.00491974170224028	0.0598432889317446	0.00779753839257074	-0.0613965802113564	-0.0279952640289759	-0.0949637809143131	-0.0123390107155242	-0.0838218821356207	0.0451640008405934	0.0742581878459682	0.0654206810236189	-0.00869203381579678	0.0352678056671925	-0.109810382886839	0.0655626257381392	-0.00714378658031147	0.0889816772925074	-0.0170703378965583	0.0362883154104626	-0.0727136358616456	0.00990855594012565	0.0533152890681163	-0.00708579122008378	0.110093461923937	0.0131556421583177	0.0174417240252117	0.0110731039013462	0.124954154849309	-0.0600243067727920	0.158576916539441	-0.128710832247844	-0.0227058423779932	-0.0382031595143461	0.168926365989077	0.0592820812159703	-0.0412468203374379	-0.0554851389685578	0.0452741390660451	0.0324953198794537	-0.0101738860174411	0.103699523206228	0.0155942591906365	0.0186543492756748	-0.142353935980093	0.0334710136261012	-0.0140018330222840	0.0977765613882943	-0.0652102820291857	-0.0687165461382665	0.0195433191952249	0.0431569896537058	-0.0710625086302070	-0.0689501669445354	0.0319103926563344	0.00530446711703746	0.0662282427556239	0.0120786441466403	0.0272169259278003	0.0731129929085171	-0.0270731991141205	0.150298530655069	-0.107978097727575	-0.00323026780687900	0.0462636221082252	0.0174730032374000	0.0698138617234177	-0.0228888184917252	-0.0352327520566634	0.00562247696679433	0.0384622215650311	0.00205406057505279	0.0813648928461006	-0.0643220307830137	-0.0227583366082503	0.0298176772030341	0.0104705332174210	0.0820625995718776	-0.0698574947332444	-0.0195987069901248	0.0821049065276467	0.0267837370918931	0.0872120157291849	-0.0643996298391802	0.00702382645699229	0.0503012643702807	-0.0263097228458935	-0.0433177926724241	-0.00822792375822391	0.0371447965060836	-0.0627756612002278	0.0852244930919947	-0.0730412486917146	0.0123469203794134	-0.0245353026054386	-0.0421409658388316	0.0335190698390602	-0.124114049987948	0.0793836066501655	0.0540281011970832	-0.0909748419821323	-0.0688815009993053	-0.0346833667615942	0.0436086469871942	0.00637945982369397	-0.0189672743613239	0.0488793292041697	-0.0666160322343476
-0.0325735437713779	-0.00182832467003416	-0.0545919808850230	-0.0224044212234226	0.0117826996072922	0.0946810801642546	-0.0244029863408675	0.0147531752286999	-0.0353035487048193	0.0939673895804242	0.0327639238644576	0.0654910772235107	0.0111712713937399	-0.00381337816081163	0.000550979630320583	0.000475022350493718	0.0838032702791250	0.0256261010682987	0.0115671224952778	0.0117629698516068	0.0386257708961774	-0.0246259282043356	-0.0463822191242286	-0.0547268452863491	0.126868792574949	-0.0672277183149648	-0.0480977289754755	-0.0800099763692924	-0.0457901917977528	0.0390119240411586	-0.104656983205184	-0.0299416751567141	0.0120492954217732	0.00303203658657557	-0.0205204221063119	0.0173688184330747	-0.00329752705297730	0.0838158797503565	0.0244714336357806	-0.00589751051331846	0.0751974027637402	0.0201167969378273	-0.0254735289544119	0.0682175803558064	0.0621793160817845	-0.0598667099787366	0.116702546972028	-0.0311595412823174	0.0502580250587550	-0.0142830276696021	-0.00298934924102444	0.112032843615008	-0.0424107269453774	-0.100653285637257	-0.0178224515269154	0.0788614481759716	0.0611305656478702	0.0690475136136517	0.161709300508401	-0.00306281287895002	0.0140443779579204	-0.0163141273031470	-0.0418967158885775	-0.0387844945061536	-0.0871222536956304	-0.00646030993785402	-0.0531208586978588	-0.0263060900002085	0.0747120040473213	-0.119008907569732	0.0765918674498118	0.104845612446017	-0.129147718888963	-0.0317771879690259	-0.0636001624651757	0.132193180838108	0.0198986113132048	-0.00980847348846384	0.0388028882708816	-0.0159732021874553	-0.00119828425128930	-0.0361075171068633	0.0406555163934201	0.0187630563202045	0.0406634132831209	-0.0464634595954453	0.0538153322773706	0.0403571786986381	-0.0421945089961760	-0.128391218592749	-0.0449782839852422	-0.133848961403117	0.0382351707527170	0.0871566467400862	-0.00726752153943746	0.116792739707741	0.0844645732771092	0.0621793161860803	-0.0330097194704078	-0.0512412238955784	0.0177466658533224	0.147715104943908	0.0730975219461211	-0.0192117889795184	0.0268542334124897	-0.0648684073088001	-0.0978649670816225	-0.0323349623095849	0.00932020293105306	0.0518702307336772	-0.108736139320692	0.0662578400690464	-0.103349300100268	-0.0581174691265244	0.0700839826966377	0.0142361354768773	-0.0585427479616958	0.0337547845253453	-0.0104329467872841	-0.0209063724336246	0.0435884232051950	-0.0249713801123375	-0.0410988049298258	-0.0853256780441232	0.0194992514381050	0.0209207850595049	-0.00743195576034563	-0.00183843047912457	0.00575308675339221	-0.121568869204411	-0.0384264965689022	0.000399583885447518	0.00576237444977137	0.0357457867086471	-0.0295960900152964	0.00996138125492501	-0.0938401518728665	-0.00215801137246382	0.0775679776282227	-0.000118747553939243	-0.0438013958610774	-0.163152345501355	0.0535276513641036	0.0280140130491138	0.0170706656616373	0.0279036476156736	-0.0356624038835282	0.0115226854123652	0.0859886976078288	0.0281000727655975	-0.0211993043649359	-0.106765546044598	-0.0384750228208424	0.00169681468681940	-0.0748293482451107	0.0829985929653108	-0.112707726907368	-0.0342529427081355	0.0890769379284999	0.0474447626091573	-0.0390105699334460	0.0718471524876755	0.0819428979223638	0.00322004229905279	0.0677139146473367	0.0302484868223119	0.0156471314577840	0.0232215721141839	-0.0352883431721241	-0.0351017576725250	0.0347333557295931	-0.0664753531395090	-0.0888639571987902	-0.0546112074090133	0.0577100254579056	0.166474920037861	-0.0231689659237298	0.0972141727816133	0.132919499753727	-0.0463424072592438	-0.0157637095806400	-0.00454446841502926	-0.0496940978561546	-7.16824396216928e-05	-0.0243175600552132	-0.0221838227068691	0.118565250042399	-0.00319726720502147	0.0638006081355919	-0.0392718313314892	0.0120506223775595	-0.0207240618339161	-0.00618423616987496	-0.0262990180548075	-0.0310182288685471	0.0321293042103526	-0.0380290833448789	0.00214470279980416	0.138068630813434	-0.0229406314755667	-0.00261759676936232	0.00937293382291068	0.0295297395470888	-0.00582105879575308	-0.00882077072346594	-0.0803403281062024	-0.0116765193797494	-0.0238482752924461	0.0623863553618067	0.0190908405688492	-0.0109355172198782	-0.101062088081663	-0.0702541635037891	-0.00848197442325393	-0.0924942453284025	-0.0649597812446243	-0.0841256924245698	0.0193671890736790	-0.0222090455004452	0.0809602291031865	0.110394930336150	0.128803228631168	-0.0584464388692370	0.132797889327380	-0.0126019501745655	0.141832410413481	0.0797185325893733	0.0447982456190966	-0.0536512953388827	0.0287904193616916	0.00221485775721656	-0.000437222171012432	-0.0358310483137067	-0.0336554118838556	-0.0434594745879140	0.117829801613362	-0.0934826631183750	-0.0131634522280270	-0.0517312024753794	-0.000390958666930988	-0.0842512325404164	-0.0913821240032492	-0.0831392607628290	-0.00529673623385571	-0.0455760339750230	0.0392126658213723	-0.0418129992918693	-0.0175465555731833	-0.0402465396346185	-0.150924650373012	0.0584434570153306	0.0132032444852989	0.0545196952054837	0.0306360571232247	-0.140603845563886	0.00264123951922313
-0.0899364570979932	-0.0469944533360160	0.0637328125359624	0.0286401497448215	-0.0704552962523972	-0.00415867122052755	0.126073243841574	-0.000390689517140164	0.0131124291292456	-0.0427073126288645	0.0756158782109799	0.0340217712757626	0.0170731260974794	0.0970746463922313	0.0394188877923111	0.0585964210648561	-0.0773786601790873	0.0179885310764190	-0.0519159539483403	-0.0759590832231283	-0.0935619441872316	0.0163842945743508	-0.0188319873598119	-0.0183547995438723	0.101702834512911	-0.0357539886298458	-0.118363741841015	0.0736059376156427	-0.0110658640423642	0.0473083165038517	0.00958038252977491	-0.124542578042228	-0.0485677574766742	0.000891125267660258	-0.0912736039231114	0.0619533946387688	0.0626409228002508	0.0482456895393611	-0.0350424088988275	0.0257036869805082	-0.0264504555740450	-0.0652415052252595	-0.0840378232381932	0.0718004152381705	-0.0796380836354872	-0.0231959164778296	0.00460381145127359	0.0449619441302920	0.0304949526662157	-0.0676605631912602	0.0456552590024047	0.102780678782929	-0.0481951810541466	0.0385521539802636	-0.0512876878752468	-0.0135399050462159	0.0435526046659523	-0.111513215687892	-0.0338923353601396	-0.0656515902736109	0.0589957399016023	0.0100735471082483	0.0666974396774649	-0.0509172983914708	-0.00675575548037796	0.0749520727498414	-0.0127698607519815	-0.00337522049852755	0.0937033274057429	-0.0178490223768165	0.0150164943229824	-0.0505700273506050	-0.0465979142095156	-0.123120856570692	-0.0684267188679846	-0.00526772194684225	0.0124604462098416	0.0915384083486050	0.0305670935540107	0.0530375250263482	-0.0684042189925269	0.00438221898433302	-0.131345070857385	0.0362813089026358	-0.113063671026437	-0.0841793152492210	0.0326500284227302	0.0613685347823432	-0.0156122141327869	-0.0755905573758824	0.0577761183365898	-0.0135356361808542	0.0624840666796846	-0.0837846955047280	-0.0230989421159004	0.0293265676999622	0.0261951724888484	0.108226217648769	0.0687227847877920	-0.0146422969992460	0.123447403668825	0.0755235161653109	0.0393911876637604	0.0131841409430856	0.0408042734952055	-0.0950366683705727	-0.0554033002094688	0.0438839784703987	0.0976433803576678	0.0313523025600117	-0.0350143209996479	-0.126428970340323	-0.0325392692532520	0.00897895353877344	-0.0368089583084101	-0.0360261772463077	-0.0247478333093324	0.0394382856731610	-0.0124566949920271	-0.0907901341924755	0.0565539780323897	0.0345936580083283	-0.0644503105273120	-0.0499315350391326	0.0925917356793899	0.0886663574168550	0.0431703754825863	-0.0113657102590076	-0.114786258788265	-0.0101729880964858	-0.0441066994232207	0.0575557162405220	0.0448311783249299	-0.0961273559452798	-0.0917412963921700	-0.0322024574769911	0.0887617531515497	0.0709728823469358	0.100911386119411	-0.105339622132016	0.0183558187472362	-0.0171373887553293	0.0691403409856673	0.0706579131272409	-0.0459587557223395	-0.00817335139136878	0.0766858985544864	-0.0218415155798693	-0.0275346303828398	0.0427181540818888	0.0752731566707820	0.0687204607580873	0.00278334504862924	-0.0622730049060569	0.108378371668391	-0.107608478779017	0.000759675009749883	0.0325547237422336	-0.0267510929862070	-0.0861739905000721	0.0234157702861120	-0.0348169938294491	0.000929638093527129	0.0574826764928553	-0.000627984504096521	0.0575682828476146	0.0521009137800199	-0.0401531702255268	0.0385937495301706	-0.0387040592332132	-0.00941538722718274	0.0153958384034813	0.0856775225679662	-0.0391468399229351	0.0124021262887345	-0.00331111555962674	-0.0552935574648383	0.00860589859231943	-0.107688234520223	-0.114688595554375	0.0191761440881486	-0.0303371579040151	0.200855933851137	-0.0438185584255247	0.0463038047890544	-0.0227523435914174	-0.0560644494470234	0.0140180385664719	-0.0869831643424229	0.00901156877677058	-0.0579632409318223	-0.00484699893618978	0.0519356724023114	-0.0512156664549695	0.0908668772337768	-0.0649220657690853	0.00938687071089716	0.0305394790027522	0.0424465275057308	-0.0232759666982947	-0.147539566206636	0.00771921776633416	0.0589189739045999	0.0360117786717924	0.103090393349230	0.0674656354416609	-0.00297128740390778	0.0802087270290514	-0.0216065071132075	-0.0990487816687577	0.0560240684759792	0.0584405786936713	-0.0246330604691291	0.0226696583931193	0.0470694551376998	-0.0226753201289201	0.106247044812364	0.00774653370443106	-0.107337955488097	0.0197720365866823	-0.0215102102796343	-0.00434737842381186	0.0526345488230490	0.0377202512666183	0.0525623106864710	-0.0715793739802517	-0.0553063905164533	0.0967938539116240	0.136378417245389	0.0199677098849489	-0.00238483918246556	-0.0488674565608684	0.140936321274914	0.0413552303209824	-0.00695771275813205	0.0248978227504358	-0.0440124493905824	-0.0442317557774557	-0.0276121128949128	-0.0504100131985785	-0.0497648025859573	-0.0432438850618100	-0.0807554751826314	0.00544200133320350	-0.0380997791317638	-0.0935293603173155	-0.0186310082551105	0.0302143954043884	0.0844270463815147	0.0644375271358020	0.0518303923168313	0.0362242118739705	0.0874597993420027	-0.0394358336884196	-0.0852526404528541	-0.123787593969023
-0.0362540234168365	0.0226665497479302	-0.0653546678142517	-0.0175415748721306	0.0422185543548257	-0.0245632723383172	0.0337663148025477	-0.0401291177714569	-0.0577255760726050	0.0404388196883658	-0.0434307707472126	-0.0209464625027163	0.0270881653445385	-0.0302189465212442	-0.0246412074510229	-0.00989112230076330	0.0198166446789450	0.112891651716624	0.0706925442688690	-0.0134395749277711	0.0673670863889198	0.0152108922591460	-0.0186280647734197	-0.0614634744409869	0.0262124951824738	0.0139267998337017	0.0606778769811650	-0.0434462681489672	0.0577280567127872	-0.0162746861860014	0.0210935721636467	-0.0176719763705706	0.0291387680459235	-0.0123253351499652	-0.0842375663036012	0.0507158756369497	-0.0112973919929373	0.00461690105974683	-0.00908119518854069	0.0551341728569512	-0.108689568656631	-0.0360585243981790	0.00489151166860319	-0.0563545227393442	0.126752338754588	0.102713704853688	-0.0585645080622691	0.00644701224629975	0.00864758278240430	0.0163792049350426	-0.0307896842303491	0.0186084297251264	0.0128979593159695	0.0450632856271809	-0.0933590431393066	0.0668043875484284	-0.0770830640795506	0.0383119618303496	-0.0236683530203443	0.101238779505391	0.0255644442865373	0.0167726594398614	-0.0602110658397721	0.0706760049010733	0.128358241481894	-0.00176573119871463	0.0122807739038457	-0.0710172737961317	-0.0438783791295571	-0.0147094610906919	-0.120603424729396	0.00259355779051682	-0.132869278643137	-0.0402184402881838	0.0356443376753719	-0.0628656265400703	-0.0647549155804085	-0.00826133982004853	0.0434245955927528	-0.00449630143180057	0.0908107866453815	-0.00135494708233550	0.0139307983252965	0.0404489421395424	0.0178424254627314	-0.125237019121768	0.101585183618552	0.0798631066502769	-0.0421477790937892	0.0518414058875030	0.119399178768589	0.0200118753478060	0.00671338047897144	0.0150570992744281	0.0350050398212263	0.0410144209038464	-0.0725058090212061	0.0377421035092718	0.0519047302041103	0.0444137280588814	-0.0678043649788896	0.0569474751950210	0.00864215419718728	0.0332657177080451	-0.123749475948973	-0.00786011755153114	-0.0644239399938887	-0.0983492026563961	-0.0942954578247099	-0.0531908457316906	-0.113117090791088	0.0720540585478009	0.0485545444417978	0.0436716234736434	0.0674492337561148	0.0495860448830930	0.103209584801337	-0.00680789598467292	0.0238384734169016	-0.0399124717150117	0.0276071185051919	-0.0320448457556921	-0.0183675635491648	0.0753338401908117	-0.143455142821004	-0.123207672551108	-0.0306509494571174	-0.0365782862034927	0.0247143862917514	0.0337531179738092	0.0578706458701120	-0.0687712549246778	-0.0312029903936394	-0.00596570351242279	0.00372349574968280	-0.0503441706257859	0.0724899296456177	0.105899303895594	0.0622126582460894	-0.0200473170841793	0.0251815493325392	0.0391823190646902	0.105999700983962	0.121310546788649	0.00322686327670847	0.0193003748615381	0.0538316280541807	-0.0127130519743821	0.128414392511717	-0.0136919062085118	0.0405268517855244	-0.153154133599874	-0.0436189300759344	-0.0563922812388542	-0.0134627293052535	-0.00431804984318661	-0.0131093458670351	0.0305958844388661	-0.0731770402179902	-0.0426677195437541	0.00289070684442064	-0.0263682388926195	0.0703366412064985	0.00212439856214663	0.0441513852265292	-0.00150401774910973	-0.0544353285206411	0.115521005213999	-0.0153988045890597	0.0927623013084656	-0.0222078743191315	-0.00806984144333201	-0.0448330987354186	-0.0382313337827403	-0.0237120431511134	0.0241769945173507	0.0131073685250395	-0.0262831772271484	-0.0123398901554041	-0.00549597776530290	0.0853148928753165	-0.0684959827177946	0.0233183095189070	-0.0694881551355623	0.0575203218638565	0.0974929420381857	0.0530696102134484	0.0921951639166135	0.0156788476746902	-0.0169673968217070	-0.103005129923344	-0.0963506072409451	-0.0721169636462548	-0.123114972018708	0.0525914438999715	-0.0405725964601157	-0.0880360242336881	0.0176413461214794	0.0604396248346046	0.0176530067650077	-0.0156437392345679	-0.0628561196824471	-0.0164071273311490	-0.0734080747112377	-0.0349376378364003	0.136304062056834	0.0384111201694026	-0.0478819405977592	0.00918862825155440	-0.0990212413930391	-0.0503941716223777	0.131943692502625	-0.118949943422506	-0.0633937656755699	-0.116561137036781	0.0246398348219776	0.167593469684310	-0.0255948754532112	-0.0287726683896953	-0.0575961260774225	-0.0633829093154928	-0.00334187214558267	-0.105781083171927	-0.113750006596620	0.0323898992070876	0.0303282673248283	0.0161471143667362	-0.0113791744791368	0.0604796905196185	-0.144427106890954	0.0623704063320884	0.0685474187039763	-0.0396837384254179	0.0556436414799449	-0.0854798239945244	0.0775461424576425	-0.0233967428422463	-0.0710664666146465	-0.0562714807955586	-0.0196086806800117	0.0847093366974471	0.0528362791885412	-0.0995088966754761	-0.0722502058030311	0.00295590257189754	-0.0172760218790116	0.0479193136867993	-0.00906514352469021	0.127099320205812	-0.0768328560408958	-0.113642081414645	-0.0719138089779650	-0.0298859705869290	-0.0373412414009081	-0.0133379308413681	-0.0628369808847133
