1.3745790e-02  -1.9441081e-02  -1.5333867e-02  -1.1237356e-03  -1.0253088e-01   8.2381800e-02  -1.4697506e-02  -5.8259413e-02  -1.5639225e-02  -1.0205709e-01   9.4668883e-02   9.8326615e-02  -3.1579807e-02  -2.3753232e-03  -5.3152843e-02  -1.0702933e-01   7.1540678e-03   8.2836377e-02  -4.8507190e-03   1.1254835e-01  -6.3150090e-02  -7.6064112e-02  -1.1166803e-02  -6.1051922e-02  -3.7668204e-02  -8.0129168e-02  -5.5684097e-03  -7.2143959e-02   7.7061366e-03   6.1004866e-02   1.2017719e-02   6.2466764e-02   6.6725192e-02   9.1837369e-02  -2.9664807e-02   2.2222428e-02  -2.3889946e-02   5.1425568e-02   5.7241488e-02  -1.2878552e-02   2.5020372e-02  -2.5084294e-02  -2.9977279e-02  -4.2653713e-02  -4.5276288e-03  -4.5863986e-02   9.2294746e-02  -4.3350840e-02   9.0175587e-03  -5.7506503e-02  -8.3427918e-03   1.0184128e-02   8.5190690e-02  -4.1104321e-02  -5.9985062e-03  -8.4192560e-03   8.4035536e-02   3.4131925e-02  -6.4593874e-02   3.9431412e-02   3.5322795e-02  -6.0748443e-02  -1.3079341e-02  -7.3962043e-02  -2.1431613e-02   3.0949527e-02   2.8197429e-02   6.4495805e-02  -3.2582253e-02  -6.2673022e-02  -5.8355581e-02   7.1507529e-02  -2.5185903e-03   8.6962304e-02   1.2224764e-02   4.3728732e-02  -1.5242335e-02   1.1496443e-02  -9.6744171e-03  -1.6920603e-01   1.7983293e-02  -7.0238293e-02   1.9871467e-01   9.4233057e-02  -7.9417588e-03  -1.3046494e-02  -5.5436081e-02   8.9898160e-02   1.0632511e-01   3.6051396e-02  -1.0916198e-03  -7.3148448e-02   9.9011611e-02  -7.2599935e-03   1.2914576e-01  -1.3874233e-01   6.6959020e-03   2.7030525e-02   1.4921381e-02  -4.4946888e-02  -6.7781960e-02  -9.6757562e-02  -3.9569534e-02   4.8843743e-03   4.9294205e-02   2.8114419e-02  -1.8003323e-02   1.6122296e-02  -5.3607568e-02   6.6068995e-02  -7.4890388e-02  -8.1787856e-02  -4.7985199e-02  -6.0299961e-02   1.6615504e-02  -4.6088051e-02  -2.2929876e-03  -1.0780451e-02   3.3867600e-02   3.9941756e-02   1.2933062e-02  -2.9052823e-02   9.2195961e-03   5.2803849e-02  -2.9211902e-02   2.5352484e-02   7.7903350e-02  -9.3752020e-03   1.5188399e-01  -6.2950447e-02   1.1967013e-01  -8.9467837e-02  -6.8749210e-02  -2.4351988e-02  -1.7435352e-01  -2.7976438e-02  -3.0910365e-02   2.9805527e-02  -3.8589369e-02   4.6309948e-02   7.3380681e-02   4.0116966e-02   3.4005978e-02  -7.8001730e-02   1.1235122e-02  -5.5126986e-02  -5.8182599e-02   1.1581002e-02   1.4335292e-01   1.6967004e-02   2.0698939e-02  -5.8859226e-02   1.3244521e-02   2.7833319e-02  -1.5320912e-02  -6.7216093e-02   1.1439183e-01  -2.0390882e-01   9.1730557e-02   2.9805675e-02  -5.0293714e-02   9.8417605e-03  -5.4660441e-02  -2.3158133e-02  -1.5168613e-02   2.4634736e-02   5.2440657e-02  -3.2218435e-02  -1.2363781e-02   9.8382956e-02  -1.4248403e-02   1.0487416e-01  -1.1582172e-02   9.8480595e-02   2.9193893e-03   1.0974503e-01  -4.3846060e-02  -1.4908105e-01  -3.9848405e-02   2.5664801e-02   1.0272803e-01  -2.2484102e-02  -9.7063074e-03  -1.1765677e-01  -4.2166663e-02   1.1815513e-02   2.1680984e-02  -4.5659606e-02   7.3511252e-02  -6.0949223e-02  -2.1643565e-02   1.3360391e-02   6.5497697e-02  -3.0644680e-02  -7.7446892e-02   7.1551807e-02   1.3783667e-03  -7.2319503e-02  -1.7272686e-01  -1.4035389e-03  -4.8462995e-02  -1.1773493e-01   1.3210503e-02   1.5629989e-02   9.7661958e-02   1.7045086e-02   2.1207320e-02   4.5560446e-02  -1.4834989e-01   2.7639171e-02   3.1125457e-02  -7.6397202e-03   3.5408317e-03   5.7067955e-03   1.1079359e-01   2.2361244e-02  -4.4993851e-03  -6.2389742e-02   5.8960270e-02  -6.1964726e-03   5.7767803e-02  -3.3220774e-02   1.4575309e-03   2.7688928e-03   4.8087477e-02   2.5369356e-02  -6.8787315e-02  -7.0849016e-02  -8.6899842e-03   1.3676803e-01   8.0344492e-02  -2.4254585e-02   1.5216461e-03   5.5432659e-02   5.9798112e-02   5.5369263e-02  -5.8098256e-02  -4.0522599e-02   3.3242788e-02   8.8114210e-02  -3.8540267e-04   1.5472643e-03  -9.7458555e-02   1.9603491e-03  -7.7983811e-02   2.9803206e-02   3.8218370e-02  -5.7342832e-02  -1.9034472e-02  -7.2546929e-02   7.2712686e-02   7.3826332e-03   3.1224942e-02  -2.1782285e-02  -4.8639027e-02  -2.6047037e-03
   3.5566015e-02  -5.0553655e-02   1.0214520e-01   7.4145045e-03   8.0070976e-02   3.9104718e-02   1.9077821e-02   1.1082959e-01  -1.4833044e-02  -1.3107516e-02   5.0016048e-02  -1.3478790e-01  -1.0455386e-01  -9.1390911e-02   5.9233634e-02  -2.1920625e-02  -5.3137688e-03   2.9068404e-02   7.7779498e-02  -8.2907862e-02  -2.1562969e-02   4.4683813e-02   7.0699039e-02   3.9009239e-02   9.8292991e-02   1.6492091e-02  -6.4310630e-02  -3.4343220e-02   1.9404064e-02  -8.4682527e-02  -9.9471804e-03  -1.8727606e-02  -3.4802930e-02   3.4174956e-02  -6.9603740e-02  -4.5223944e-02  -2.0380791e-02   7.8714292e-02   3.5429345e-02   3.1097087e-04  -5.4032938e-02   5.7516236e-02   7.4794946e-03   5.0963351e-02   5.4628936e-02  -7.7249489e-02  -2.8622428e-02  -2.9044566e-02   1.0084002e-01  -1.4309403e-02   1.3221305e-01   1.2146605e-01   8.9077462e-02  -1.2041922e-02  -3.8357035e-02  -1.1895435e-01   4.2200119e-03   7.6501133e-02  -3.7650395e-02   4.6314155e-03  -1.5773144e-02   1.2271193e-02  -2.1059786e-02  -1.8186697e-02   2.1174300e-02  -1.8923869e-02  -5.3176134e-02   1.2265211e-01   2.9446172e-02   2.6608349e-02  -1.2767031e-02   2.3420172e-02   7.6943777e-02   8.9501551e-03   2.8052359e-03   4.5797240e-02  -2.5366894e-02  -3.1703222e-02  -6.2580501e-02  -9.7174929e-03  -4.9004636e-04  -2.0919010e-03  -5.3694412e-02  -4.6973175e-02   1.1567643e-04   7.6302011e-02   5.1352473e-02   7.0698447e-02  -3.6991190e-02   7.7047520e-02   1.4749592e-01   5.2676159e-03  -4.2220870e-02  -6.9668654e-02   5.9941839e-02   8.6048128e-02   8.8965224e-02  -3.6623886e-03  -3.8455858e-03   4.6017019e-02  -1.1369734e-01   5.0678383e-02  -1.3897243e-02  -7.1472456e-02  -1.1637773e-01   9.5382679e-02  -1.2523112e-02  -2.6441643e-02  -1.0618809e-01   6.5711439e-03   6.0377061e-02   6.3296061e-03  -3.9444898e-02  -6.0729738e-03   1.7390257e-02  -5.5480277e-02  -1.0613233e-02  -5.3063676e-02   2.5316925e-02  -8.7092508e-02   1.7409150e-02  -5.7461224e-02  -3.9419456e-02   2.6908902e-02  -8.7576190e-02  -6.9605752e-02  -6.2843317e-02  -3.5440377e-02   1.0912283e-01  -7.5014011e-02  -1.1358321e-01  -3.4273215e-03  -1.3301320e-01  -1.0333533e-01   6.1910190e-02  -2.1096648e-02   1.4772916e-02   2.5787815e-02  -5.3412552e-02   1.6749598e-01  -7.6985575e-02   4.3480597e-02   1.9534346e-02  -1.0141756e-03  -6.6093109e-02   4.0382363e-02  -1.8381772e-01   4.4160719e-02   7.2791074e-02  -5.6515272e-03  -2.9521541e-02  -8.6915259e-02   7.4656666e-02  -6.8619913e-02   1.0223623e-02   1.2626886e-01  -2.6506178e-03   6.5583694e-02  -1.5698445e-02  -9.7333872e-03  -1.1491872e-01  -3.0090066e-02  -1.2484165e-04  -2.8809553e-02   7.3074436e-02   1.3441373e-02  -6.4652481e-02   6.0645421e-02   9.0537276e-02   7.9646825e-02  -9.6743507e-02   2.0180274e-02  -8.3046652e-02   1.4296768e-02   8.4133873e-02  -8.1370248e-04  -5.4129693e-02   2.1707712e-02   9.6259850e-02  -5.3494642e-02   2.7926661e-02  -1.7722722e-02  -3.2611100e-02   1.6659178e-02  -4.6244735e-02  -2.9793633e-02   1.3826840e-02   2.9172854e-02   3.6164937e-02  -5.1491925e-02  -4.6603261e-02  -3.0763155e-02  -2.7276790e-02  -1.0826080e-01   4.5122126e-02  -4.0523902e-02   2.6994041e-03   9.2555907e-02   3.1789740e-02  -8.9435567e-02   4.1055254e-02  -9.4990318e-02  -1.4382412e-02  -8.2228427e-02   4.7094906e-02   6.8539849e-02   3.1505615e-02  -8.0866199e-02  -3.2630629e-02   1.7695753e-02   1.2887549e-02   5.9223486e-02  -1.0916509e-01   1.0265489e-03   9.1183218e-03   8.0599165e-03   1.3421787e-04  -4.6210081e-02   6.7982088e-02   1.8567524e-02   1.0390223e-01   1.5064440e-01  -5.7928544e-02   6.5117557e-02   2.2706383e-02   8.0443045e-02  -1.1112786e-01   1.2499342e-01  -4.2384885e-02   4.8346714e-02  -1.1280917e-02  -9.3582939e-03   4.5763062e-02  -5.8706706e-02  -2.7649135e-02   2.4898550e-02  -4.8475126e-02  -1.7817676e-02   2.7004997e-03  -1.4481598e-01  -9.3524394e-02  -6.2608242e-02   7.1097206e-03   4.5996441e-02  -7.9132202e-02   5.0869539e-02  -1.2129137e-02   9.0462359e-02   3.8634602e-02   7.1366113e-02  -3.5841166e-02  -5.6833578e-02   9.5052324e-02  -8.1452402e-02   7.5287281e-02   5.7134624e-02
  -3.0120107e-02   4.5282884e-02   1.2186369e-02   2.8719221e-04   4.0408965e-02   5.3043447e-02   7.0434130e-02  -8.1385829e-02   2.6681043e-02   1.0448329e-01  -4.7165974e-02  -2.7518350e-02   1.0132937e-01  -6.2216067e-02  -1.9454171e-02   1.4960219e-01  -8.4569037e-02  -2.0050550e-02   8.2375637e-02  -4.1873808e-02  -2.1862951e-02  -1.0243273e-01   3.3024727e-02  -9.6355656e-02   1.9161782e-02  -5.0566428e-02  -9.7435976e-02  -6.4760514e-02   3.7467984e-02  -9.6153560e-02   7.2312327e-02  -1.0929457e-02   5.3496432e-03   3.7218183e-02  -4.7713012e-02  -2.9701243e-02  -3.4024685e-02  -1.4378204e-01  -8.1300367e-02  -4.2091465e-03  -1.7952891e-02  -1.4095294e-02  -5.9324733e-02  -1.2024354e-01  -5.5057538e-04   5.8070259e-02  -4.7531058e-02   8.7010179e-02   3.5971624e-02  -9.7681838e-02   7.1079223e-02  -4.3322412e-02  -6.1575700e-04   7.0053858e-02  -4.2359831e-02   3.7502255e-02   1.2100285e-01   2.0276872e-03  -1.6131622e-02   2.2650450e-02  -2.3112260e-02   1.4924255e-01  -1.3451894e-01   4.5530454e-02   1.1603878e-01  -1.4665293e-01  -3.4664711e-02   6.5129817e-02   3.7531330e-02   4.3920497e-02  -4.5657719e-02   1.5930227e-02   6.9454909e-02   9.5890381e-02  -1.8730801e-02   4.4847803e-02   1.1175722e-02  -1.3622381e-01   1.0645015e-01   2.7483051e-02   7.6262751e-05  -9.8452174e-02   7.6280439e-02   2.4393166e-02   6.5381581e-02  -3.4285891e-02   3.0814500e-02  -7.7956722e-02  -4.3737809e-02  -1.0198225e-01  -1.3661404e-03   4.2784020e-02  -1.6126976e-02  -3.9529309e-02  -1.1889944e-01   2.5752408e-02  -6.2747202e-02  -5.0117770e-03   5.9640894e-02  -7.9958977e-02   4.7175703e-02   1.5405013e-01  -2.2795919e-02  -5.5348304e-02   1.5750468e-02   9.9885681e-02   5.3624524e-02  -5.6031033e-02   1.6676827e-02  -4.3334030e-02  -4.6809816e-03  -6.8410536e-02   6.7749955e-02  -5.3099851e-02   1.0489923e-02   6.3823748e-03  -9.6052761e-02   2.7511575e-02  -2.0150020e-02  -1.9677664e-02   1.6242400e-03  -1.2552725e-01  -4.1955662e-02  -3.0876036e-02   5.1920605e-02   1.2906491e-02   4.2429519e-02   1.1303136e-02   6.2957094e-02  -2.5114861e-02  -9.5499791e-03   4.8759986e-02   3.2084660e-02  -1.3298912e-01  -9.7796359e-02  -8.0872994e-02   2.7295157e-02   8.2496836e-03   4.5774319e-02  -3.4620354e-02  -5.8268810e-05  -1.1602828e-01  -1.5236597e-02  -1.1609376e-01  -3.5092336e-03   7.9573989e-02   3.9507160e-02   9.9745771e-02  -5.9627675e-02  -5.2192207e-02   7.0435462e-02  -4.8260058e-02   2.9194889e-02  -1.7933869e-02   2.4916425e-02  -1.3534360e-01   7.2267723e-02  -2.8182034e-02   8.7855609e-02  -5.0600684e-02   4.1374706e-02  -8.8804532e-03   4.1608332e-02  -8.8503952e-03  -5.3005017e-02   4.9145507e-02   7.5393706e-02  -2.9236951e-03   2.0915113e-02  -3.9045093e-02  -6.1155961e-02   1.9608724e-02   1.7881536e-03   6.0455305e-02  -1.0865150e-01  -1.6434515e-03  -7.9860254e-02   1.6940160e-02   5.5350534e-02   9.9327585e-02  -3.4752412e-02   1.0271670e-02  -3.9962995e-02   1.1347824e-01  -6.4456828e-02   7.3630453e-02   6.1421529e-03  -2.0339265e-02   9.7289593e-04  -4.1234142e-02   1.6918825e-02  -5.2202855e-02  -7.4379587e-03  -1.5978827e-02   8.7560083e-02  -5.6572274e-04   8.0354169e-02   9.1245348e-03   1.9912319e-02   4.2311033e-02   5.6057621e-03  -7.5671598e-02   3.3953945e-02   1.2997975e-01   4.5385792e-03   9.1961720e-02  -6.1821619e-02  -9.1370820e-02   2.5844291e-02   9.9901741e-04   3.6964302e-04   7.2865597e-02   4.6532901e-03  -3.6281744e-02   1.3247556e-01  -3.7932822e-03   1.8953092e-02   5.8189072e-02   6.6736454e-02  -8.7395979e-02  -1.2480882e-02   5.6983058e-02  -5.7911510e-02  -1.5537722e-02  -2.2877535e-03   2.8163193e-02  -7.2496192e-02  -1.7499371e-02   6.4554103e-02   7.1575230e-02  -2.4561406e-02   3.7637513e-02  -5.3795925e-02   2.6797989e-02  -1.2547459e-02  -1.0385990e-01   7.3645603e-02   1.2013505e-01  -7.9255636e-02   5.0639006e-02   9.2533339e-02  -3.8144734e-03   7.8177704e-03   7.2196842e-02  -8.3512928e-02   5.6203335e-02  -5.8243042e-02  -2.8244649e-02  -1.1032779e-01  -6.7346299e-03   4.4992516e-02   3.1831861e-02  -2.9494403e-02  -3.8191916e-02   7.6768210e-02   3.0324171e-02
   4.6044794e-02  -5.6144830e-02  -4.1602832e-02   1.1253119e-01  -4.5492629e-02  -3.4195528e-02   1.0918405e-02  -2.6570156e-02   3.6674345e-02  -8.0387929e-02   4.9532840e-02  -4.2832518e-02   4.0092999e-02   1.2036372e-01  -1.6677247e-03   4.1448519e-02  -1.3571841e-02  -7.3589426e-03   1.3351162e-01   8.9828589e-02   2.9517211e-02   7.6208461e-02   6.7751053e-02  -2.4743700e-02  -8.4169583e-02   9.5650104e-02   6.2194170e-02   1.0999407e-01  -1.1010724e-01  -5.5418522e-02  -9.2905869e-03  -4.7011320e-02  -1.6364810e-01   1.4381801e-01  -6.6057087e-02  -8.8371261e-02   1.6257124e-01  -1.2437841e-01   6.1023054e-02  -1.6915605e-02  -8.3185177e-02  -5.6497982e-02  -4.9784003e-02   4.9590650e-02  -1.2958966e-02  -8.4221418e-02   5.4960183e-02  -1.0672485e-02   5.1385485e-02  -3.7433933e-02  -4.3296521e-02   3.4236892e-02  -1.4780765e-02  -6.5247399e-02  -3.3656996e-02   1.0310433e-01   3.6332619e-02   1.3146969e-02  -3.7042255e-02  -3.4002546e-02   4.1361205e-03  -7.3554630e-02  -1.4182308e-01  -9.5644461e-03   6.8880612e-03  -1.4132508e-02  -8.5513548e-02  -2.7820036e-02   1.7732827e-01   1.0935053e-02   1.0010258e-01   2.3004667e-02  -7.0879299e-03   2.2734318e-02  -4.9644354e-02  -5.3052233e-03   5.7014930e-02  -1.2136538e-01  -1.3119780e-02  -6.8213984e-02  -9.2746829e-02   9.8686547e-02   1.7659783e-02   7.9372217e-02   4.8587009e-02   3.5508650e-02   3.8428086e-02  -1.5235216e-02   4.9677105e-02  -6.0827092e-02   6.3020265e-03  -1.6845258e-02   8.6931469e-02  -4.5300947e-02  -5.4491148e-02  -6.0025358e-04   1.1911869e-01   1.1269065e-01  -2.1632398e-02   8.2236075e-02   1.6534083e-02   4.9981246e-02  -2.4723921e-02   8.6647024e-02   1.1970635e-02  -1.0601572e-01  -1.0010166e-01  -3.2558911e-02  -1.9959306e-02  -1.2010742e-01   1.3132569e-02  -7.8148887e-02  -6.6217983e-02   1.5680899e-01  -2.3088988e-02   3.5796407e-02   1.8209742e-02   2.7793264e-02   3.1361031e-02  -4.8877416e-02   1.9243940e-02   2.1127052e-02   1.3091380e-02  -7.1011296e-02  -8.0787311e-02   5.4335368e-02  -4.9546125e-02  -1.2543753e-02  -6.7983590e-03   8.6076542e-02  -1.0883789e-02  -8.5445668e-02   3.8329274e-02  -1.5585729e-02  -6.8628339e-02  -2.0733233e-02   8.1029409e-02  -1.2331547e-01   2.5401908e-02  -6.5790151e-02  -4.2762465e-02   5.1725274e-04   1.5787018e-03   8.4907308e-02   6.0315077e-02  -9.8628246e-02   4.3407663e-02   7.5386390e-02   2.0698655e-02   1.7890477e-02   2.8227192e-02   9.7494244e-02   1.2680534e-01  -1.5116773e-02   2.1362549e-02   1.2155239e-02  -6.7478142e-02   5.9794875e-02  -2.6065521e-02   8.7171173e-03  -2.3791639e-02   2.0887177e-02   3.3958287e-02   1.5385419e-02   1.5968354e-02   2.0387643e-02   7.5834263e-02  -6.9942483e-02   8.2104528e-02   5.3159182e-02   6.0673708e-02  -8.2505360e-02  -5.3920697e-02   1.8859304e-02  -4.9207878e-02  -1.2358624e-02  -1.0889617e-01  -3.4802192e-03   4.7432494e-02   6.9689396e-02   1.2172281e-02   1.7502316e-02   3.8855489e-03  -4.0641498e-02  -9.4717428e-03  -1.5347437e-03   1.0806803e-02   2.7193485e-02   4.0186072e-02  -1.3040930e-02   1.2627559e-02  -3.0405358e-02  -1.0258301e-01  -3.9234599e-02   4.8177541e-02   6.0986498e-02  -8.2906967e-03   6.7620173e-02   5.2989573e-02   2.1819360e-02  -4.9747771e-02  -7.0357614e-02  -3.5833178e-02   3.0240740e-02   5.7945258e-02  -1.9329339e-03   2.9979499e-02   3.6083459e-02   3.1985396e-02   5.8301037e-02  -9.2264418e-02   7.5208823e-02  -1.0229180e-02   7.9852270e-02   9.3879380e-02  -4.5323221e-02   1.7951090e-03  -7.9051217e-03  -9.2800889e-02  -1.8115375e-02   2.6716693e-02  -7.4986439e-02  -2.7080247e-02   6.5589931e-02  -1.0636043e-01  -6.2418691e-02  -2.8827239e-02   4.9798344e-03  -4.5645869e-02   9.0039590e-05   5.7783062e-03  -1.1875920e-01  -3.3366504e-03   4.9714721e-02   3.3704703e-02  -2.8534401e-02  -3.8654689e-02  -1.2969706e-01  -3.8764841e-02   5.6958636e-02  -8.4301835e-02   1.2257024e-02  -5.0324719e-02   3.2789861e-03  -1.7063134e-01  -8.8728127e-02  -1.4782326e-02  -3.7114970e-02   8.6950674e-02  -1.4662797e-02  -6.0579659e-02   8.4494906e-02   6.0129136e-03   2.4818586e-02  -7.2340467e-03   4.7506741e-02
  -6.0919562e-02   5.7701554e-02  -3.6403476e-02  -8.2147270e-02   1.2784051e-02  -4.6945469e-03  -1.0157570e-01   8.6387359e-02  -1.1973837e-01  -1.1751422e-02   2.9301062e-02  -5.4853696e-02   4.0658574e-03   3.4721199e-02  -1.4294030e-01   1.0379173e-01  -2.5164098e-02   9.2988661e-02   1.4057210e-02   4.7952043e-02  -1.0366851e-01   2.7234961e-02  -2.2828429e-02  -5.7294751e-02   4.5931816e-02  -2.1649287e-03   8.2777582e-02   6.3960796e-02  -3.9046814e-02   1.4005967e-01  -1.3116087e-02  -1.9318524e-02  -1.1875949e-01   2.5359364e-02   3.5044945e-03   1.4509183e-01  -4.1684177e-03   1.1216136e-01  -1.8406967e-02   4.5560853e-02   2.0781852e-02  -5.2029284e-02  -1.0116376e-01  -8.5175217e-03   2.0972921e-02  -6.8291173e-02  -3.8492365e-02  -1.5590775e-02   1.9434432e-01  -4.9376023e-02   1.2966990e-02  -8.0466249e-02  -5.3972689e-02  -8.1008273e-02  -2.3531680e-02  -1.1186091e-01  -4.2749751e-02   1.0370222e-01  -7.1624867e-02   4.3024912e-02   2.6369402e-02   1.2628304e-02   5.0855096e-02  -5.2402003e-02   2.2965436e-02   4.9851306e-02   4.7694124e-02   5.4316822e-02   1.1950016e-01   5.3438843e-02   1.1574794e-03  -5.2342193e-02  -1.9388306e-02  -4.8394345e-03  -3.2407072e-02  -2.2640502e-02  -1.3549157e-01  -8.6238552e-02   7.9946860e-04   1.1227183e-03   3.0391162e-02  -2.8830664e-02  -5.3492683e-02  -1.7558935e-02   4.8558522e-02  -1.1260237e-02  -6.1188647e-02  -1.1671298e-01   3.1470252e-02  -6.9412414e-03  -3.3219410e-03  -6.1060453e-02   3.7120990e-02  -6.4409657e-02  -5.3573182e-03   1.1186114e-02  -2.5156464e-02   6.2408940e-02  -7.5293932e-03  -1.1041862e-02   6.8587073e-02  -1.0017452e-01  -3.3482887e-02  -3.8772761e-02  -3.1401425e-02  -1.1173645e-01  -4.5834766e-02  -2.2876889e-02  -7.1116034e-02   1.3049273e-02   6.4348985e-02  -5.7278834e-02  -1.1506231e-02   4.5650763e-02  -1.7347842e-02   9.9637959e-02   9.6444761e-02  -3.9803954e-02  -3.0994048e-02  -1.6911801e-01   2.1396961e-02   1.6056719e-02   7.3246426e-02   9.6677069e-02   3.1751181e-02   1.8993026e-02  -4.5638058e-02   4.2115340e-02   5.1952440e-02  -9.2226338e-02  -4.8873357e-03   7.6023216e-02   1.3281148e-01  -9.7589614e-02  -5.8211695e-02  -3.8906581e-02  -1.4440850e-02   1.3780745e-01  -2.8170146e-02  -6.4446111e-03  -1.2171185e-02   3.4433936e-02  -5.9535984e-02   6.4121646e-02   6.3693264e-02   1.8260148e-02   7.8926614e-02   2.7352466e-03  -4.0309436e-02  -2.8534803e-02  -3.2791992e-02  -1.0000993e-01  -2.8144887e-02  -9.7469008e-03  -3.0965168e-02  -2.0692885e-02   1.8576280e-02   3.8656346e-02   8.1605634e-02  -1.4273418e-03  -1.7057243e-02   4.1335152e-02  -5.1716967e-02  -7.7724737e-02   7.3440746e-02  -5.3065100e-02  -2.0397592e-02   4.7742072e-02  -6.4863029e-02   2.8643063e-02   2.6925551e-02  -3.3741631e-02  -7.2613313e-02   2.4533557e-02  -7.1392814e-02  -2.6300241e-02   6.9337817e-02   9.1412376e-02   4.7709520e-02   6.4766320e-02   1.1674775e-01  -2.8274466e-02  -1.0280130e-02   5.8975606e-02   4.7554527e-02  -3.2017142e-02  -6.6329649e-02  -1.0714661e-01  -1.5634486e-02   2.2354500e-02   2.0995653e-02   5.2892044e-02   4.7198273e-02  -1.8796754e-02   1.2034593e-02  -3.2877483e-02   6.3219237e-04   1.9267598e-02  -2.3268493e-02   1.8130427e-02  -1.3433304e-01  -6.1891154e-02   8.7107938e-02   4.0691700e-03  -7.6795778e-02  -5.8054205e-03   1.1931833e-01   9.5629065e-03  -1.2254827e-02  -5.6254775e-02  -1.1847809e-01   5.8359472e-02   7.7029649e-02  -5.1343729e-02  -7.0913444e-02   9.5294017e-02   4.5848883e-02   2.6004847e-02   1.6032877e-02  -1.0439383e-01   5.8542771e-02  -4.2664957e-02   5.6291062e-02  -4.8406716e-03   6.5975780e-02  -8.4024765e-02   7.2641864e-02  -2.3176038e-02  -7.3107893e-02   9.4255148e-03   6.2997660e-02   6.4969958e-02   4.7134826e-02  -1.5815700e-02  -5.5843772e-02  -1.5384036e-01  -3.5394284e-02   2.4869040e-02  -2.6510407e-02   4.5634620e-02  -2.3044827e-03   1.2188124e-01   1.2822887e-01   2.7997792e-02   4.5699974e-02   9.4693526e-02   6.3217613e-02  -1.0024262e-02  -2.1522904e-02  -7.8852692e-03  -5.3228708e-02   9.4377362e-03   1.1620665e-01  -3.4237204e-02   8.8647285e-02  -7.6042716e-03
   1.1878914e-01   3.8435806e-02   3.8012326e-02   1.4858706e-02  -1.1485842e-01  -5.6405057e-02  -2.6266968e-02   6.5996340e-02   5.5860297e-02  -1.0932985e-01   2.8337982e-02  -1.6049778e-02  -9.2749226e-02  -6.8017010e-02  -1.8518911e-02  -4.5227688e-03  -7.9469470e-02  -3.3800104e-02  -1.2250622e-02   6.6347145e-02   2.4633436e-02  -1.3419410e-03  -1.2203219e-01   3.2177232e-02   1.2288102e-01   5.4355655e-02   3.8935337e-02  -4.8701646e-02   3.1554998e-02   4.5052025e-02   7.4897862e-02  -1.3460088e-01   4.9523165e-02  -2.2632002e-02   1.1724249e-02   8.1940041e-02  -6.9907697e-03  -7.3322212e-02   1.6048231e-02  -1.1844007e-03  -7.8283924e-02  -6.5035081e-02  -1.7716309e-01  -4.4502930e-02   2.2340690e-02   1.6012393e-01  -9.0224365e-02   5.6600675e-02   1.5366734e-02  -3.1318043e-02  -2.5720774e-02  -7.2592016e-02  -2.1330969e-03  -9.6892613e-02   4.3968642e-02   8.3187436e-02  -6.7938696e-02  -2.4410668e-02   1.0206906e-02   6.2005223e-02  -4.5331298e-02   3.7547240e-02  -3.8135952e-02  -3.1605741e-03   4.6397355e-02  -4.4965094e-02   2.9653734e-02   9.3794729e-02   5.1245268e-02  -4.7997445e-02  -3.7952073e-02   1.2620845e-02   1.4971621e-02   3.6350727e-02   2.7270736e-02   1.2806432e-01  -4.0496179e-02   5.9186519e-02   3.3413963e-03   3.3840838e-02   6.9234271e-02  -2.7321677e-03  -3.7755787e-02  -6.0663985e-02   6.2934858e-02   1.5077609e-01   9.5736340e-03   8.5076387e-02   5.6240042e-03  -4.4456979e-02   6.4908771e-02  -1.8229467e-02  -8.7780472e-02  -3.1843980e-03   4.2527523e-02  -3.0355985e-03   2.0678438e-02  -1.5706369e-01   8.7133991e-02   4.0585844e-02  -2.6859210e-03  -9.4797828e-02   6.2804799e-03  -4.7923047e-02   2.7254638e-02  -5.2370556e-03  -2.2388960e-01  -2.5352689e-03   2.0581337e-02  -2.4449729e-02   6.8727707e-02   8.0355012e-02  -5.4851294e-02  -3.1673210e-02   2.8090273e-02   2.1710565e-02   2.0955584e-03   2.8894145e-02   9.9590058e-02  -8.2416456e-02   1.6515930e-02   4.5845258e-02  -7.5921485e-02  -5.2706290e-02  -5.8730968e-02   3.2156347e-02   4.8779209e-02   1.5370658e-02  -6.9378967e-03  -3.3896485e-02  -1.8830390e-02  -6.2915376e-02   6.5319886e-03   2.6655897e-02   2.9038694e-03  -3.0649333e-02  -5.0374281e-02   6.9201103e-02  -5.9987937e-02  -6.2122150e-02  -7.4822574e-02   3.2012853e-02  -5.6375580e-03   1.1577943e-01  -6.4578663e-02   1.4239160e-02  -3.3122973e-02  -6.5044403e-03   2.0030125e-02  -2.9618003e-02   5.7796921e-02   6.1861773e-02  -6.6950442e-02  -9.0740107e-02   4.0255031e-02   1.4837428e-02   3.4371838e-02   4.9944650e-02   6.2214532e-02   2.1825447e-02   5.6428785e-02  -4.3660505e-02   1.2066306e-01  -2.0152906e-02   1.8396443e-02  -1.5616042e-01   1.5953933e-02   9.9869561e-02   3.3165784e-02   9.7340381e-02  -4.8391791e-02  -4.1787944e-02   7.9949022e-02  -4.7011164e-02   3.4162348e-03  -1.4907540e-01  -1.0386253e-02  -1.3797844e-01  -2.5891567e-02   4.6497082e-03  -5.1808521e-02  -4.7586197e-02  -1.4113244e-02  -7.1293985e-02   4.3017375e-03  -3.4374109e-02  -9.8895644e-02  -5.8033337e-02   4.9889777e-02   4.6373583e-02   4.1793695e-02  -1.5356413e-01  -2.3481947e-02   2.6664574e-02   7.8186268e-03   3.8118719e-02   5.3925016e-02  -5.0167186e-02  -5.4516697e-02   7.0194021e-02   3.4276563e-02   8.2862740e-03   3.6532569e-02   6.9853323e-03   5.2670906e-03  -1.3827672e-02   3.3227425e-02   6.3374174e-02  -6.5694957e-02   3.8644302e-02  -2.0017099e-03   1.0539947e-01  -2.5928862e-02   1.9809615e-02   1.2276467e-01  -2.3815821e-02   9.2228473e-02   8.4230029e-02  -9.5376858e-02  -1.2078520e-02  -2.1777772e-02  -8.6733636e-03  -5.9552549e-02   6.5140850e-02   7.5682524e-03   7.0868980e-02   8.8899264e-02  -3.7668943e-02  -7.1265555e-02  -6.7994014e-02  -1.1022594e-01   1.0802964e-02  -2.8668721e-02   3.9115980e-02   1.4907333e-01  -4.4527241e-03   1.1061803e-01   7.3442415e-02  -3.4114197e-03  -6.7685596e-02   3.8143555e-02   3.8178123e-03  -4.4370916e-02  -3.0894360e-02   6.9937993e-03   6.1387665e-02   1.5464350e-02   2.1753555e-02  -4.0909045e-02  -6.8968392e-02   7.5099823e-02   5.0196551e-02   1.1028268e-02   6.0714968e-02  -8.8722726e-02   2.0739109e-02
  -7.6773850e-02   3.7375784e-02  -2.5344061e-02  -5.6363395e-02  -4.7410963e-03   1.0504420e-01  -1.5899425e-02  -4.0448661e-02  -1.7126389e-02   3.3190299e-02  -7.6282993e-02   4.3029413e-02  -2.2026134e-02  -1.1862002e-01   1.9010746e-02   3.5258128e-02   1.4429715e-02   5.8096100e-02  -2.5260969e-02   3.1399215e-02  -1.7108451e-02  -4.1224891e-02  -4.4786003e-02  -1.1059937e-01  -3.2044203e-02  -7.8037018e-02  -4.3947092e-03   6.2547010e-02  -6.0222597e-02   2.3192549e-02  -3.4885636e-02  -7.7950067e-02  -8.4756762e-03  -4.8561581e-02   2.6521174e-02  -2.0164356e-02  -8.7675357e-02  -1.0087370e-02   1.4849488e-01   1.2264766e-01  -1.5891554e-02   4.5147288e-02   2.6531653e-02  -7.7873216e-02  -1.1216077e-02   9.2690768e-02   2.4794828e-02  -6.3554961e-02  -1.0318726e-01  -7.1153620e-02  -9.9238020e-02  -3.9945401e-02   3.7815827e-02   4.7950523e-02   6.6315358e-02   3.3281284e-02  -1.8257511e-02   9.3191583e-02  -7.3689168e-02   1.2042786e-02  -1.6234201e-02   9.9448244e-02  -6.2322487e-02   6.8028090e-02  -3.0653274e-02   5.4483245e-03  -1.1004367e-01  -3.9765842e-02   9.3719306e-02   1.2702159e-01   4.8227432e-02   1.3690435e-01   7.1030242e-02   1.7300237e-02  -1.0655408e-01   9.3908150e-02   4.3552754e-02   5.6767305e-02  -5.5968462e-02   1.0959763e-02   2.7522397e-02  -1.8335212e-02   1.0639994e-02  -8.1503285e-02  -3.1766110e-02  -3.2797060e-02  -2.3445198e-02   1.4659867e-01  -2.7765818e-02  -6.0810554e-03  -6.6529758e-02  -1.7335493e-02  -5.2561114e-02  -7.2785706e-02   5.7994014e-02  -5.7568707e-02   4.7182271e-02   1.4373688e-02  -1.1265942e-01  -1.9576058e-02  -2.0292243e-02  -1.0314042e-01  -8.5198819e-02  -6.1680596e-03   2.2089772e-01  -9.2707939e-02  -1.3398434e-01  -1.1239361e-02   1.8113565e-02   5.5565005e-02   2.4835547e-02  -2.2842554e-02  -5.2074400e-02   2.8451440e-02   7.0197081e-02  -8.9190163e-03  -2.9298062e-02   1.5093610e-01  -1.0333425e-03   3.3714597e-02   2.2978769e-02  -1.0425145e-02  -2.6044474e-03   2.0904202e-02  -1.7528136e-02  -1.6884753e-02  -2.3529523e-02   4.2713302e-03   1.0107889e-01  -6.4540408e-02   2.1574454e-02   2.0640560e-03   3.0541942e-02  -1.7578029e-02  -4.4742691e-02  -1.3111292e-02  -4.6251283e-02  -2.5753465e-02   4.6241851e-02   3.0558446e-02  -4.7415815e-02  -1.8472876e-02  -7.9202824e-04   1.1528865e-01   1.0260428e-01   2.2744225e-02  -9.2709168e-03  -3.2917631e-02  -5.5652920e-02   4.7831756e-02   1.0478790e-01   3.2918360e-02  -3.4873562e-02  -2.4955413e-03  -1.6712695e-02  -1.1683205e-02   4.2513691e-02   4.7163810e-02  -2.5549648e-02  -6.9782063e-02   1.1367373e-01  -7.0845828e-02   1.1319894e-03   3.4755813e-02   5.8836103e-02   7.3522543e-02   2.4366091e-02   3.4061950e-03   2.1391922e-02  -7.5674691e-02   2.3548348e-02   5.2396699e-02  -1.8608481e-02  -4.4838983e-02   4.3672563e-02   8.3214395e-02  -1.4193987e-02  -4.4921124e-02   3.3541341e-02  -4.1156619e-02   1.2616328e-01  -3.4041978e-02  -1.0996124e-02  -1.6631321e-02   6.1476968e-02   3.6064893e-02  -2.9450084e-03  -6.6193705e-02   3.3823011e-02  -7.6784329e-02   5.0509071e-02   7.3156838e-02  -3.9962765e-02   1.1426973e-01   1.2741524e-02  -7.0638080e-02   1.4084435e-02   7.2458703e-02   5.0686861e-02   4.8682917e-02   1.1852231e-01  -3.9024216e-02  -1.6240882e-01   1.8914840e-02  -2.6157993e-02  -2.2238349e-02   7.7964911e-02  -4.7427862e-02   7.3135064e-02   4.0837144e-02  -9.8460386e-03   3.2129300e-03  -2.0990861e-02  -2.3422816e-02  -7.2044294e-02  -7.2014273e-02   4.2265853e-02  -8.6101936e-03   9.4998078e-02   3.1257503e-03  -7.8913360e-02   1.0487858e-01   1.6389626e-02  -4.8940979e-03  -9.6129326e-02  -3.1402753e-02  -5.7483244e-02  -3.8328006e-02  -1.0127043e-01  -3.5767755e-02  -1.0628401e-01   5.8883916e-04   7.7003616e-02  -1.1063382e-01  -8.1634308e-02  -2.7465165e-02  -5.5456282e-02  -3.9921576e-02  -8.6392396e-02  -5.2771318e-02  -6.9476920e-02   2.4263895e-02  -1.1640906e-02   1.0676655e-01   2.7307681e-02   5.9684849e-02   7.4747040e-03   4.8169847e-02   1.4647125e-01   1.1194796e-01   7.6214724e-02  -4.4346258e-02  -9.8331905e-02   4.8530349e-02   6.6573020e-02  -6.2148536e-02
  -1.4370839e-01   6.5590091e-02  -9.6405698e-02   5.5019541e-02   7.7814287e-02  -3.7154303e-02  -4.5210435e-02  -1.2694628e-02   7.8955683e-03   7.2446132e-02  -1.9029007e-02   2.7062623e-02   1.0552673e-02  -2.2537801e-03   2.1290549e-02   3.2489005e-02   5.7669434e-02   1.3205955e-01   8.6678184e-03   2.6993028e-02  -6.3230316e-02   1.2885750e-01   9.8186639e-02  -3.4936878e-02  -5.6282481e-03   1.1296536e-01   3.2304051e-02  -1.2480355e-02   6.8133517e-02  -2.6080306e-02   7.2380178e-02  -5.9363255e-02  -4.3545558e-02   8.2471390e-02  -1.6610077e-01   1.4632545e-02   4.2398457e-02  -3.4822931e-02   6.5907645e-02  -6.6645788e-02  -4.3788810e-03   1.9800657e-02   1.0546910e-01  -8.1023437e-02   6.3984200e-02  -5.7489457e-02   4.3572670e-02   5.0688082e-04   2.8892863e-02   7.4731738e-02   6.4628153e-02  -4.4190474e-02  -5.0247455e-02  -3.8408093e-03  -2.6025822e-02   7.3080243e-02  -9.1359607e-02   1.3477725e-02  -2.8912661e-02  -1.2564302e-01   2.7627187e-02   4.2778108e-02   6.2494987e-02  -1.4852715e-01   6.9954552e-02   1.0743663e-01  -3.5865933e-03  -1.5232473e-02  -1.2642816e-01  -5.2260955e-02   1.5552899e-03  -9.0575538e-02  -2.7475420e-02  -1.4346148e-01   4.6020092e-02  -4.9688997e-02   6.3076835e-02  -3.4444500e-02   3.7044856e-02  -7.7420406e-02  -5.5762592e-02  -6.4301661e-02   5.1014540e-03  -4.9217565e-02   2.6461172e-02  -8.5843074e-03  -6.0080471e-03   3.8779552e-02  -3.9008898e-02   1.1257990e-02   3.5089896e-02  -6.3307731e-02   2.4278347e-02  -2.0221296e-02   6.2094949e-02   8.7593598e-02  -1.0239612e-01   3.0941352e-04  -5.6490157e-02  -8.2735063e-03   1.8587657e-02  -4.8587732e-02  -4.7911705e-02   7.3660847e-02   4.5846383e-02   1.0352658e-01   1.6590297e-02  -5.7779982e-02   1.1283785e-01   1.2196247e-01   1.1063434e-01  -7.5886304e-02  -1.9681170e-02  -1.0917331e-01   4.0983561e-02   1.3689058e-01   6.9287907e-02  -3.6586837e-02  -3.0938475e-02   1.1134197e-02  -7.1250748e-02  -4.0943923e-02  -2.3225796e-02   1.0462565e-02   8.8783697e-02   5.5371633e-02  -4.0593630e-03   1.6347740e-01   2.2033697e-02  -2.4541584e-02   3.0016338e-02  -3.5972855e-02  -4.0270761e-03  -1.0130613e-01   2.3854622e-02  -1.8118824e-02  -7.9392848e-02   4.4733464e-02   8.5188903e-02  -1.0179862e-01  -5.4251811e-02  -1.9789485e-02  -9.1261503e-02   4.5993103e-02  -1.8865046e-03   4.1771421e-02  -1.5334084e-02  -6.6138185e-02  -5.8713786e-03   3.0945269e-02   1.1351189e-02  -7.1875323e-02   2.3553130e-03  -3.1707332e-02  -1.3860203e-02   9.3553362e-03  -1.5593257e-02  -3.7197710e-03  -1.6054666e-02   3.3219523e-03  -3.0784405e-03  -6.1391223e-02   8.0343659e-02  -7.2859669e-03  -1.7077381e-02   7.1363197e-03   4.9992026e-02  -2.0486899e-02   2.4850214e-02  -7.7623052e-02  -3.3220184e-03  -2.5940043e-02   4.1709566e-02   8.4952259e-02   1.1620624e-02  -9.7996935e-02  -2.0678275e-02   1.1738494e-03  -9.1131787e-02  -7.7715697e-02  -7.5357413e-02  -1.7772420e-02  -3.7810560e-02  -1.2368055e-01   7.6629976e-02   3.0616227e-04   6.2535554e-02  -1.0175426e-01   8.7688568e-03  -2.4755916e-02  -2.7552698e-02   6.8397702e-02  -6.7446922e-03  -4.6442168e-03  -3.8287292e-02   1.7256503e-02  -3.7498437e-02  -2.0748450e-02  -5.2699358e-02  -6.2388061e-02   1.1106642e-01   2.5522385e-02   3.6248226e-02   8.7038285e-02   5.1604510e-02   2.0772247e-02   1.1588392e-01  -2.0502074e-02   5.8116305e-02   9.0816160e-02  -7.6534367e-02   5.2844923e-02  -8.4421254e-02   9.8267982e-02  -2.7028090e-02  -4.7947345e-02   3.5462933e-02   5.9374596e-02   3.6755421e-02  -6.6449241e-02   1.0380598e-02   7.2999899e-03   3.2573367e-02   8.7775887e-02  -3.0984041e-02   9.3819908e-02  -2.6355086e-02   4.5627662e-02   1.0244978e-01   3.8506209e-02  -7.8945695e-02  -1.0432828e-01   6.1754472e-02  -6.5231728e-02   8.0557890e-02   2.6856333e-02  -3.2723755e-02   1.9574936e-02  -1.0961773e-01  -2.8851200e-02  -6.5804574e-03  -1.2045673e-01  -1.0024610e-01  -1.7043182e-02   3.7784806e-02  -5.8875633e-03   9.7334240e-02   7.9538740e-02  -4.5588620e-02  -1.2943444e-01  -2.0683242e-02   6.8625793e-02  -3.9534720e-02   5.3407994e-02   2.3063509e-02   7.5783350e-02
   1.3402607e-01  -3.8653584e-02   4.5029323e-02   5.5916232e-02   3.8030236e-02   1.0795140e-01  -7.8053284e-02   6.7780799e-02   1.2239169e-02  -9.6983559e-02  -1.5288671e-01  -4.0578002e-02   1.6360222e-02   2.4994505e-02   9.6040917e-02   1.5969742e-02   6.7896113e-03  -7.3431728e-02   1.4979137e-02   5.1151725e-02  -4.3848098e-02  -4.7890187e-02   5.6561542e-02  -4.5694806e-02   3.9560316e-02   1.7094837e-02  -3.6556933e-02  -5.4899700e-02   1.0276097e-01  -1.0409484e-01   1.5582630e-02  -4.0532950e-02   2.9648356e-02  -2.1394050e-01   6.7778465e-02   1.3050069e-01   6.1216378e-02  -3.7028372e-03   7.7806455e-02   2.7184116e-02   3.3288298e-02  -6.2003121e-02   3.7575367e-02   1.2666653e-03  -8.4981597e-02  -4.0735884e-02   5.0814316e-02  -4.1769958e-02  -2.1064478e-02  -6.4854382e-02  -3.1425913e-02   4.8123653e-02   1.9233301e-02  -4.8716180e-02  -5.8030728e-02   4.8933140e-02  -2.7500975e-02   8.0401536e-02   7.4280329e-02   6.5114476e-02  -9.6393877e-02   1.3022319e-01   4.3472356e-02   5.2038152e-02  -1.7120965e-03  -1.6353112e-02   4.1581317e-02  -1.2415680e-02  -2.3146346e-02   4.6985824e-02   2.3095180e-02  -7.4242515e-02   5.8626915e-02  -4.1229748e-03   5.3642820e-02  -7.7190766e-02   7.0480542e-03   3.8638695e-02   6.4593586e-03  -1.7265304e-02  -3.4307073e-02   6.9703905e-02   6.9393365e-02  -9.3894498e-03  -5.6527948e-02   7.7393016e-02  -1.6178622e-01  -7.8609194e-02  -4.1584638e-04   6.8421384e-02   3.7475102e-02   3.7197969e-02  -3.2786440e-02  -1.2560657e-01   4.8391159e-02   9.2859611e-02  -3.6363222e-02   8.3855228e-02  -2.6792824e-02  -9.6495274e-02   7.6567531e-02  -1.3799865e-02   3.8194022e-02   7.3026629e-02   6.8123882e-02  -4.9290117e-02  -1.4034680e-02   9.3466719e-03   1.0817519e-04   1.7183150e-02   7.9249518e-02   7.9611211e-02   5.6967537e-02  -7.2749903e-02  -1.3579672e-01  -3.4728456e-02   1.9524850e-02   3.8451611e-02  -3.8891324e-02  -7.0154558e-03  -7.6164828e-03   7.2791236e-02   1.1001852e-02   6.0183972e-02  -6.1824916e-02   7.1068617e-02   1.4048960e-01   1.8947286e-02   1.3669669e-01   6.0291087e-02  -5.9026746e-02   1.2678509e-01   5.8153782e-02  -6.9302675e-02  -3.7217538e-02   1.1328428e-02  -2.5457409e-02  -4.1522094e-02   9.7673941e-03  -1.6802774e-02   3.0451405e-02   4.2329270e-02  -6.6790416e-02   6.5098800e-02  -5.9330068e-02  -5.1941599e-02  -3.4089238e-02   3.3660700e-02  -1.1570069e-02  -6.9746016e-02   1.2871761e-02  -1.0709279e-01  -6.1327063e-02   2.9880448e-02  -2.8581206e-02  -1.4034215e-01  -6.5292475e-02   7.2634639e-03  -9.8788313e-02   1.6694840e-02  -4.1508099e-02   8.2273585e-02   6.4852485e-02  -1.2376397e-01  -8.2511277e-03   5.7473441e-02  -2.9226983e-02  -1.2360024e-01  -4.1326430e-02   1.6697429e-02  -5.3517508e-02   1.2969735e-01   2.1580018e-02  -8.1375811e-02   1.9390466e-02  -3.6850384e-02  -1.1881075e-01   7.2548080e-02  -4.4808989e-02   2.6013569e-02  -4.8383880e-02   4.3205588e-02   3.1979341e-03  -5.9552125e-02  -3.5476922e-02   6.8940501e-02  -4.9728834e-02   8.0240824e-03   2.0153487e-02  -2.5339335e-02  -4.5344230e-02   2.6017711e-02   2.8117381e-02   6.9298265e-02   3.9263772e-02  -6.4405595e-02  -7.4117825e-02   1.2918254e-01  -2.8777626e-02   4.7744969e-02   1.9114906e-02   1.8743449e-02   1.8577052e-02   6.2647551e-02   4.9107954e-02  -5.3194226e-02   3.0430396e-02   9.0165292e-04  -7.3659308e-02   4.8260951e-02  -5.9073521e-02  -6.7141355e-02  -3.1463318e-02   1.0102955e-01   1.3908346e-01   4.1341312e-02   4.2952298e-02   1.2449393e-02  -6.2619134e-02  -1.1949776e-02   1.7267817e-02   2.4552628e-02   5.6233764e-03   4.7658606e-02   7.3038807e-02  -9.0071218e-02  -4.7037897e-02   1.1004894e-01  -6.6186843e-02   4.5015837e-02  -3.6322905e-02   4.2760205e-02  -3.2946246e-02  -2.5002432e-02  -4.4979059e-03  -5.3209641e-03  -3.2039609e-02  -3.6350253e-02   8.8134919e-02   6.4943033e-02  -4.2492164e-02  -3.7296845e-02   3.1575288e-03  -1.0059649e-01  -4.2538530e-02  -2.0495340e-02  -4.9187214e-02  -5.7691251e-02   1.7961438e-02  -4.9888027e-02  -1.0706014e-01  -7.1251906e-02  -3.1080187e-02   9.7361548e-02  -2.1335925e-02  -4.5767046e-02
   8.2335384e-02  -4.9444468e-03  -1.2705466e-01   2.6573982e-02  -1.7385402e-02   3.4883019e-02   5.0754611e-03   3.9331167e-02  -3.9936660e-02   3.7985598e-03   3.0860059e-02  -3.7132883e-02  -1.4386073e-02  -1.8207527e-02   8.3917403e-02   3.3652230e-03  -3.3668576e-02   7.3564594e-03   1.1871755e-02   6.4019319e-02   2.0860058e-02  -2.0683538e-02   8.6295494e-02   1.4889556e-02   2.4402358e-03  -1.8049630e-01  -6.5569861e-03  -4.9645213e-02  -2.2962985e-02   6.5998701e-02  -1.1078783e-01   3.4782541e-02  -4.6497260e-02  -2.5579612e-02   3.3433819e-03   6.5349259e-02   2.1571430e-02  -4.7363637e-02  -4.5754856e-02  -4.8602060e-02  -4.0942552e-02   7.1116369e-02   9.0938282e-03   1.2234560e-01   3.0695392e-02  -1.1314682e-02   1.3124383e-01  -6.5967324e-02  -3.3310414e-02   4.0343591e-02  -4.3110995e-02   6.3783202e-02  -4.0338706e-02  -4.1226627e-02   1.1020098e-01   2.6036270e-02   1.5128731e-02   8.9869365e-02   1.5329593e-02  -5.3880242e-02  -8.1833806e-02  -2.7772285e-02   9.9831728e-02   1.5742010e-03   2.4930317e-02  -1.7665093e-02  -7.4605252e-03  -7.3275325e-02   3.9527579e-02  -6.3527932e-02  -8.9731108e-03  -4.7316152e-02   3.3683005e-03   2.7371003e-02  -1.7962257e-02  -2.6558220e-02   4.6981853e-02  -2.1394797e-02  -1.3247875e-02   5.4995637e-02   9.6499474e-02  -2.2729868e-02  -3.2515506e-02  -2.5715203e-02  -5.0336675e-02  -3.1291438e-02   1.1676661e-01  -5.2154231e-02  -5.7873623e-02  -4.4129570e-02   3.0648246e-02  -7.0956801e-02  -3.8901520e-03  -2.2231674e-03  -7.0566627e-02  -6.5474378e-02  -8.9033448e-02  -2.4965177e-02  -7.5164267e-02  -5.8197985e-02   4.8707914e-02  -2.7702832e-02   1.0106663e-01   3.0660051e-02  -1.1384942e-02   1.0668023e-01   9.3472461e-02  -1.2067081e-02  -4.5835900e-03  -5.3781016e-02   4.9472191e-02   1.7325136e-02  -9.1820762e-03  -9.2176020e-02   3.6364927e-02  -1.7352870e-02   1.9950822e-02   6.2437455e-02  -3.2416640e-02  -7.7338878e-02  -8.7096560e-02   6.5661006e-03  -1.7240731e-01   1.6381312e-02   2.0925390e-02  -5.4054608e-02   3.7660958e-02  -2.2075804e-02   1.7413871e-01   9.4107467e-03  -3.8617645e-02  -7.7310664e-02   1.2274229e-01   7.2422001e-02   8.8117270e-02   5.3753876e-02  -9.3078195e-03   2.2332879e-02   4.9864243e-02  -4.0196411e-02  -7.0233338e-02   4.9771467e-02  -1.4968147e-01  -1.8817857e-02   2.5011884e-02  -1.8003771e-03  -1.0031684e-01  -1.0228467e-01  -7.2060308e-04  -5.0689864e-02   2.5368755e-03   9.9557773e-03  -2.9533368e-02   4.6066551e-02   4.0477178e-03   9.2529056e-02   2.2646822e-01   6.8499281e-02   1.1559284e-01  -5.5135067e-02   8.0668662e-02  -7.0318095e-02   3.2886945e-02  -8.4128608e-03   3.2768407e-02  -2.6682849e-02   3.4337567e-02  -2.0153404e-02  -5.2606734e-02  -7.6721744e-02   1.1632975e-01   3.8100430e-03  -1.4413937e-01  -1.0430486e-01  -4.2155252e-02   4.4064375e-02   4.2355640e-03   4.8778707e-02  -3.1702283e-02  -4.5365249e-02   4.8251384e-03   3.3204071e-02  -5.9062013e-02   4.9481096e-02   7.6473360e-02  -2.7742971e-03  -6.0652634e-02   1.1744867e-02   1.2685499e-02   8.8158597e-02   1.7885903e-02  -5.9115143e-03   4.1765683e-02   6.3734149e-02  -5.2688673e-02   1.2305009e-01   1.1494603e-02  -6.4593571e-02   5.4885341e-02  -3.3692959e-02  -8.9653537e-02  -9.4282226e-02  -7.9918476e-02   2.1527423e-02   1.9586306e-02   4.4574314e-02  -1.5919167e-01  -2.5073803e-03   3.5543930e-02   4.2174522e-03  -6.3790512e-02  -4.3263668e-02   5.1090973e-02   8.2171877e-02   8.9396530e-02  -4.1983461e-02   1.1439211e-01  -9.1502081e-02  -1.0797531e-01   7.6251770e-02   8.3867510e-02   7.6539879e-02  -3.0871058e-02  -2.7220843e-03   4.4418645e-02   1.0527601e-01  -7.1624977e-02  -3.1123069e-02  -7.0990961e-02  -4.1919742e-02  -2.2502247e-02   3.2322309e-03  -2.3297997e-02   6.2305841e-02  -9.9229919e-03   3.7141880e-02   7.7984827e-03  -5.9632767e-02  -3.6274691e-02   4.4138327e-02  -1.4935164e-02  -2.1039094e-02   1.6850342e-02   1.5254496e-01  -1.0382116e-01   5.5584411e-02   7.0177397e-02  -4.6405209e-02  -4.0020256e-02  -2.8041269e-02  -9.2409235e-02   7.6893497e-02   6.3911014e-02   8.9245161e-03  -4.1815128e-02   1.3206833e-02
  -6.5613786e-02  -7.9856647e-02  -3.4359783e-04  -3.0647952e-02   2.1114093e-02   1.7495964e-02   8.2469942e-03   3.8284656e-02  -7.2029946e-02  -5.5851143e-02   8.2003404e-03  -1.5243021e-02  -6.8942752e-02  -1.7847128e-01  -8.2993514e-03   4.7459719e-02  -3.0887284e-02  -1.3050472e-02  -6.9037096e-02   5.8665726e-03  -1.6164445e-02   2.8821050e-02   7.8612092e-02  -1.4319957e-01   3.6112727e-02  -1.1734692e-01  -1.8823691e-02   1.5697786e-01  -1.4282292e-01   4.4014811e-02   1.2117171e-02   1.5217370e-01   3.0399243e-02  -7.5942248e-02   3.1179477e-03   8.9696189e-03  -2.7626472e-02  -7.8093722e-02   8.2496816e-02   8.8959155e-02  -1.2897418e-02  -1.3709210e-01  -6.2955433e-02   5.6217306e-02  -5.8801337e-02  -3.3712276e-02   4.2141885e-02   3.4382847e-02  -1.8772542e-02   2.4668568e-02   5.8551966e-03   7.0543471e-02  -1.3483834e-04  -1.0579893e-03   2.6158485e-02   2.2978085e-02  -2.4170549e-04   2.3720010e-02  -1.3801614e-03  -8.5062664e-03   2.7685772e-02   1.0912332e-01   9.3262096e-03  -5.2829503e-02   9.6123236e-03   5.3714366e-02  -7.4963022e-02  -1.4410677e-01  -3.3993734e-02  -3.0601748e-02   1.3316196e-02  -9.5611417e-03   5.7702938e-02  -3.9186613e-02   5.9029511e-03   6.4987074e-02  -6.1789254e-02  -4.2426918e-02   8.4403772e-02   4.4458785e-02   6.3107866e-02   8.0795232e-02   5.5324645e-03   5.2139656e-02  -6.9178957e-03   4.4036953e-02  -4.0036280e-02   8.2339760e-02   1.5068028e-02   4.7734099e-02  -5.7204265e-02  -4.6006195e-02   1.4438178e-04   1.2807787e-01   2.6339297e-02   4.1113544e-02  -3.3598390e-02  -2.4118527e-02  -1.5981535e-02  -5.9232592e-02  -3.0172840e-02  -4.7583590e-02   4.2777867e-02  -6.8337251e-03  -1.4310837e-01   4.3824146e-03   5.3358975e-02   4.9424385e-02   3.9016186e-02   5.6209682e-02  -4.4287709e-02  -5.9994379e-02   7.4021148e-02  -7.9645156e-02  -7.8411632e-02   1.1629950e-01  -1.6305328e-01   1.0185946e-02   1.2609604e-01  -5.5716919e-02   1.5619402e-01   7.9572792e-03  -1.3300826e-02  -5.1446174e-03  -1.3515090e-01   2.9359067e-03  -1.0183685e-01  -4.5641995e-02  -9.8548216e-03   7.8832628e-02   5.6107723e-02   7.8366474e-04  -8.1377692e-02   5.5957990e-02   1.5948060e-02   4.6786237e-02   8.3846648e-03  -2.4516811e-05  -9.8332597e-02  -6.9472269e-02   3.3119066e-02   2.7772062e-02  -9.8196867e-02   3.2812315e-02   4.1477754e-02   7.8016405e-02   4.5879982e-02  -2.5935485e-02  -8.8978632e-02   1.7406406e-02   1.3810994e-03  -1.1364857e-01   4.1531657e-02   1.5415578e-02  -1.2798556e-02   2.8884209e-02   5.1483268e-02  -8.4668650e-02   7.4900375e-02   3.2064749e-03  -1.4912171e-02  -7.2203831e-03  -8.0482406e-02   9.3217542e-02  -8.1676959e-02   4.4662572e-02   8.9991633e-02  -3.6720829e-02   2.7380872e-02  -2.6728994e-03  -2.9019393e-02  -2.4765526e-02   1.6875770e-02   2.0658643e-02   6.9484242e-02  -3.4066495e-02   8.4591216e-02   3.7149899e-02   1.0578219e-01   5.3425562e-02  -7.1496417e-02   4.3352389e-03  -6.2795719e-02   2.3088965e-02  -1.3063380e-01   9.7109694e-03  -4.6115507e-02  -6.3117528e-02  -1.1193269e-03   1.0143972e-01   3.5311707e-02   7.3135845e-02   1.1551814e-02  -3.8476821e-02   6.6476032e-02   3.6104612e-02   8.3361967e-02   3.6413254e-02   6.0027672e-02   1.3722330e-02   4.7472757e-02  -4.3754951e-02   1.0349321e-01   8.9748314e-02  -9.1133691e-03   1.5672850e-02  -1.2104161e-02   7.3401137e-02  -1.5572294e-02   6.1616509e-02  -5.3869184e-02   2.9690484e-02   6.0484416e-02  -5.6910627e-03  -7.7622156e-03  -2.1852762e-02  -1.9511668e-01   4.2323810e-02  -6.4442591e-02   1.4991899e-03   1.9231928e-02  -7.5501813e-02   4.5757111e-02   5.8058130e-02   4.1472116e-02   3.9856715e-02  -4.3348221e-02   1.9464615e-01  -3.2642197e-02  -1.4450908e-02  -1.3588029e-01  -4.1313388e-02  -3.0173098e-02  -6.6111663e-02   1.9955500e-04  -1.9768991e-02   1.6935306e-02  -1.0056631e-01   2.3757554e-02  -9.4338908e-02   4.2736956e-02   5.8134716e-02  -5.7381025e-02  -5.8715323e-02  -9.7339444e-03  -8.3303130e-03   3.2652986e-02  -2.5668688e-02   1.1876353e-02   7.1141585e-03   4.1919101e-02   1.4803235e-02  -2.5222742e-02   8.2505508e-03  -9.0944680e-02   6.4591669e-02
  -5.9377854e-03  -5.6466630e-02   1.2720022e-02   1.3584151e-01   5.4484462e-02   8.2574540e-02   5.0811444e-02  -8.9451192e-04   1.0713391e-01   6.4859100e-02   3.2418315e-02  -6.8053341e-02  -2.4792639e-03   1.9991610e-02  -1.2400535e-02  -1.1800249e-01   6.8310723e-02  -3.7158723e-02   7.9244860e-02   1.3391164e-01   2.0902548e-02  -2.7103347e-02  -1.7588832e-01  -8.3083627e-02  -6.1197569e-05   1.7105234e-02  -9.2539563e-02  -6.2851148e-02  -5.5105281e-02   7.0931744e-02   3.7891679e-02   2.6589167e-02   1.2841789e-02  -6.2910242e-02  -4.0693397e-02  -5.5999736e-02   1.8936027e-02   9.7038137e-03   9.3061928e-02   1.8512837e-02   5.5939692e-03   9.1109081e-02   1.1984825e-01  -2.7720281e-02   2.6561131e-02   5.2224941e-03  -9.6896214e-04  -4.6344914e-03   5.7237682e-03  -8.7694408e-02  -4.3909766e-02  -3.0249123e-02  -1.5029990e-01   8.7805083e-02   1.0637540e-01   6.1271029e-03   2.4716293e-02  -2.4210659e-02   8.3000893e-02  -9.9701146e-02  -4.4889201e-02   4.3143942e-02  -3.1013160e-02  -1.0842158e-02   9.9837955e-02   3.9203967e-02   9.6342428e-02   1.3235501e-03   2.2540844e-03   1.4394769e-02   1.4507763e-01  -5.3829505e-02  -1.1236388e-01   5.5390412e-02  -2.6539295e-03   4.5676387e-03   1.8714537e-02   6.6822475e-02  -5.5740845e-03   2.5568811e-02  -1.9014867e-02   9.3357645e-02   4.1336251e-02  -8.3270448e-02  -5.4563415e-02   1.3048547e-01   2.2172793e-03  -2.9198234e-02  -2.4307427e-02   7.6236652e-02   1.1944839e-02  -1.4106235e-01  -6.1964239e-02  -9.6668904e-02  -1.0970544e-01  -3.0507689e-02   1.5399685e-01   4.7651156e-05  -4.8781471e-02  -2.3442896e-02  -6.4595957e-02  -4.1072112e-02   3.7286373e-02  -1.4454942e-02  -9.1205108e-03  -3.0752605e-03   6.1564157e-02   6.4993484e-02  -8.7157999e-02   7.5725646e-02  -3.7386853e-02  -2.6271966e-02   1.0543399e-01   6.4911605e-02   4.7485844e-02   7.5890761e-02   1.1004756e-03  -1.4577253e-01  -3.3009383e-02   4.9649226e-02  -4.3979417e-02  -2.8911835e-02   4.4500386e-02  -6.0495145e-02   2.4919263e-02   7.6425282e-02   6.4103901e-02   8.5884186e-03  -2.8674437e-02  -7.4192415e-02   1.0620143e-01  -9.1985504e-02   3.0639456e-02  -8.7988391e-03   1.5602907e-02   7.1908858e-03   3.0949539e-02   9.0559826e-02  -8.1498122e-03  -4.6052276e-03   1.5229606e-01   1.3179848e-01  -1.0178176e-01  -1.3332386e-02   1.1092695e-02  -4.8428011e-02  -7.0108823e-02   1.8618625e-02  -1.0238829e-02   6.2497962e-02  -1.7072228e-02  -1.1933261e-01   6.0223606e-02  -1.7269033e-02  -2.4641695e-02  -2.4217547e-02   9.3251512e-03   4.9849106e-02   2.0083232e-03  -6.5031710e-02  -3.6256470e-03   4.4470571e-02   4.4151565e-02  -2.9241851e-02   2.8028748e-02  -1.1766837e-02  -2.9594773e-03  -3.0167601e-02  -2.8005503e-02   8.9284308e-03   1.0967300e-02   1.1442055e-02   1.9442600e-03   3.2468512e-02  -2.7984350e-02  -1.2708617e-01  -1.3817033e-02   1.9375839e-03   4.8784192e-02  -8.7676564e-04  -1.0509765e-02  -5.4110225e-02   8.4754811e-02   2.6106691e-02  -1.4491009e-01   7.3036055e-03  -1.3429872e-01   8.1119779e-02   1.4716299e-02  -3.8117005e-02   1.5354694e-01  -9.1582325e-02   2.3662016e-02   5.1162867e-02   1.8089323e-02   1.4130251e-01  -2.0510339e-02   8.6752774e-03   5.9823776e-02  -7.6866333e-02  -1.9296728e-02  -9.3906586e-03  -3.8646908e-02   7.7241086e-02  -1.2843528e-01   9.5865892e-02   2.6883137e-02   2.4333189e-02   3.1274351e-02  -3.4430501e-03  -2.6272261e-02   1.8203200e-02  -5.6469413e-02  -3.1570274e-02  -7.3407024e-02  -6.0315366e-02  -8.2053622e-02   2.1630625e-02   1.9261540e-02   3.2487181e-02  -4.9579135e-02  -2.1026580e-02  -1.1962490e-01  -1.7929712e-02   2.4401356e-02  -3.2490944e-02  -6.5753991e-02  -1.1982689e-01  -5.5580742e-02   4.9135059e-02  -3.2042646e-02   3.8055421e-02   6.4917894e-02  -1.3738391e-02  -6.9523822e-02  -5.4591695e-02  -3.3520954e-02   4.6552471e-02  -5.8226734e-02  -4.2583795e-02  -1.0646081e-02   2.9796815e-02  -3.3852414e-04  -6.5215891e-02   5.3079776e-02  -3.1280468e-02  -1.8198772e-02   1.2088336e-02  -3.9966242e-02  -3.6385062e-02   3.7437929e-02  -2.3246591e-03   8.1325330e-02  -6.3814850e-02  -6.7264791e-02   7.3406302e-02
  -7.6294813e-02  -8.0406252e-03   7.4454641e-02   1.5659743e-02   4.8769647e-02   3.6659430e-02  -7.2675065e-02   2.2621933e-02  -9.8070922e-02  -8.2621029e-02  -3.6806687e-02  -3.3616113e-03  -1.4337593e-02  -1.3781973e-02  -3.1576828e-02  -7.4664669e-02  -9.0736891e-02   2.8656327e-02  -6.0969501e-02   1.0466563e-02   3.2883429e-02  -1.0237885e-01  -1.3884695e-02   3.8001378e-02   1.0109489e-02   6.3929360e-02   4.0068742e-03  -8.8345264e-02  -7.9589722e-02  -2.6260757e-02  -5.2309877e-02   9.1309458e-03  -5.9010900e-02  -6.8830955e-02   1.7561078e-01  -4.8915871e-02  -3.9755591e-02   5.5262999e-02   6.6688901e-02   3.4912397e-02  -1.4530706e-01   2.7254478e-04  -9.1572602e-02   6.4834996e-02  -1.9458867e-02   8.6975437e-04   1.2511607e-01  -6.4253155e-03  -1.6363913e-02  -3.2274911e-03   9.0418281e-02  -2.6733319e-02   1.5184058e-02  -1.7377733e-01   7.4859912e-02   1.1193674e-01  -3.8297261e-03   1.8955083e-02  -2.7231735e-02   1.3755179e-02   1.3539823e-02   5.5777259e-02   4.6237392e-02  -7.4270374e-03  -3.1850612e-02  -1.1209861e-01  -3.3821600e-02   8.3431964e-02   9.8630156e-02  -9.4696859e-02  -1.3953743e-02   4.9806153e-02  -1.4198574e-02   6.2099472e-02  -1.0153788e-01   4.4525091e-02   3.8927251e-02   4.3237734e-02   8.5850946e-02  -2.2101250e-02   1.4718197e-01  -6.7256070e-02  -4.2317536e-02   3.0158103e-02  -4.5601108e-02   1.6671423e-02  -8.2020644e-03   6.2727389e-02  -7.2389667e-02  -1.3629073e-02  -1.3981123e-02   1.2120814e-03  -2.2056183e-03  -3.4719920e-02  -6.6531924e-02   4.3247629e-02   2.9884291e-02   1.9326679e-01  -1.0709704e-02   1.6613581e-02   1.1676398e-02   1.1751810e-01   2.4565004e-04   4.9901343e-03  -1.0153415e-01  -3.9688064e-02   2.1269041e-02   9.1500993e-02   5.8727187e-02   9.5202367e-02   6.7059084e-02  -7.3852979e-03   1.0532436e-01   6.6823808e-02   1.0061771e-01  -1.3770715e-01  -3.0794645e-02  -4.2269809e-02   1.1246215e-01   9.8164305e-02  -1.2851784e-02   5.2890768e-02   6.4284116e-02  -4.5592211e-02   6.3476584e-03  -2.7914706e-02   3.7970771e-02   1.4096562e-01  -4.0443540e-02  -5.5774158e-02  -1.6505763e-02   5.2734125e-02   1.1510008e-02  -3.5540318e-02   3.9665514e-02   6.1497578e-02  -3.3416822e-02   4.5528470e-02   1.8979273e-02  -8.6525861e-02  -5.0086751e-02   6.0129859e-02  -7.7922696e-02   3.7737473e-02  -2.0711120e-02  -1.3489734e-02   4.1328145e-02   9.9527740e-02  -6.6687398e-03   6.4151032e-02  -2.8634776e-02   1.3853736e-02   6.1634178e-02   6.9755686e-03  -4.3936339e-02  -1.5323080e-03   1.3968099e-02   3.7445044e-02  -2.7851662e-02  -3.8193596e-02  -1.0013570e-01  -7.6510858e-02  -3.2049630e-02  -5.9890554e-03  -3.6029068e-02   6.2638846e-02   1.4071797e-02  -5.2037201e-02   9.1426480e-03  -4.2283416e-02  -4.2209294e-02   1.0563711e-02   3.2131246e-02  -2.0250608e-02  -1.2986826e-01   9.3459955e-03  -9.1808104e-02   7.3929217e-02   7.3399118e-03  -9.3995209e-02   2.6391259e-02   7.1625798e-02  -5.9282527e-04   2.8673764e-03   1.4384830e-02  -5.4286384e-02  -5.6969220e-02  -9.8581311e-03  -5.1384632e-02  -3.8495852e-02  -3.7686134e-02   3.5537863e-02   8.0685396e-02  -2.8786709e-02  -8.4864872e-02  -6.8739857e-02   4.4934937e-02  -5.3660903e-02   3.7572751e-02  -1.7897633e-02  -1.0096086e-01  -7.2969077e-02   1.2116866e-01  -1.8698297e-02   6.8694663e-03   6.3626566e-03   1.1855596e-02  -2.5329508e-02  -1.2634949e-02  -5.6176693e-02   5.1577725e-03   5.1738785e-02   5.9546440e-02  -5.4628682e-02  -6.0909068e-03  -9.9115046e-02  -7.1349145e-02   1.2322853e-02  -3.2647161e-02   4.0151591e-02  -8.3319700e-02   8.9038522e-02   3.1316347e-02   1.1435048e-01  -3.4964434e-02   2.5507884e-02   1.1983534e-01  -8.9653418e-02   1.7255280e-01   3.0624058e-02  -5.9677899e-03  -1.0913127e-01   6.9891061e-02   1.2619012e-01   1.7340663e-02   8.6173134e-02  -1.4165648e-01   6.0510757e-02  -7.8621585e-02  -1.2870063e-02   5.3899235e-02  -4.8036086e-02  -5.6205670e-02   2.0036906e-02   7.4874331e-02  -3.7422390e-02  -1.6627763e-03   2.0505435e-02  -3.2395421e-03  -9.1118426e-02  -1.4709778e-02  -6.0251832e-02  -4.3098727e-02   3.4087452e-02  -2.5047123e-03  -2.8224915e-02
   5.3826464e-02   2.3755085e-03   8.5257441e-02   2.5791563e-02  -3.8056733e-02  -4.9197711e-02  -1.7553114e-03  -5.7424300e-02  -6.8250550e-02  -1.9286081e-02   4.1941038e-02   3.5444422e-02   7.3081527e-02  -1.5099014e-02   5.7906611e-02   6.7547708e-02  -1.4424313e-02   8.3707888e-02  -2.8513787e-02   3.4119599e-02  -4.3435511e-02   2.1740038e-02  -4.5123580e-03   5.0905704e-03  -4.3048059e-02  -7.4234514e-02   1.2934424e-01   2.0641498e-02   5.7354643e-02  -8.0964595e-02  -5.7646996e-02   3.3577961e-02   1.5329883e-03  -7.9198194e-02   1.3669936e-02  -2.4274000e-02   4.1085656e-02  -4.4615684e-02   1.0702484e-02  -4.2120429e-02  -8.8244473e-02   1.3956739e-01   3.4963962e-02   6.0536308e-02   1.3502662e-01   4.8516693e-02  -1.0891155e-02  -1.3247816e-02  -6.7678203e-02   2.2940059e-02   8.4438872e-02   6.4256271e-02  -9.6746919e-02  -4.3586297e-02  -3.5558212e-02  -5.4573693e-02  -1.0642765e-02   3.4713313e-02  -5.9187190e-02   1.8760693e-01   8.2659568e-02   5.7641956e-02   1.7806004e-02   1.0520584e-01   1.3062964e-01  -3.3058061e-02  -4.6228762e-02  -2.6458637e-03  -8.6126187e-02  -1.0562420e-01  -8.0567698e-02  -5.5284220e-02   1.0088878e-02   6.5643863e-02  -8.1303220e-02   9.4566853e-02   8.1436843e-02  -8.9490416e-03   2.9200508e-02   4.7549242e-02  -9.3459916e-02   3.3831497e-03  -3.1520957e-02   2.3383553e-03   1.4720616e-02  -3.6841092e-02   1.2414757e-02  -9.0692666e-05  -4.5284651e-02  -3.9492844e-02  -1.3847451e-01  -8.5265549e-02  -2.4428265e-02  -4.5793074e-04   6.1324929e-02  -7.8305090e-04  -8.1646624e-02  -3.1375367e-02   3.3990863e-03   2.7731695e-02   4.3892273e-02  -2.5822895e-02   7.3269625e-02   1.7428653e-01  -1.9358826e-02  -1.2299319e-01  -2.0448755e-02  -6.0459357e-02   6.4244731e-02   2.5110629e-02  -7.4276278e-02   1.5781257e-02  -4.5562904e-02   3.4440993e-02  -6.9083244e-02   7.6237562e-02   2.7998195e-02  -1.0711364e-01  -2.6201926e-02   1.9851921e-02  -4.3454383e-02   7.3515432e-03  -5.3431685e-03   4.2804760e-02   5.3848995e-02  -5.8820439e-02  -5.2508760e-02  -4.5745721e-02   1.4192298e-01  -3.8466906e-02   6.4365060e-02   7.3385009e-02  -3.8365259e-02  -8.5092399e-02   1.6442418e-01   1.2822533e-01  -1.3882215e-01   5.7410824e-02  -1.1726302e-01   3.4156550e-02  -9.4784321e-03   7.8551391e-02   7.5628926e-02   5.1739361e-04   1.3501005e-01  -5.0289680e-02  -7.2516585e-02   4.0857877e-02  -5.0070052e-03   9.4113971e-03  -8.7087765e-03  -4.9011803e-02   1.8408981e-02  -2.6981978e-02  -1.1008853e-02   5.0394107e-02  -8.4873390e-02  -2.5810862e-02  -5.1448075e-02   1.6103133e-02   7.5521956e-02   1.1094646e-01  -3.0406512e-03   8.7508552e-02  -2.8961852e-02   3.4637203e-02  -5.4768585e-02   1.3294282e-01  -6.1673956e-02   1.3468896e-02   3.1692688e-02  -1.4485390e-02  -2.8212528e-02  -1.4110701e-02  -1.8900964e-02  -4.3361525e-02   1.3883593e-02   1.4157453e-02   4.0864173e-02   1.4207433e-01  -2.6802908e-02  -1.6506872e-02   3.9811784e-02  -8.8124316e-02  -2.0889264e-02   2.4411549e-02  -2.8598311e-02  -8.7075458e-03   7.0199824e-03  -1.4171530e-02   1.5383844e-01  -6.0542367e-02   2.7250879e-02  -1.1455836e-01  -7.0089766e-02  -1.0925552e-03  -8.8189706e-02  -1.6734018e-02  -4.6168103e-02   9.4322183e-02  -4.0471067e-02  -6.4590820e-02   1.9063026e-02  -3.0104411e-02   2.4217922e-02   2.5143902e-02  -7.3921539e-02  -5.5800932e-02   6.3729469e-02   5.4355260e-02   3.5044714e-02   1.2512354e-01  -8.2524591e-02   7.1208303e-03   3.6269556e-02   3.6092427e-02  -5.1252268e-02   5.1157043e-02   2.4989766e-03   1.5203664e-02   6.0827284e-03  -6.7450030e-02  -8.3632739e-02   4.6253053e-02  -2.9516285e-02  -1.3692688e-01  -1.1861779e-01  -5.6419462e-02   9.0017937e-02  -9.8208285e-02  -3.3880105e-02   8.5239892e-03   2.3864934e-02   7.9002187e-03  -3.5506506e-03   2.7963205e-02  -6.3582317e-02   3.6813933e-03   2.3815650e-02   8.3977898e-02   1.0317947e-02   3.9684373e-02  -3.2482762e-02   1.7651755e-02  -3.0669492e-02   4.4603993e-03  -7.6659163e-02   8.1471410e-02  -4.9465909e-02  -8.6234868e-04   6.6112821e-02  -7.1405300e-02  -2.6474869e-02   6.6015148e-02   3.0829667e-02  -2.4188059e-02
   4.6614497e-02   1.3877740e-01   1.0989020e-01  -1.2536241e-01  -4.9396168e-02  -4.7977455e-02   2.8222847e-02  -7.5457396e-02  -5.1986003e-02  -4.2168171e-02  -7.0875704e-02  -1.6733861e-02   1.0259869e-01   4.9346040e-02   8.8081790e-02   3.1110953e-02   1.4601670e-02  -1.7723764e-02   2.8854775e-02  -8.2997066e-02   7.8321866e-02   1.1977608e-01   6.7524111e-03  -9.0485226e-03  -1.7251110e-02  -3.4433509e-02   1.0942455e-02  -1.6452293e-01   1.2284040e-03   1.4274131e-01   3.1194330e-02  -3.5093773e-02  -1.2104872e-01   1.5842636e-02   7.2156474e-03   3.9473213e-02  -4.9723565e-03  -7.2176448e-02   5.5381339e-02  -2.3117999e-02  -2.4911877e-02  -2.7528313e-02   1.1604837e-01  -5.0515426e-02  -1.3007819e-01   7.8752052e-03   6.0130562e-02   5.3352775e-02  -2.7047967e-02   1.2306879e-02  -4.4285191e-02  -6.8132653e-03   4.4435212e-02  -2.5340674e-02  -7.1265599e-02   6.8330436e-02  -6.6637194e-03  -1.9346245e-02   3.9291057e-02  -5.4410884e-02   7.4189860e-02   3.8573398e-02  -1.8855417e-02  -3.9597702e-02  -8.6332505e-02   2.0300942e-02   9.4741360e-03   8.3351071e-02   3.3848747e-02  -3.9251728e-02  -4.4870979e-02   2.6243399e-02   4.3282097e-03   7.4479300e-02  -3.8103887e-02   5.5869403e-02  -1.8852405e-01   1.6456692e-02   4.3369220e-02  -3.4163723e-03  -2.8811255e-02   5.0625314e-02  -2.3419773e-02  -1.7996568e-02   1.1426846e-01   1.8569808e-02   2.3334043e-02  -4.3018684e-02  -8.0378200e-02  -6.4246369e-03   2.6136388e-02  -1.3592798e-02   4.9822070e-02  -5.4310726e-02   3.2428064e-02   6.9171458e-02  -1.1191399e-01   5.0766428e-02   1.0688594e-01   7.6262028e-02  -8.4416360e-02  -4.5986465e-02  -1.4906216e-02   1.5557690e-01  -4.8515501e-02  -1.1451632e-01  -7.3180151e-02  -1.8933656e-03   2.5474639e-02   9.0004890e-02   9.7489601e-03   3.0559960e-02   3.4193415e-03  -1.2318152e-01  -1.3654445e-02  -1.0844474e-01  -5.7581390e-02  -1.1632959e-01  -2.7174442e-02   8.3208389e-02   4.4407393e-02  -6.1182003e-02  -2.1071255e-02  -6.5067054e-02   7.9095780e-02  -5.5361999e-02   1.0348687e-01  -4.1456562e-02  -1.3528210e-02   1.8332497e-02  -2.8022612e-02   2.7266611e-03   3.6328072e-02  -3.2827680e-02   6.9939230e-02  -1.2405693e-01   9.7586378e-02  -8.1768347e-03  -4.8918440e-02   5.4334734e-02   3.1795799e-02  -4.6675626e-02  -3.1963077e-02   5.7270087e-03  -7.1408316e-02  -6.7524083e-02   2.8818455e-02  -3.5364897e-02   8.5293281e-03  -2.2564063e-02  -1.9654874e-04   1.1369637e-02  -5.3125638e-02  -8.3227656e-03  -3.2995226e-02  -5.1732600e-02   7.0622335e-02   5.5304538e-02   7.6691518e-02  -5.9484273e-02   1.7672812e-02  -2.7326628e-02  -3.3266036e-02  -6.9646614e-03  -5.9156236e-03  -6.9014529e-03  -3.9748441e-02  -1.0752023e-01  -1.7166003e-02   2.3589803e-02   2.7855329e-02  -1.4314839e-01  -2.5679513e-02  -5.3558245e-02   1.1047700e-01   7.2268547e-02  -1.3317281e-01  -2.3626226e-03   4.6970017e-02   8.3994106e-02  -8.5872218e-03  -6.3291838e-02   1.8751057e-03   9.2634061e-02   7.4320021e-02  -1.8956156e-02   9.3516163e-04  -1.2053036e-02   6.1661973e-02   9.3784818e-02   1.1489745e-01  -8.2105383e-02  -9.5604540e-03  -7.5537048e-02  -5.2367598e-02   5.5310613e-02   1.6294694e-02  -5.0579068e-02  -2.1114907e-02  -4.2810099e-02  -9.4451145e-03   5.5761617e-02   2.7108947e-02   8.0161660e-02  -7.7878374e-02   3.7260194e-02   4.5394911e-02  -1.5527958e-03   5.8266339e-02   6.0613710e-02  -7.9668195e-02   4.6153379e-03   7.8411410e-02  -2.8410459e-02  -6.7286689e-02   5.9899524e-03  -4.7264031e-02  -3.1839816e-02   1.8257044e-02   9.2267513e-02   8.7502585e-02  -2.1598650e-02   5.4403880e-02   1.6083046e-02  -2.1957720e-02   6.5565614e-02  -1.2948595e-01  -2.8130151e-02  -6.5680023e-02   6.4958593e-02   5.4973120e-02   5.5343617e-02   1.9904772e-02  -1.2802082e-01  -6.3414406e-02   1.4923794e-01  -6.0814682e-02   4.9803328e-03   4.6716923e-02  -1.7361765e-02   3.0888771e-02   6.3965687e-02  -1.7129997e-01  -3.8574649e-02   5.7051886e-02  -8.7069707e-03  -9.7660980e-04   1.9331799e-02   6.5070825e-02   9.1776632e-02  -2.5016815e-02   5.2691192e-04   6.5057544e-03   4.2680258e-02   4.5286478e-02   3.0963124e-02
   5.2803442e-02   8.9276696e-02   5.9947165e-02  -4.6347455e-02   7.1447762e-02  -1.1510008e-01  -1.7805569e-03   5.8860536e-03   2.3444589e-02  -9.8122579e-04   3.2684631e-02   1.4245578e-01  -3.6004240e-02   7.3347129e-02  -4.7083157e-02  -8.9361601e-03  -9.8509494e-03  -1.4272923e-02   2.3842319e-03  -6.2089738e-03  -5.7409381e-02   2.7692135e-03  -1.2839791e-02   1.1403908e-01   2.3252228e-03  -7.6488727e-02  -3.5068456e-02   9.4602670e-02  -7.2789597e-02  -6.0180033e-02  -1.0828933e-01  -4.1397048e-03  -7.5199939e-02  -6.4921439e-03   4.4307495e-02   4.6380610e-03  -5.1233315e-03  -1.9506286e-02  -4.2954068e-02   5.1855567e-02  -6.9255262e-02  -1.4949954e-01  -2.9464412e-02  -5.2038691e-02  -2.1113642e-04   1.7503258e-02  -8.4970945e-02   6.3092992e-02   3.0950807e-02   9.2134339e-02  -3.5630201e-02  -1.8802934e-03   2.9218858e-02   5.2868763e-02  -7.7376299e-02   6.8194216e-02   8.0198573e-02   1.5976283e-01   3.9232361e-02   9.8436525e-02  -1.1886163e-01   3.8297969e-02  -4.1574445e-02  -5.8278375e-02  -3.2897213e-02   1.0791771e-03  -3.3811657e-02  -3.8748432e-02   5.1592836e-02  -5.3862205e-02  -2.2674793e-02   2.1107043e-02   2.4949195e-02  -3.0158643e-02  -1.3217503e-02   5.2328281e-02   3.3373363e-02   1.8083636e-01   2.7180211e-02  -4.3801936e-02  -2.2894549e-02  -7.2653798e-02   3.1044481e-02  -2.9158162e-02  -1.6900926e-03  -8.0517129e-02  -4.4773880e-02   7.7989977e-04  -3.5719287e-02  -7.4965292e-02  -1.1672485e-02  -1.2073751e-01  -1.0126558e-02   1.5794714e-02  -5.2595875e-02  -1.8695503e-02  -6.8820377e-03   1.2318036e-01  -3.3430920e-04   3.4538253e-02   5.2774048e-02  -6.6930860e-02   4.3501522e-02  -2.0429866e-01   7.1668836e-03  -6.7904895e-02   1.1648246e-01  -1.3566447e-02  -5.2669914e-02  -7.0508226e-02   3.8536615e-02  -2.6132166e-02   9.5470684e-02  -1.0358542e-01   1.4885155e-02   1.0501855e-01   5.6081693e-02  -8.3478712e-03  -4.1789116e-02   4.8053188e-02  -8.8285405e-03  -3.1534943e-02  -8.2377988e-03  -3.4057228e-02  -2.9589999e-02  -6.3110474e-02   7.0026395e-02  -4.5188243e-03  -7.5547098e-03  -6.6499185e-02   1.4087980e-02   9.4485492e-02   1.6185550e-02   4.9983093e-02   2.5188020e-02   4.1877078e-02   3.0310621e-02  -1.5294222e-02  -1.4017779e-02   8.9223373e-02  -7.5739621e-02  -1.3352820e-01   5.1027765e-02   7.2288578e-02  -3.6218869e-03   7.8853689e-02  -5.7279232e-02  -7.8110236e-02   8.1446545e-02   6.5985677e-02   3.7080597e-03   3.0097007e-02   4.2017752e-02  -4.3754919e-02   2.1501836e-02   3.7232074e-02   1.5282057e-02  -1.0479560e-01  -9.6733126e-02  -7.4436026e-02  -3.2059592e-02   1.0820581e-01   3.5563675e-02   6.2285493e-02  -9.5365729e-03  -7.0354737e-02  -3.3977706e-02  -2.3666887e-02   2.7601433e-02  -1.1516202e-02   1.4175511e-04   3.1798731e-02  -2.3562978e-02  -3.6782548e-02   6.6966306e-02  -1.1390567e-01  -1.3476403e-01  -2.5169263e-03  -1.1056177e-02   1.4017373e-02   6.6407352e-03   4.5610610e-03   5.9384158e-02  -1.2997292e-01  -1.8309648e-02   1.9711759e-02   6.9772501e-02   7.3427482e-02  -6.2846867e-02  -4.7685748e-02   1.0018693e-01   5.3941854e-02   3.1298135e-02   1.0107528e-02   5.9722902e-03  -4.8204289e-02   5.4249263e-02   1.1196667e-03  -2.4688948e-02   1.0040858e-02  -5.8530595e-02  -4.2945177e-02  -7.0571492e-02   6.6800209e-03  -5.4515109e-02   1.3372404e-01   1.4701984e-02   1.4058637e-01   1.7788931e-01  -1.0159352e-01  -1.4974083e-02  -3.8910618e-03  -7.5333703e-03   2.6490720e-02  -3.5386248e-02  -1.7932300e-02   2.9214960e-02  -5.2308385e-02   1.5540457e-02  -5.0566363e-02   1.0355551e-01   1.5373737e-02   3.5407458e-02   5.9994551e-02   9.2300025e-02   7.0371383e-03   2.4491808e-03  -4.6901103e-02  -8.9856745e-02   1.2058995e-01  -3.1523820e-02   2.6179994e-02  -6.1126609e-02  -6.1238259e-02  -4.8056692e-02   5.4498808e-02   3.1778384e-02  -2.0962407e-03  -4.6962269e-02   1.8685112e-02   1.0583994e-01  -7.0030424e-02   3.9615657e-02  -1.1445156e-01  -7.0693244e-02  -1.2016074e-01   3.6156316e-02   1.1462166e-01   2.2908203e-02  -8.6254149e-02   2.0476406e-02   2.1090680e-02   1.2754230e-02  -3.3833465e-02  -5.7189500e-02   1.0206136e-01
  -7.0845497e-02  -1.4766311e-02  -1.4005834e-03  -5.0779391e-02   1.0540182e-02  -9.1536863e-03  -2.7721320e-02  -7.3317588e-02  -5.2070634e-02   8.7176869e-02  -5.5529841e-02   7.1551327e-02  -2.8460047e-02   7.3097263e-02   8.6556315e-03  -1.3809338e-01  -1.3846749e-02  -1.0783264e-01   7.9888080e-02   2.8120799e-02   2.6892471e-02   9.9055650e-03  -3.2392460e-02   3.9194193e-02   6.2301139e-02  -5.3524976e-02   2.7736133e-02   7.8861774e-03  -4.6061264e-02  -3.5761820e-02   1.3349434e-01  -9.0857480e-02   5.7923644e-02   4.4765999e-02  -1.8206763e-03   4.1933854e-02  -1.5477334e-02   8.5634831e-02   6.3440347e-02  -1.2345956e-02  -5.2467197e-04   2.3931218e-02  -6.2608452e-02   1.5281177e-02  -3.6542415e-02   9.3212273e-02  -4.6497009e-02  -2.7993112e-02   4.2744624e-02   4.4570432e-04  -3.8977049e-02   7.4949912e-02   2.0817212e-03   2.3111279e-03   3.6503176e-02  -7.1789912e-02   3.8895561e-02  -5.3476696e-02  -6.0857228e-02  -2.7539897e-02  -1.2474604e-01   5.2908805e-02   1.0589915e-01   1.2429449e-02  -8.9556270e-02   1.8598284e-02  -1.3486288e-01  -3.5223793e-02   4.2033260e-02  -3.4718880e-02   1.9651606e-02  -7.5899983e-02  -2.2256920e-02  -7.1873126e-03  -2.5359050e-02  -3.5939849e-02   4.7085713e-03   6.3268156e-02  -1.8573372e-01  -9.7220263e-03   1.2673781e-01   1.9005585e-02  -4.4910391e-02  -5.3022345e-02   1.0831540e-02   4.6795998e-02  -1.1886908e-01  -4.8345764e-02  -2.6059870e-02   6.3011114e-02   3.5105357e-02   2.7930121e-02  -3.6198151e-02  -1.5766202e-02   1.3492006e-03   2.7694754e-02  -1.5213664e-01  -7.7654279e-02   5.8833260e-02   9.6055091e-03   8.9336201e-02   5.7363478e-02   2.6039845e-02   1.0271630e-02  -4.4959771e-02  -3.8561302e-02   1.0148274e-01  -5.6920768e-03   8.1236531e-02  -4.7051315e-02  -1.3920237e-01   4.9329149e-02  -6.7978224e-03   9.1106246e-03   3.3817843e-04   1.3634552e-01  -7.4386967e-02   2.4494822e-02   1.1249879e-01   3.5553015e-02   2.9819599e-02   1.9169229e-02  -5.4466720e-02  -2.8079852e-02  -4.5530478e-02   1.1288211e-01  -5.8499508e-02  -8.0728128e-02  -1.5361473e-02  -3.2801482e-03  -2.8772806e-02   2.9948287e-02   7.8546638e-02  -6.9433340e-02   1.2472298e-01  -1.5694698e-01  -4.3924430e-02   1.1806050e-04   8.3450624e-03  -5.8362642e-02  -7.4444631e-02   5.7503091e-02   1.7150835e-03   2.1851039e-03  -3.2423760e-02   6.0501896e-02   3.7652383e-02   7.9974665e-03  -1.6487560e-02   2.1231311e-02   7.9818645e-02  -3.7458893e-02   4.2660778e-02   6.4843848e-02  -6.4567789e-02   7.2017270e-02  -4.2091892e-02  -8.1865789e-02   2.4750869e-02  -1.0866380e-03  -6.5832032e-02   1.2339292e-01  -6.8848537e-02  -1.2836598e-02  -1.9329177e-02   5.3996774e-02  -1.5614649e-02  -4.2721420e-02   1.4801500e-01  -4.7581951e-02  -3.8521462e-02  -7.2639718e-02   1.4770630e-01   9.9181023e-02  -1.0959133e-01  -3.2754078e-02   2.0534406e-02  -7.3305651e-02  -6.1745143e-02   5.4265928e-02   1.1959962e-01  -1.5933074e-01   7.7438255e-03   1.3220829e-02  -6.6081980e-03   5.3152277e-02   7.2655582e-02   6.5060519e-02   8.9549721e-02  -6.5864286e-02  -4.1314783e-02  -4.4737995e-03   1.3795768e-02  -4.5887711e-02   9.9272072e-02   1.3000358e-01  -6.2593517e-02  -3.9393116e-02   3.8041191e-02  -1.2611078e-02  -1.3742390e-01  -3.2335552e-02  -5.7828594e-02   2.3324818e-02   4.4966210e-02   2.6146739e-02  -8.6767914e-03  -7.2225588e-02   4.9328639e-02  -8.2375830e-02  -4.7526139e-02   5.6137699e-02  -5.3422725e-02   1.0204215e-04   4.9826114e-02   3.4415074e-02   3.0442942e-02  -1.2238215e-02   6.4276252e-02   9.6239149e-02  -1.7745901e-02  -2.9678204e-02   4.8617839e-02   7.7035194e-02  -2.2629575e-02   6.1002758e-02   2.7433712e-02  -1.1002064e-01  -5.1074885e-03   4.8706915e-02  -2.7070788e-02   7.7992808e-02  -4.7823927e-03  -6.5215321e-02   3.8196889e-02   7.4319980e-02  -1.4318551e-02  -7.9925360e-02  -4.4351159e-04   1.0550733e-01  -1.1671562e-01   1.5572854e-02  -4.9200228e-02   5.3860188e-02  -2.3949899e-02   9.5961479e-02  -2.8631836e-03   2.7578432e-03   3.9043605e-02  -2.6012894e-02  -8.2016719e-02  -4.2339656e-02  -6.9879414e-02   4.3064233e-03   5.5254833e-02   1.2628997e-02
  -1.4942377e-02   4.2874719e-02   3.0600954e-02  -5.2094298e-03  -9.7689174e-02   7.8532358e-03   7.0954921e-02  -4.5957907e-02   3.4389254e-02   1.6237373e-02  -9.2249782e-03   7.8992106e-02   2.7026644e-02   4.3532288e-02   1.2931270e-01   3.0290264e-03  -8.9589868e-03   9.6543809e-02   7.8981085e-02  -7.8637124e-03   1.8033936e-02   7.9076878e-02   1.6982888e-01  -5.2130016e-02   5.0532133e-02  -5.1381000e-02  -3.8636752e-02   3.5247218e-02  -6.9605529e-03   1.0334712e-01   2.9342029e-02  -7.1080332e-02   8.2121377e-02  -4.9576891e-02  -4.3208556e-02  -4.2695197e-02  -1.9035370e-02   1.5369437e-04   1.3436905e-03  -2.2170381e-02  -4.4539916e-02   1.0514615e-01   1.4914588e-02  -7.3539580e-02   1.6818871e-02  -9.8770964e-02   1.1219220e-01  -8.8695244e-02   1.3312182e-03  -6.0151662e-02  -5.5761273e-02  -9.0409053e-03   1.0607462e-01  -6.5264994e-02   6.8296493e-02  -8.8806574e-03  -8.1696656e-02  -7.0559358e-02  -4.5033375e-02   7.4388567e-02  -5.9500029e-02  -6.0456379e-02   1.9483667e-02  -9.5611468e-02   2.7058194e-02   4.1768284e-02  -1.0707516e-02  -6.7923242e-02  -1.1348732e-01  -9.0402504e-02  -1.7528532e-02   1.2514567e-01  -3.9347359e-02  -4.6827512e-02  -3.5850649e-02   5.9525188e-02  -3.4167332e-02   2.1325162e-02  -2.9559599e-02  -1.7602562e-02  -4.8397050e-02   1.9339565e-02   1.7372235e-01  -1.1080944e-01   8.1150794e-02   4.7604476e-02   3.0027592e-02  -8.5398230e-02   3.8585461e-02  -5.4265936e-02  -3.2302782e-02   5.6536033e-04   1.0446576e-02   9.4848178e-02  -8.7801392e-02   5.3993859e-02   8.9119659e-02   1.2001536e-01   5.6303821e-02  -1.0916210e-01   7.3203046e-02   6.2488455e-02   5.3451552e-02  -9.8613192e-02   9.2984941e-03   8.8993651e-02  -4.6815428e-02   4.6956954e-02  -8.9475823e-02   1.1061622e-01  -2.7333143e-02   8.3236848e-02  -1.0393921e-02   3.4612841e-02   9.9389713e-02  -9.3307682e-02  -2.7062089e-02  -8.8401098e-04   6.8984549e-02  -2.4436400e-02  -1.2298147e-01  -2.4336161e-03  -1.5753223e-01   1.4959419e-01  -6.6717249e-02   7.1633435e-02  -7.2764084e-02   6.2368039e-04  -2.7388344e-02  -1.0379682e-02  -5.6631573e-02   3.0600787e-02  -2.1237126e-02  -4.6965845e-02  -7.7025751e-02  -9.1238099e-04   4.2259291e-02   4.1020018e-02   2.2545084e-02   1.7728797e-02  -6.2334516e-02   2.7003673e-02  -3.7025934e-02   5.0644080e-03  -7.4976645e-02   9.1762116e-03   2.6532382e-02  -1.1995510e-02   1.9939874e-03   8.2841603e-02   3.9269815e-02  -2.5135296e-02  -7.0486505e-02   7.4995059e-02   2.4381998e-02  -4.4523921e-02  -4.0133377e-02   4.5357050e-02  -5.5774469e-02  -1.7773311e-02   2.3267107e-03   9.0677675e-02  -2.2705798e-03  -2.2769161e-02   7.0958859e-02   1.7652972e-02  -2.9566899e-02   5.9383016e-02   6.2355724e-02   5.4844645e-02  -2.1992973e-02  -3.7048045e-02   8.5059789e-02   3.3410860e-02  -6.8106506e-02  -6.1432221e-02  -2.6378302e-04  -4.6938328e-02   1.3674511e-01  -2.9130876e-02  -2.3313602e-02   9.6709886e-03   5.2139035e-02  -3.4183237e-02   4.0362139e-03   1.4975481e-04   5.6979032e-02   3.1652987e-02  -9.9339700e-02   4.3971073e-02   3.6493657e-02  -1.4246609e-02   1.7186897e-02  -4.3753730e-02  -2.1217239e-02   2.7635045e-02   4.7023032e-02   2.3004341e-03   3.7530203e-02   1.2840420e-01   1.9279813e-04  -6.3509128e-02   1.0240157e-01  -5.2657425e-02  -9.2046304e-03  -1.3383646e-01  -1.6472746e-01   9.1410559e-02   8.7892962e-02  -5.8950299e-02  -9.5775224e-02   4.5389842e-02   1.9757468e-02  -1.8281252e-02  -5.8766609e-02   1.4125396e-02  -4.3096043e-02  -4.3865287e-02  -6.8787067e-02  -2.9974993e-02   8.4613113e-02   7.5693049e-02  -4.0646537e-02  -1.2882257e-01   3.7111355e-02  -1.2559252e-01   2.0984910e-02   3.1028400e-04  -4.1670263e-02  -2.7477917e-02   1.4087242e-02  -5.4009047e-02   4.5237835e-03  -8.9230148e-02  -2.3237322e-02  -1.5264444e-02   1.0060929e-01   1.7071784e-03  -1.1480252e-01   4.3964428e-02   1.9813052e-02   1.5483429e-02  -5.1780591e-02  -7.3285217e-02   7.4073664e-02   5.7221032e-02  -3.2712609e-02   2.2768938e-02   2.9200272e-02  -6.8514636e-03  -5.3286719e-02  -5.2162826e-02  -4.5115997e-02   8.1886542e-02   4.6776518e-02   6.0385682e-03
  -7.8487712e-02  -1.8599315e-01  -5.3965539e-02   2.6038388e-02  -7.8542543e-03  -7.8560995e-03   3.9287522e-02   5.4183415e-02   6.4508363e-04  -2.9519463e-02   5.5236331e-02   6.5911327e-02  -6.3688458e-03   9.9927275e-03   9.3664114e-02  -2.0789441e-02  -1.2832094e-03  -9.2139684e-03   2.5446499e-02   1.3929101e-02   1.0635180e-02   5.5581688e-02  -7.5788114e-02   7.2001933e-02  -6.9844938e-02  -5.4611591e-02   5.2754746e-02   1.6251464e-02  -3.9455285e-02  -2.0814149e-02   2.7959451e-02   8.0659292e-03  -4.4831148e-02   4.0050785e-03   1.7541500e-02   2.8487072e-02  -1.1101115e-02  -8.9886484e-02   6.6417065e-03  -2.1827848e-02   1.2596949e-01   5.9545962e-02   8.3224579e-03  -1.1032311e-01  -5.9489392e-03   2.1918844e-02   8.4382421e-02  -5.7016875e-06  -3.2473261e-02  -5.1274218e-03   3.4807356e-02   5.4006189e-02   7.5171290e-02  -1.1436026e-01   1.0857234e-01   4.8530408e-02  -1.2647121e-02   8.6435244e-02  -1.2808413e-01   5.9706098e-02  -5.7426577e-02  -4.7700386e-03   6.5204058e-02   1.8010825e-02  -6.3782126e-02  -2.8207584e-02  -1.1599292e-01  -1.9012708e-02  -1.6861150e-02   7.0520319e-02   4.9196481e-02  -5.6110541e-02  -5.5252966e-04  -3.2509467e-02  -6.8968821e-02   3.6190652e-02  -5.6329702e-03  -2.4109445e-02  -6.7485541e-02   2.1352077e-01   1.7150935e-02  -4.5449094e-02  -1.2141194e-02   4.5992970e-02  -4.2418457e-03   1.6453460e-02  -9.1363938e-02  -3.8546449e-02  -3.6979545e-02  -2.8819374e-02  -2.2738582e-03   9.0296280e-03  -1.3677163e-01   9.1250543e-02  -8.9643234e-02   4.6514797e-02   9.9091450e-03  -4.8450203e-02   7.0600689e-02   1.1905898e-01  -1.0700154e-01   4.1900732e-02  -2.1018006e-04   1.9802418e-02   9.1908949e-02   2.8799476e-02   4.0642515e-02   8.1035511e-02  -2.8228012e-02   7.5958611e-02   1.8313319e-02   3.2149332e-02  -1.0977153e-01  -4.6014625e-02  -3.4502672e-02   9.9278313e-02   9.5784396e-02  -2.0659272e-02  -5.1714557e-02  -7.4788708e-02   7.6772340e-02  -1.5201095e-01  -1.0063110e-01  -5.0286096e-02   6.0272334e-02   2.9521938e-02   4.5179229e-03   1.0591865e-01  -5.4339136e-02   4.9638739e-03   9.2001100e-03   1.5577821e-02   6.2270036e-02  -3.2501863e-02  -9.8918247e-02   3.7341178e-02  -2.0490313e-02   3.8228401e-02   1.4243747e-02   1.0800001e-01   3.2393081e-02   3.0834614e-02   4.0254346e-02  -1.1835007e-01   4.2419051e-02  -3.2926191e-02  -2.4377097e-02   4.9598343e-02   5.3267892e-02  -1.7395409e-02  -7.5922890e-03  -1.1039406e-02  -5.9879349e-02  -5.6983418e-02  -8.5077523e-02  -3.2632418e-02  -4.0437913e-02  -2.2905930e-02   7.4997093e-02  -3.7086003e-02  -2.2869677e-02  -8.4775129e-03  -6.1678430e-02   6.6080455e-03   1.2360426e-01  -2.0310530e-02   5.0414530e-03  -1.3058263e-01   4.4031319e-02   8.0083357e-02   7.7623455e-02   7.1447206e-02  -1.1931789e-01   5.2658546e-02   8.1626464e-02   2.8618407e-03  -7.3116751e-02   7.0115465e-03  -4.9595564e-02   7.1190478e-02   5.8261195e-02   6.5209975e-02   6.8738341e-02   6.1692297e-03   5.9192955e-02  -9.5840578e-02   2.5369612e-02   4.2949534e-02   3.3316409e-02  -2.4784292e-02  -4.4318114e-02  -3.8116660e-02   2.7915348e-02  -1.6123713e-02  -3.5937635e-02  -1.0782121e-01  -5.7498644e-02  -1.2002695e-01   8.3721331e-02   6.0993472e-02   2.4931073e-03  -2.1901195e-02   5.6498091e-02   1.3712582e-02  -7.4081798e-02  -5.8134611e-02   2.3850362e-02   6.1465185e-02  -1.2897324e-02   2.9983212e-02  -2.4794669e-03  -8.1280317e-03  -1.1824281e-02   5.5737322e-02   1.4683690e-02   6.2556640e-02  -1.0938447e-01  -2.4325142e-02   2.2597470e-02  -4.6992237e-02  -6.7383113e-02  -8.1094361e-02   4.5167206e-03  -3.8906522e-03  -7.6236243e-03   6.8163836e-02   7.0357161e-02   3.2759092e-02  -3.0394874e-02   3.1790466e-03  -1.0116651e-01   6.2331695e-02  -1.6352957e-01   1.7693104e-01  -5.3192759e-02  -5.2041106e-02  -4.7084183e-02   8.1393635e-02  -2.4667675e-02  -7.3051453e-02   8.2551230e-03  -1.1488186e-01  -2.7733640e-02  -1.0285695e-01   2.6321114e-02   2.4702680e-02  -5.0946768e-02   1.1694944e-02  -1.4265816e-03   5.9771658e-02  -4.5974189e-02   1.2908461e-02  -6.0109645e-02   7.4963691e-02   6.2142531e-02   1.4349371e-01
  -6.8337702e-02   3.2012302e-02   1.3283986e-02  -3.5287982e-02   5.3648125e-02  -8.1194553e-03   8.6719484e-02  -2.6580730e-02  -3.1643920e-02   7.4035925e-02  -4.7064146e-02  -9.0843184e-02  -1.1034858e-01   6.6802838e-02   4.5838889e-02   2.3448569e-02   1.2512214e-02  -7.0819159e-03   4.3136324e-02  -5.1194682e-02  -3.7118687e-02   5.0694962e-02   2.0252356e-02  -5.1739847e-03  -1.0874969e-01  -3.1161490e-02  -3.2714165e-02  -3.4715273e-03  -6.3238601e-03   3.2556649e-02   6.7522947e-02  -2.7028991e-02   4.6204500e-02   2.4830959e-02  -3.8334846e-02  -2.6428592e-02   1.2111009e-01   5.2358311e-02  -2.5867552e-02   1.0359968e-02   1.1821407e-01  -3.0739475e-02  -7.5507778e-03   9.4681877e-02   2.4191541e-02   1.0465080e-01   7.1673330e-02  -7.6165411e-02  -5.0705651e-02  -4.0637624e-02  -2.5411493e-02  -7.6691071e-02  -2.4585624e-02  -8.2434147e-02  -2.3226085e-02   7.2355664e-02   8.6009914e-02  -7.3420869e-02   1.7003359e-02  -4.6604343e-02  -6.5138417e-02  -7.5865426e-02   9.5132332e-03   6.1579543e-02  -1.5631738e-02   2.8818356e-02   6.5246697e-02   6.4891021e-02   1.0217682e-01   3.1823481e-02  -4.7540419e-02   1.0417766e-01  -7.3578893e-02  -6.1273754e-02  -3.0978129e-02   3.1919988e-02  -5.7082761e-02   1.0112060e-02   4.5861761e-02   5.6011132e-02   4.0892441e-02  -7.0534087e-02  -7.0659988e-02   5.0669525e-02  -2.4022713e-02   9.4356375e-02  -4.7815474e-02  -2.9105608e-02   1.4530789e-01  -6.4605595e-02  -1.1547642e-02   7.2297125e-02  -2.5710043e-02  -7.7116895e-02  -6.0498489e-02  -1.9600621e-02  -4.7495552e-02   3.0379530e-02   1.5598737e-02  -6.2794201e-02   2.7592861e-02  -6.3518448e-02  -2.2920311e-02  -1.1261582e-01  -1.2217222e-02  -4.1290336e-02   3.2467999e-02  -3.3327974e-02   5.1383712e-02  -6.4322009e-02   1.4037863e-01   1.8450816e-02  -2.3876644e-02  -7.0872722e-02  -9.0878691e-02  -2.2208309e-02   8.8238576e-02  -4.3306809e-02   1.7352824e-02  -1.3140065e-02  -2.5872204e-02  -9.0462362e-02   4.0040083e-02   2.0076771e-02   1.6707162e-02   5.4068469e-04  -6.6131828e-02  -8.5504912e-02  -5.2779672e-03   9.7489941e-02   6.5383469e-02   7.2991429e-02  -2.1023221e-01   4.4795481e-02  -1.1983174e-03   5.8394560e-02  -1.1331301e-02   1.1330031e-01  -4.4071265e-02  -3.6059086e-02   3.0044313e-02   1.0317951e-02  -3.5290942e-03  -6.5634185e-02   4.2809001e-02   5.5372337e-02  -5.7200332e-02   1.4109451e-01   4.2812007e-02   1.3732815e-01   6.5131015e-02   2.8642299e-03   1.9422400e-02   1.1096623e-02  -6.8685426e-02   1.0757844e-01  -4.6310392e-02  -7.9067001e-02   6.4913967e-02   3.9397143e-02  -1.2371474e-02  -1.1295146e-01   5.5699742e-02   1.6079514e-02  -4.5937052e-02   8.1941280e-02  -1.3081721e-01  -5.9276714e-03   7.0823677e-03   1.2981470e-02   1.3730552e-02   3.7443133e-02   5.6462026e-02  -8.9526022e-02  -2.2823592e-02   7.6538389e-02  -9.8010066e-03   4.7047149e-02  -3.9327747e-02  -2.3968442e-02   2.0589891e-02   1.6994921e-02  -1.2412419e-01   7.5729765e-03   3.2911406e-04  -4.9739093e-02   9.4494775e-02   7.0809790e-03   3.8172534e-02   5.2883434e-03   8.5491851e-02  -9.1367514e-02  -3.9234223e-02  -3.8940479e-02   3.3476534e-02   3.4395458e-02  -8.7275724e-02   1.5789021e-02  -2.5501131e-02  -4.5464314e-02  -4.4220609e-02   1.3226141e-02  -7.1928703e-02   1.0289110e-01  -1.9871882e-01  -3.9833967e-04  -7.4753518e-02   3.1979313e-02  -1.2705740e-01   8.7399329e-02  -3.5877058e-02   9.7997740e-02   2.5875595e-02   8.7498162e-02   1.3412455e-02   2.1716179e-03  -3.4526858e-02   4.3646928e-02   1.4307269e-03  -8.5834813e-02  -7.5136904e-02   5.6730180e-02  -3.1486307e-02   1.1480853e-02   1.0257044e-01  -6.5983166e-02   1.4858918e-02   2.8560218e-02  -6.4780224e-02  -2.0949215e-02  -2.3132838e-04  -7.1852790e-02   3.2846180e-02  -5.4619419e-02  -3.6881325e-02   2.0466799e-02  -1.3218384e-02  -1.9231170e-02  -8.1731887e-02   1.3162660e-01   4.7356262e-02  -1.0016450e-01   1.3514396e-02  -1.7407501e-02  -1.8793665e-02   4.4144103e-02   9.0042447e-02   1.5747424e-01   2.5392704e-02   3.8980473e-02  -1.3865242e-02  -2.8072551e-03  -2.2837891e-02   1.0609313e-01  -1.0475190e-01  -1.0100968e-01
   3.0291043e-02  -1.4437883e-01   1.7433821e-02   8.5416115e-02   4.4428721e-02   3.1099719e-02   4.4756281e-02  -3.7803054e-02   1.7979653e-02  -7.4468514e-03  -4.4415907e-02   1.6245259e-02   1.7889176e-01   4.1835959e-02  -7.4746030e-02  -4.5716451e-02   8.9070678e-02   4.6719391e-02  -1.0640673e-01   7.0706401e-02   5.1387045e-03  -2.7532513e-02   1.5378670e-02   1.5184265e-02   9.4022589e-02   5.9535167e-02   5.0082376e-03  -1.8277608e-02  -4.6996975e-02  -1.1373820e-01   4.2774864e-02  -3.0283639e-02  -9.9807795e-02   5.5977326e-04  -4.2080417e-02   1.1720841e-01  -1.2555377e-02   6.8581403e-02  -9.9440232e-02   2.0688340e-02   4.5211591e-02  -4.5450688e-02   2.0869316e-02  -1.0265477e-01   5.3545868e-02  -3.8483104e-02  -7.9063125e-04   9.7074034e-02   2.1881601e-02  -5.1355174e-02   8.2438133e-02  -1.9550558e-02   5.0277153e-02   1.5951364e-02  -2.7989572e-02   4.0434348e-02  -5.3236063e-02  -9.7294830e-02   5.8680901e-02  -3.2644016e-03   1.1534396e-01  -1.8496405e-02   4.3699568e-02   3.8978689e-02  -1.5386168e-01  -6.9395369e-02  -5.9255928e-02  -1.2851708e-01   1.2329819e-01   7.8563142e-04   1.0019318e-02   5.7983817e-02   6.8805548e-02   6.8934154e-03  -7.8996934e-02   6.1573670e-02   9.5985916e-02   2.9471253e-02   4.4056741e-03   8.4498056e-02  -1.6662483e-02   3.1043887e-03  -3.4038210e-02  -5.0898988e-02   2.1016796e-02   4.4640735e-02   5.6059380e-02   2.8391507e-02  -6.1956538e-02   1.4762177e-02   7.4700202e-02   5.3848893e-02   9.2197572e-02   6.4061262e-03   2.3860155e-02   9.0786960e-02   2.0323954e-02  -5.9239899e-02  -8.1403419e-02  -2.5464933e-02   5.5151688e-02  -2.4313086e-02  -8.7202658e-03  -1.8804154e-02  -1.8780246e-02  -8.7659246e-02  -8.4841314e-02   6.0147298e-03   2.8086371e-02  -3.2678656e-02   1.2952435e-01  -2.9368934e-02   2.5247245e-02  -4.4341169e-02   1.5576381e-02   4.9420026e-02   4.4553764e-02  -3.7269804e-02  -1.0567235e-01  -3.9026371e-03  -7.0134900e-02  -7.1180176e-02  -1.5347841e-02  -3.7664599e-03  -7.9555965e-02   8.1852227e-02   5.0663700e-02   2.1528558e-02   5.2301861e-02   2.1551512e-02   1.9095379e-02  -3.3947722e-03   4.8950493e-02  -4.8821984e-02   4.8899279e-02  -1.0265196e-02   4.5197106e-02   1.3774100e-02   3.2800263e-02   4.9763293e-02  -1.4793375e-01   1.1563597e-02   1.6590054e-02  -2.3979929e-02   2.8925935e-03  -1.2684358e-02  -1.5365050e-01   7.2288023e-02  -4.1864785e-02   1.0897883e-01  -9.3032001e-02  -3.8493592e-03  -8.6727845e-02   9.4778534e-02   5.6069654e-02   4.8996541e-02  -1.8003492e-02  -8.2267211e-02   1.9573024e-01  -1.4013178e-02   3.8515331e-02   9.8584913e-02  -6.1227827e-02   2.4768928e-02  -6.6673961e-02  -1.4487737e-01   3.9012730e-02   5.6860844e-02   2.5266737e-02  -2.2219230e-02  -1.5698407e-02   6.3624686e-02   6.4720721e-02   7.8924360e-02   2.4913781e-02   4.6637130e-02   3.0806844e-02  -4.4960411e-02  -6.0758618e-02  -8.3492890e-02  -9.0762063e-04   5.0267042e-03   1.2340539e-02  -9.3140573e-04  -3.1094278e-02  -7.9492589e-02  -1.1698460e-02   2.2686721e-02  -9.7948897e-02  -4.1622093e-02   9.5343454e-02   4.9637671e-02  -9.2627490e-03   5.1123838e-03   1.1719163e-02   1.3795582e-01   8.2880860e-02   2.2386728e-03  -1.1905521e-02  -8.4888345e-02   7.5690290e-03  -4.3223328e-02   2.9093010e-02  -4.2208319e-02  -1.1775853e-01  -6.0764898e-02  -5.2042348e-02   1.0978790e-02  -5.1086729e-02   6.0368733e-02  -5.6687065e-02  -1.4059267e-01   5.8777831e-02  -5.4724612e-02  -4.8802418e-02   1.4358331e-02  -5.8701681e-02   3.1345355e-02   4.9435270e-02   1.0445363e-02  -5.0639270e-02   5.4513974e-02  -8.5706140e-02  -2.2942217e-02  -1.9178421e-02  -7.4771296e-02  -1.6180861e-02   6.4276585e-02   9.5243807e-03  -3.4628175e-03  -6.5540955e-03  -8.6545760e-02  -1.3194954e-01  -5.0904804e-02   1.6078123e-02   6.9025676e-02  -7.3623110e-02  -9.9395495e-02   9.2459734e-02   3.6908598e-02   1.1933727e-01   7.0140364e-02  -2.7518601e-02   3.8952601e-02  -2.6163517e-02   1.0800023e-01  -9.6900349e-02  -1.5965222e-02   2.6941709e-02  -8.3088595e-02   1.6187858e-02   2.3097833e-02   7.7509821e-04   5.4850622e-03   3.8628542e-02  -4.6543527e-02
   8.5052453e-03  -3.3508531e-02   3.2254834e-02  -2.9215796e-02  -4.9890296e-02   3.9046150e-02  -1.0071586e-01  -7.2515094e-02   2.0059574e-02  -5.5267257e-02  -1.4622309e-02  -4.1690207e-02   3.5302929e-02   1.8423497e-02   2.1686277e-02  -3.0183621e-02   5.1885241e-03  -3.3507426e-02  -6.9079919e-03  -4.0130557e-02  -1.0706708e-01  -8.5963064e-02   5.4358029e-02  -6.0358115e-02   3.9444335e-02  -6.0083235e-03  -2.1292008e-02   8.6534715e-02  -2.6703318e-03   3.6001517e-02   2.0131827e-02  -6.5278523e-02  -3.9859061e-02   1.6126444e-01   5.4946301e-02  -2.2821491e-02  -1.0342873e-01   1.4071563e-02   9.9390014e-03  -1.1942151e-01   1.2994406e-01  -6.7844139e-02  -3.6043643e-02   2.9180109e-02  -8.7644986e-02   4.2914970e-02   4.7373950e-02  -9.6060194e-02   5.0235818e-02  -7.6041420e-02  -9.4221506e-02   9.4609311e-03  -4.2680471e-02  -8.0325328e-02   6.6110465e-02  -1.9593868e-02  -1.0914069e-01   2.7973930e-02  -8.6197344e-02  -2.9068711e-02  -3.0208811e-02  -1.6353684e-02   1.2010638e-02  -8.5654311e-02   4.7030896e-03  -1.3250757e-02  -6.6309254e-03   1.4492380e-02  -1.3607306e-02   1.6883985e-02   6.5561305e-03  -5.0085542e-03   1.8417593e-01  -3.9088853e-02   7.3359684e-02   9.5119382e-03  -1.3813350e-02  -8.1638423e-02  -7.4164698e-03   1.8947350e-02  -8.4210794e-02  -1.6966984e-02   3.2594828e-02  -1.3513080e-01  -6.9377298e-02   7.9945824e-02   4.3404459e-02  -1.2184138e-01  -8.0130996e-02   6.3739504e-02  -1.8212671e-02  -4.6635861e-02   1.3306781e-02   1.0812624e-02  -2.9775644e-02  -1.1540310e-02  -8.5549952e-03  -2.7332360e-02   6.8921449e-03   9.0593065e-02   1.6542327e-02   6.8086775e-02  -6.4706637e-03  -4.6984499e-02  -4.3132003e-02   2.9494302e-02   4.3902880e-02  -3.7163622e-03   1.2237455e-01   6.8078348e-02   7.4465098e-02   1.0326279e-01   1.9668705e-02   7.5187306e-02  -5.9040614e-02   1.4100826e-01  -2.6971068e-02  -6.8604797e-02  -1.3131800e-02   1.3549096e-01   6.4667300e-04  -4.4358704e-02   7.5767215e-02   1.3583546e-03  -1.0002915e-01  -9.2764996e-02  -1.1775689e-02   7.0352106e-02   1.2154994e-01   6.5411434e-02   2.4382924e-02   2.4834758e-02   2.8863487e-02   1.2495912e-01   3.8558083e-02   5.1205610e-02  -6.1971000e-02  -4.9675160e-02   2.6515122e-02  -2.9124101e-02  -3.4085414e-02   7.9745916e-02   2.2277985e-02  -7.6519975e-02   2.1813576e-02  -1.1007977e-01   9.6077551e-03   1.0513119e-01  -1.4167708e-01   1.9005637e-01   6.1016534e-02  -1.0391877e-02  -1.3107196e-02  -2.4233176e-02   1.1671645e-01   2.4071149e-02  -3.1798059e-03   2.2079022e-02  -9.0814218e-02  -7.1679170e-02   1.3782366e-02  -3.6731929e-02   1.0223747e-01  -2.3742507e-02  -9.5111378e-02   8.2663768e-02   4.7351872e-02   4.7790916e-02  -1.5632308e-02   5.0717100e-02  -1.6862192e-03   4.5615964e-02  -2.7089594e-02   3.9287444e-02  -8.4993100e-03   6.7550058e-02  -1.0609136e-01  -5.6125072e-02  -4.5252541e-02   1.5528695e-02  -1.6770022e-02  -9.5042137e-02  -1.6038839e-02  -3.7190344e-02   1.1738900e-01   3.3784467e-02  -6.8546408e-02  -4.5046721e-02  -2.9899727e-02  -6.3208524e-02  -4.7009917e-02  -2.3595151e-02  -3.5559856e-02  -5.4089673e-02  -7.3770301e-02   7.0847110e-02   8.7259162e-02  -2.5572268e-02  -9.4270467e-03  -5.5693169e-02   1.5268514e-02   8.5856767e-02  -6.5191406e-02  -1.2946554e-02   4.6701017e-03   5.2435414e-03  -3.4341684e-02  -5.4927682e-02   5.3019548e-02   4.0554716e-02   6.6884392e-02   1.4043602e-02   4.6562103e-02   9.4632225e-04   3.8856209e-02   1.2444782e-02   9.6077263e-03   8.9797874e-03  -1.6605291e-02   1.4450013e-02   1.9247439e-01  -1.2144504e-02  -2.6710482e-02   3.4605364e-02   6.4661812e-02  -4.7777040e-02   9.7106218e-02  -2.3147191e-02  -4.7356270e-02  -5.0679788e-03   9.0971543e-02   2.0425042e-02  -7.7883552e-02   2.8339864e-02  -6.8892939e-02  -1.6388596e-02   2.0151290e-03   3.7343252e-02   4.6345256e-02  -7.2224864e-02   7.8984722e-02   2.8098666e-02   3.7589281e-02  -8.1530334e-02   8.3848498e-03  -1.6450779e-03   8.2170245e-02   5.0956836e-02  -3.3196743e-02   1.3215463e-01   1.3006596e-01  -1.4351298e-02  -6.4881687e-02  -1.3861487e-01  -2.8044781e-02   1.8367722e-02
  -2.6515605e-02  -4.6780143e-02   5.0189246e-02   1.5792118e-02   2.0549759e-02  -7.9699818e-03   2.7806259e-02  -1.0352909e-01   6.7572368e-02   8.3852761e-02   1.7451066e-02  -1.0050316e-01  -1.7011399e-01  -1.5572339e-02  -5.8783025e-02  -3.2835978e-02   4.1798161e-03  -1.2271141e-01   4.6395412e-02   1.2378523e-01   3.1421572e-02  -1.8750482e-02   8.0428756e-02   2.2432478e-02  -4.2979560e-03   6.1064275e-02  -2.0278487e-02   1.1088404e-01   1.2594648e-02   2.3698644e-02  -3.4597754e-02   1.1298582e-01  -4.2905370e-02  -6.5377327e-02   7.9071702e-02   9.9165352e-02   6.1572236e-02   1.1688452e-01  -4.4614058e-02  -4.2797055e-02   3.6854242e-02   5.8843376e-02  -1.1464689e-01   7.4250652e-02  -2.9723241e-02  -2.6540731e-02  -2.1048577e-02   4.7504075e-03  -5.4148910e-02   6.8777555e-02   1.1835418e-01  -1.4644612e-02   3.1326092e-03   6.0839403e-02   1.6856476e-02  -1.1338921e-02  -9.6528296e-02   4.4019008e-03  -6.6771924e-02  -3.1746040e-02  -1.7412940e-02  -3.1719813e-02  -3.0523918e-02   9.9242238e-02   6.3154010e-03   2.7201890e-02  -1.1397154e-01   1.1184965e-01  -2.5091680e-02   9.0069847e-04  -9.3648458e-03  -1.5157711e-02   1.1208698e-01  -7.5150395e-03   1.1576816e-01  -3.0065861e-02   2.8852784e-03  -3.3179296e-02   1.5250495e-01   3.5214691e-04  -3.6023789e-02  -9.9991602e-02   6.5264637e-03  -9.4051193e-02  -5.9597626e-02  -8.0686613e-03  -2.5904043e-02  -2.1991099e-02   9.8767553e-03   2.9057793e-02   4.8454762e-02  -1.1009325e-02  -3.6385363e-02   1.4959005e-01   1.1976925e-02   1.8657936e-02  -2.6993958e-02   6.1242897e-02  -4.4559703e-02   9.4569115e-03  -6.2567287e-02   1.4548361e-01  -8.0713350e-02  -5.7827628e-03   9.1457138e-02  -5.9171618e-02  -1.5281258e-02  -1.1651285e-02   1.6867216e-02   4.7895588e-02   9.2468947e-02   8.4981002e-03   1.3846688e-02  -1.3923418e-02  -6.9092814e-02  -1.3321592e-01   3.5185110e-02   2.9073574e-02  -4.1974830e-02   1.2103408e-01  -7.6920797e-02  -1.4128395e-02  -3.9702805e-02   5.2665009e-02  -6.9804225e-02   5.0617876e-02  -4.7095284e-02   7.8520723e-02  -6.2610491e-02   8.9948841e-02   1.0458345e-01   3.9371570e-02   5.8805337e-02  -1.0010737e-01  -3.5208062e-02   5.7314233e-03  -1.8358475e-03  -4.1513143e-02  -4.3028045e-02   5.4262528e-02   3.0703678e-02   1.3176538e-02  -2.5220637e-03  -2.1829670e-02  -2.3218575e-02   9.4915424e-02   1.0491408e-01  -8.0202723e-02   1.2656432e-02  -1.0939569e-02  -8.5536732e-02   3.0656189e-02  -1.9559285e-02   3.3190096e-02  -5.8861572e-02  -6.7408344e-02   2.9198293e-02  -7.8707938e-03   8.8016944e-02  -3.2841759e-02   1.4194498e-02   7.3597364e-02  -1.8197682e-01   1.8815442e-02   1.3412428e-01   4.1769901e-02  -2.2302565e-02  -2.3791915e-02  -2.6367961e-02  -5.7440177e-02   1.7144329e-02  -9.3768173e-02  -1.8253008e-02  -4.8632364e-02  -7.6513640e-03   1.2085349e-02  -4.8904384e-03  -4.6231525e-02   1.0150435e-01  -2.6385434e-03  -7.7101526e-02  -3.2446273e-02   1.7364469e-02  -9.2426491e-02   1.5889591e-02  -1.2666807e-01  -1.3556862e-02  -1.1184596e-01  -1.2359221e-02  -7.8988567e-03  -2.4674358e-02  -1.5724655e-01  -2.7871581e-02   3.3089017e-02  -6.1168687e-02   1.2712735e-02  -1.1192497e-01   3.5377223e-02  -3.8915927e-02   4.9004326e-02  -3.2504365e-02   1.6634531e-02  -2.1065335e-02   5.5035732e-03  -9.8783135e-02   4.9043491e-02   3.8000165e-03  -4.3168241e-02   8.2790268e-02  -1.9815915e-02   1.8683564e-03   1.5630127e-02  -8.5698368e-02  -1.0522864e-01   1.0679500e-01  -9.2473726e-02   3.0808858e-02  -5.8963713e-03   2.7157603e-02   3.9884916e-02   6.4122669e-02  -1.8308756e-02  -1.3765193e-01   6.3951719e-02  -4.9700285e-02   4.3149694e-02  -2.7914969e-02  -3.9340319e-02  -1.1680466e-01   2.8252026e-02  -2.1333422e-02   3.5826593e-02   9.4429307e-03  -5.7699913e-02   3.1384481e-02  -4.4374391e-02   3.6667773e-02  -1.0728807e-01   4.7248232e-02   5.7258660e-02   2.0149923e-02   2.0186237e-02  -5.5137600e-02   1.6444718e-03   3.5134793e-02   1.2083267e-02   7.6810052e-02   1.6247424e-02   4.1329688e-02  -7.8326687e-02   1.0109003e-01   1.3044488e-01   2.0213369e-02   1.0729445e-04  -1.7310518e-02  -2.7428456e-02
  -1.6630205e-02  -3.9552932e-02   4.7769169e-02   2.4162803e-02  -1.0092378e-01   9.3513697e-03   5.0610115e-02  -1.0185638e-02  -5.4893936e-02   7.6912257e-02   2.7409492e-02  -2.2512172e-03   3.3927019e-02  -7.2933171e-02   8.1793813e-02  -3.6384703e-02  -6.6402677e-03   5.7897911e-02   6.3659463e-03  -3.0096365e-02  -3.4783626e-02  -3.2951995e-02  -5.4845729e-02   6.5793507e-02  -1.0024729e-01   1.1642858e-01   9.2155183e-03   1.1064710e-02   1.0585791e-01   8.7825891e-02   3.0812439e-02   1.0794717e-02   1.5884279e-02   5.8655309e-02  -1.6731689e-02   8.7175173e-03   1.0300385e-01  -3.6635237e-03   2.9482837e-03  -9.7888903e-02  -1.0933429e-01  -4.5694748e-02  -1.0332834e-01  -3.0684987e-02  -1.4491211e-01   3.8644501e-02   1.2784184e-02   2.7876386e-02  -1.0721379e-01   2.6391949e-02   3.8158052e-02  -8.3020158e-03  -2.5444869e-02   1.0399700e-01  -3.9210778e-03   1.9572640e-03   4.5097147e-03  -9.9291641e-03   2.4816477e-02  -1.5088736e-01   6.4788473e-02   9.0126815e-02  -3.6227532e-02  -7.6912159e-02   5.2211642e-03   9.3609342e-03  -3.3003216e-02   6.3994624e-04   2.2510505e-02  -2.3073013e-02   5.7531743e-02  -2.1967338e-02   2.5861546e-02  -4.9515293e-03  -1.0561708e-01   7.0073966e-02   3.9515909e-02   6.2709541e-02  -2.1121210e-02  -1.8577417e-03   1.3550227e-02  -1.6418221e-01  -2.1364273e-02  -2.5352020e-02  -1.8649100e-01  -1.5969323e-02   6.1424088e-02  -5.2911198e-02   8.5012809e-02  -9.2290300e-02  -7.2679095e-02  -1.7929604e-02  -9.8517894e-02   2.7376385e-02   2.4917586e-02   1.3386205e-01   9.6331681e-03  -2.6824046e-03   3.0007057e-02   5.1902433e-02  -9.7320599e-02   1.0816964e-01   3.6361029e-02  -3.9694030e-02   1.6134806e-02  -1.1090736e-01  -7.1305124e-02   4.4343488e-02  -2.9745294e-02   2.4440547e-02   6.1951521e-03   1.8465872e-02   2.5813885e-02  -1.3310315e-02  -3.4211189e-02   1.6799122e-01  -4.3327069e-02   1.9583322e-02   5.5438118e-02  -3.0651892e-02   5.8159139e-02   1.0463733e-01   1.3505600e-01  -1.2300653e-03  -1.9909154e-02   6.7583634e-02   2.6765670e-02  -6.0831163e-02   9.7457352e-02   3.0301849e-02  -3.0091498e-04  -1.6134460e-02   8.5270647e-03   3.9377644e-02   5.5455437e-02  -2.7841544e-02  -5.9336016e-02   2.1301313e-02   3.3983897e-02   8.6605499e-02  -5.2854122e-02  -4.0900742e-02   3.1264746e-03  -5.9434449e-02   4.9437006e-02  -4.4486141e-03   1.7563817e-02  -3.1670722e-02   1.1302754e-01  -2.2212278e-02  -5.9445580e-02   1.8853561e-02   5.7367172e-02   5.1946381e-02  -3.5576138e-02  -7.2632534e-02   3.8565304e-02  -2.5865622e-02  -2.0230780e-02   1.1089568e-01   3.1175135e-02  -4.0938754e-02   1.5212582e-01  -1.0256973e-01   1.9111004e-02   6.9258319e-02  -6.2739288e-02   5.3487501e-02  -1.2726363e-01   5.3233332e-02  -9.1893670e-02  -3.1350811e-03  -6.4449409e-02  -1.4748845e-01  -1.1357362e-03   3.1521016e-02   8.1562823e-02  -5.5184587e-02  -5.4729478e-02  -3.8991155e-02  -7.7943047e-02   6.7279298e-02  -4.4576770e-02  -5.5151195e-04   4.6978998e-02  -2.2412670e-02  -4.4051470e-02   7.3033232e-02  -5.1369150e-02  -7.1302043e-02  -6.8840532e-02   3.6154633e-02   1.2939009e-02  -5.4640143e-03   5.8744990e-02   5.4292267e-02   8.6782609e-02  -4.8541505e-02   8.4162520e-03  -1.0256447e-02   1.3630520e-02  -3.8848169e-02  -2.0809409e-03   2.4371818e-02   6.1947573e-02  -3.5576162e-02  -4.8838152e-03  -2.6403008e-02   2.6444397e-02   2.2381875e-02  -7.1120091e-02   2.7900509e-02   4.8753324e-02  -1.2133496e-01  -8.2056407e-02   3.4501004e-02  -1.7332554e-01   9.7364269e-03   4.6736354e-02   2.0644669e-02   9.3489966e-02   8.8960361e-02   1.5990484e-02  -5.7469173e-02   5.1125878e-02  -3.2351025e-02  -6.3368987e-02  -4.2664120e-02  -3.4449316e-02  -9.5859789e-03   7.3419339e-02   6.9908711e-02  -4.1801437e-02   7.7131293e-04   2.1092509e-02  -9.2494097e-02   5.9928557e-02  -1.2271534e-01  -1.8155968e-02   4.8475226e-02  -6.4507162e-02  -6.9778443e-02   2.4157416e-02  -8.3700094e-03   2.6800773e-02   3.8493657e-02   2.2087353e-02  -5.5622185e-02   5.1164973e-02  -1.3342827e-01  -9.5144471e-02  -3.0017505e-02   4.7487540e-02   1.1898455e-01   7.1541551e-02   1.1643715e-01
